{"learner":{"attributes":{"scikit_learn":"{\"_estimator_type\": \"classifier\"}"},"feature_names":[],"feature_types":[],"gradient_booster":{"model":{"cats":{"enc":[],"feature_segments":[],"sorted_idx":[]},"gbtree_model_param":{"num_parallel_tree":"1","num_trees":"150"},"iteration_indptr":[0,1,2,3,4,5,6,7,8,9,10,11,12,13,14,15,16,17,18,19,20,21,22,23,24,25,26,27,28,29,30,31,32,33,34,35,36,37,38,39,40,41,42,43,44,45,46,47,48,49,50,51,52,53,54,55,56,57,58,59,60,61,62,63,64,65,66,67,68,69,70,71,72,73,74,75,76,77,78,79,80,81,82,83,84,85,86,87,88,89,90,91,92,93,94,95,96,97,98,99,100,101,102,103,104,105,106,107,108,109,110,111,112,113,114,115,116,117,118,119,120,121,122,123,124,125,126,127,128,129,130,131,132,133,134,135,136,137,138,139,140,141,142,143,144,145,146,147,148,149,150],"tree_info":[0,0,0,0,0,0,0,0,0,0,0,0,0,0,0,0,0,0,0,0,0,0,0,0,0,0,0,0,0,0,0,0,0,0,0,0,0,0,0,0,0,0,0,0,0,0,0,0,0,0,0,0,0,0,0,0,0,0,0,0,0,0,0,0,0,0,0,0,0,0,0,0,0,0,0,0,0,0,0,0,0,0,0,0,0,0,0,0,0,0,0,0,0,0,0,0,0,0,0,0,0,0,0,0,0,0,0,0,0,0,0,0,0,0,0,0,0,0,0,0,0,0,0,0,0,0,0,0,0,0,0,0,0,0,0,0,0,0,0,0,0,0,0,0,0,0,0,0,0,0],"trees":[{"base_weights":[-7.590863E-3,-3.775261E-1,8.248338E-1,1.0189284E0,-5.260241E-1,5.5315226E-1,9.9008626E-1,1.0091567E-1,-1.1175915E-2,-6.6859834E-2,-1.9605465E-2,6.2436566E-2,-3.4602752E-3,8.386943E-2,2.8227352E-2],"categories":[],"categories_nodes":[],"categories_segments":[],"categories_sizes":[],"default_left":[0,0,0,0,0,0,0,0,0,0,0,0,0,0,0],"id":0,"left_children":[1,3,5,7,9,11,13,-1,-1,-1,-1,-1,-1,-1,-1],"loss_changes":[3.1123068E1,1.5043136E1,8.4854317E-1,2.1613073E0,5.3550644E0,1.9354515E0,3.0124092E-1,0E0,0E0,0E0,0E0,0E0,0E0,0E0,0E0],"parents":[2147483647,0,0,1,1,2,2,3,3,4,4,5,5,6,6],"right_children":[2,4,6,8,10,12,14,-1,-1,-1,-1,-1,-1,-1,-1],"split_conditions":[7.6086324E-1,4.0174693E-1,8.417625E-1,3.103076E-1,3.5049954E-1,8.15473E-1,9.5916176E-1,1.0091567E-1,-1.1175915E-2,-6.6859834E-2,-1.9605465E-2,6.2436566E-2,-3.4602752E-3,8.386943E-2,2.8227352E-2],"split_indices":[1,2,1,1,1,1,1,0,0,0,0,0,0,0,0],"split_type":[0,0,0,0,0,0,0,0,0,0,0,0,0,0,0],"sum_hessian":[9.905635E1,6.8957596E1,3.0098755E1,6.0646744E0,6.289292E1,1.3027819E1,1.7070936E1,4.9415865E0,1.1230879E0,2.8975666E1,3.391725E1,9.20932E0,3.8184986E0,1.5049377E1,2.021558E0],"tree_param":{"num_deleted":"0","num_feature":"4","num_nodes":"15","size_leaf_vector":"1"}},{"base_weights":[-2.9125657E-2,-4.4419283E-1,5.3387135E-1,-5.9081155E-1,9.505082E-2,2.2334309E-1,8.082867E-1,-3.9138667E-2,-8.5388996E-2,-7.223076E-3,4.5506004E-2,8.999358E-2,4.312948E-2],"categories":[],"categories_nodes":[],"categories_segments":[],"categories_sizes":[],"default_left":[0,0,0,0,0,0,0,0,0,0,0,0,0],"id":1,"left_children":[1,3,5,7,-1,9,11,-1,-1,-1,-1,-1,-1],"loss_changes":[2.3716713E1,1.4674682E1,3.491685E0,2.1033554E0,0E0,2.391655E0,1.310771E0,0E0,0E0,0E0,0E0,0E0,0E0],"parents":[2147483647,0,0,1,1,2,2,3,3,5,5,6,6],"right_children":[2,4,6,8,-1,10,12,-1,-1,-1,-1,-1,-1],"split_conditions":[6.649651E-1,9.915735E1,1.0294557E1,5.754937E-1,9.505082E-2,8.417625E-1,1.842643E1,-3.9138667E-2,-8.5388996E-2,-7.223076E-3,4.5506004E-2,8.999358E-2,4.312948E-2],"split_indices":[1,0,0,1,0,1,0,0,0,0,0,0,0],"split_type":[0,0,0,0,0,0,0,0,0,0,0,0,0],"sum_hessian":[9.947677E1,5.7382668E1,4.2094105E1,5.323872E1,4.143945E0,2.0598612E1,2.1495493E1,4.5555122E1,7.683597E0,1.1184177E1,9.414434E0,8.416081E0,1.30794115E1],"tree_param":{"num_deleted":"0","num_feature":"4","num_nodes":"13","size_leaf_vector":"1"}},{"base_weights":[1.1220444E-2,-2.7269208E-1,5.837468E-1,1.0772977E0,-4.1169912E-1,2.8155416E-1,8.514005E-1,9.4045736E-2,2.4884772E-2,-1.0786939E-3,-5.0915193E-2,3.2493785E-2,-4.1646197E-2,1.0107759E-1,3.6550265E-2],"categories":[],"categories_nodes":[],"categories_segments":[],"categories_sizes":[],"default_left":[0,0,0,0,0,0,0,0,0,0,0,0,0,0,0],"id":2,"left_children":[1,3,5,7,9,11,13,-1,-1,-1,-1,-1,-1,-1,-1],"loss_changes":[1.6340982E1,1.3060009E1,2.4553032E0,1.2777185E-1,5.5113344E0,1.9251919E0,2.2150097E0,0E0,0E0,0E0,0E0,0E0,0E0,0E0,0E0],"parents":[2147483647,0,0,1,1,2,2,3,3,4,4,5,5,6,6],"right_children":[2,4,6,8,10,12,14,-1,-1,-1,-1,-1,-1,-1,-1],"split_conditions":[7.3836464E-1,4.0174693E-1,9.667784E0,2.6304814E-1,5.860522E1,8.190796E0,1.842643E1,9.4045736E-2,2.4884772E-2,-1.0786939E-3,-5.0915193E-2,3.2493785E-2,-4.1646197E-2,1.0107759E-1,3.6550265E-2],"split_indices":[1,2,0,1,2,0,0,0,0,0,0,0,0,0,0],"split_type":[0,0,0,0,0,0,0,0,0,0,0,0,0,0,0],"sum_hessian":[9.8551254E1,6.6231255E1,3.2319996E1,5.552945E0,6.067831E1,1.6144308E1,1.617569E1,4.4482255E0,1.1047195E0,2.227302E1,3.840529E1,1.4400673E1,1.7436359E0,6.834587E0,9.341102E0],"tree_param":{"num_deleted":"0","num_feature":"4","num_nodes":"15","size_leaf_vector":"1"}},{"base_weights":[1.4510321E-4,-2.4772784E-1,6.7466426E-1,3.4671468E-1,-6.297391E-1,1.0079063E0,5.6705767E-1,3.5555445E-2,-6.039059E-2,-6.191281E-2,2.0502707E-2,9.0406254E-2,2.0419233E-2,-5.3867802E-2,5.2632425E-2],"categories":[],"categories_nodes":[],"categories_segments":[],"categories_sizes":[],"default_left":[0,0,0,0,0,0,0,0,0,0,0,0,0,0,0],"id":3,"left_children":[1,3,5,7,9,11,13,-1,-1,-1,-1,-1,-1,-1,-1],"loss_changes":[1.7304634E1,1.7405582E1,4.2581654E-1,3.5927124E0,6.1294403E0,2.1755028E-1,3.0698242E0,0E0,0E0,0E0,0E0,0E0,0E0,0E0,0E0],"parents":[2147483647,0,0,1,1,2,2,3,3,4,4,5,5,6,6],"right_children":[2,4,6,8,10,12,14,-1,-1,-1,-1,-1,-1,-1,-1],"split_conditions":[7.8187495E-1,5.620081E1,1.4479887E1,3E0,3E0,8.730452E-1,3.0100666E1,3.5555445E-2,-6.039059E-2,-6.191281E-2,2.0502707E-2,9.0406254E-2,2.0419233E-2,-5.3867802E-2,5.2632425E-2],"split_indices":[1,2,2,3,3,1,2,0,0,0,0,0,0,0,0],"split_type":[0,0,0,0,0,0,0,0,0,0,0,0,0,0,0],"sum_hessian":[1.0150006E2,7.468681E1,2.6813248E1,2.9255354E1,4.5431458E1,4.502637E0,2.231061E1,2.7419384E1,1.8359693E0,3.9182358E1,6.2490997E0,3.442432E0,1.0602053E0,1.0849686E0,2.1225641E1],"tree_param":{"num_deleted":"0","num_feature":"4","num_nodes":"15","size_leaf_vector":"1"}},{"base_weights":[-4.336047E-2,3.0708364E-1,-2.1845956E-1,9.7593606E-1,1.7182289E-1,-7.847406E-1,-1.1105122E-1,2.0775365E-2,8.676796E-2,3.5205286E-2,-7.409156E-2,-1.2018909E-2,-8.536248E-2,-4.3613296E-3,-8.911297E-2],"categories":[],"categories_nodes":[],"categories_segments":[],"categories_sizes":[],"default_left":[0,0,0,0,0,0,0,0,0,0,0,0,0,0,0],"id":4,"left_children":[1,3,5,7,9,11,13,-1,-1,-1,-1,-1,-1,-1,-1],"loss_changes":[6.4314213E0,2.9961994E0,4.1549907E0,1.5955257E-1,9.332445E0,1.8018656E0,3.329169E0,0E0,0E0,0E0,0E0,0E0,0E0,0E0,0E0],"parents":[2147483647,0,0,1,1,2,2,3,3,4,4,5,5,6,6],"right_children":[2,4,6,8,10,12,14,-1,-1,-1,-1,-1,-1,-1,-1],"split_conditions":[4.5597755E1,1.6480497E-1,7.311906E1,7.231906E1,8.208521E1,5.620081E1,9.544578E1,2.0775365E-2,8.676796E-2,3.5205286E-2,-7.409156E-2,-1.2018909E-2,-8.536248E-2,-4.3613296E-3,-8.911297E-2],"split_indices":[2,2,2,0,0,2,0,0,0,0,0,0,0,0,0],"split_type":[0,0,0,0,0,0,0,0,0,0,0,0,0,0,0],"sum_hessian":[1.02717125E2,3.3971878E1,6.874525E1,4.6689777E0,2.93029E1,9.954855E0,5.879039E1,1.0615766E0,3.6074011E0,2.403109E1,5.2718096E0,3.5369835E0,6.417872E0,5.665114E1,2.1392515E0],"tree_param":{"num_deleted":"0","num_feature":"4","num_nodes":"15","size_leaf_vector":"1"}},{"base_weights":[1.9156759E-3,-3.038436E-1,4.189421E-1,-3.8867304E-1,8.096665E-2,1.2192111E-1,7.0164645E-1,-8.349097E-2,-2.234971E-2,-2.1626605E-2,2.5313439E-2,2.0310719E-2,6.516703E-2],"categories":[],"categories_nodes":[],"categories_segments":[],"categories_sizes":[],"default_left":[0,0,0,0,0,0,0,0,0,0,0,0,0],"id":5,"left_children":[1,3,5,7,-1,9,11,-1,-1,-1,-1,-1,-1],"loss_changes":[1.3221589E1,7.0721836E0,3.5975327E0,3.7839422E0,0E0,1.8097291E0,9.190235E-1,0E0,0E0,0E0,0E0,0E0,0E0],"parents":[2147483647,0,0,1,1,2,2,3,3,5,5,6,6],"right_children":[2,4,6,8,-1,10,12,-1,-1,-1,-1,-1,-1],"split_conditions":[6.649651E-1,9.952E1,9.667784E0,8.341886E-2,8.096665E-2,7.805109E-1,7.4525696E-1,-8.349097E-2,-2.234971E-2,-2.1626605E-2,2.5313439E-2,2.0310719E-2,6.516703E-2],"split_indices":[1,0,0,1,0,1,1,0,0,0,0,0,0],"split_type":[0,0,0,0,0,0,0,0,0,0,0,0,0],"sum_hessian":[1.0169256E2,5.8830254E1,4.28623E1,5.5929474E1,2.9007802E0,2.1599857E1,2.1262445E1,6.776242E0,4.9153233E1,7.0307035E0,1.4569155E1,4.937077E0,1.6325367E1],"tree_param":{"num_deleted":"0","num_feature":"4","num_nodes":"13","size_leaf_vector":"1"}},{"base_weights":[2.2051185E-3,-4.511562E-2,8.2922705E-2,9.019155E-2,-6.271673E-1,3.661903E-2,-4.3730414E-3,-5.92967E-2,1.397718E-2],"categories":[],"categories_nodes":[],"categories_segments":[],"categories_sizes":[],"default_left":[0,0,0,0,0,0,0,0,0],"id":6,"left_children":[1,3,-1,5,7,-1,-1,-1,-1],"loss_changes":[5.0619826E0,7.8487825E0,0E0,4.3457017E0,1.8476157E0,0E0,0E0,0E0,0E0],"parents":[2147483647,0,0,1,1,3,3,4,4],"right_children":[2,4,-1,6,8,-1,-1,-1,-1],"split_conditions":[9.952E1,8.110752E1,8.2922705E-2,4.189878E1,3.8276846E2,3.661903E-2,-4.3730414E-3,-5.92967E-2,1.397718E-2],"split_indices":[0,0,0,2,2,0,0,0,0],"split_type":[0,0,0,0,0,0,0,0,0],"sum_hessian":[1.0146601E2,9.794154E1,3.5244632E0,8.015361E1,1.7787937E1,2.2048624E1,5.810499E1,1.5639406E1,2.1485302E0],"tree_param":{"num_deleted":"0","num_feature":"4","num_nodes":"9","size_leaf_vector":"1"}},{"base_weights":[-6.454022E-3,6.0522884E-1,-1.1824735E-1,9.443939E-1,2.5745982E-1,-4.674755E-3,-7.284559E-1,1.7993046E-2,8.1831865E-2,-6.813154E-2,6.652535E-2,-6.5368055E-3,4.179485E-2,-1.0259125E-1,-3.1769793E-2],"categories":[],"categories_nodes":[],"categories_segments":[],"categories_sizes":[],"default_left":[0,0,0,0,0,0,0,0,0,0,0,0,0,0,0],"id":7,"left_children":[1,3,5,7,9,11,13,-1,-1,-1,-1,-1,-1,-1,-1],"loss_changes":[6.9770207E0,1.6166677E0,5.9716024E0,1.9964266E-1,6.5406976E0,3.0350997E0,1.972549E0,0E0,0E0,0E0,0E0,0E0,0E0,0E0,0E0],"parents":[2147483647,0,0,1,1,2,2,3,3,4,4,5,5,6,6],"right_children":[2,4,6,8,10,12,14,-1,-1,-1,-1,-1,-1,-1,-1],"split_conditions":[2.885693E0,1E0,8.4201996E1,2.806599E0,1.0740877E0,7.315844E1,1E0,1.7993046E-2,8.1831865E-2,-6.813154E-2,6.652535E-2,-6.5368055E-3,4.179485E-2,-1.0259125E-1,-3.1769793E-2],"split_indices":[2,3,0,0,2,0,3,0,0,0,0,0,0,0,0],"split_type":[0,0,0,0,0,0,0,0,0,0,0,0,0,0,0],"sum_hessian":[9.9983406E1,1.4767649E1,8.521575E1,6.6077757E0,8.159873E0,7.269361E1,1.2522143E1,1.0302912E0,5.5774846E0,2.6182714E0,5.5416017E0,6.4161606E1,8.532005E0,3.6124065E0,8.909737E0],"tree_param":{"num_deleted":"0","num_feature":"4","num_nodes":"15","size_leaf_vector":"1"}},{"base_weights":[2.3862E-2,9.0213895E-1,-2.497861E-2,2.0088572E-2,8.0186754E-2,3.7075244E-2,-7.1614534E-1,2.5370402E-2,-5.7727904E-3,-9.5664844E-2,-3.2200653E-2],"categories":[],"categories_nodes":[],"categories_segments":[],"categories_sizes":[],"default_left":[0,0,0,0,0,0,0,0,0,0,0],"id":8,"left_children":[1,3,5,-1,-1,7,9,-1,-1,-1,-1],"loss_changes":[4.3797197E0,9.91168E-2,4.195354E0,0E0,0E0,2.7804809E0,7.3076296E-1,0E0,0E0,0E0,0E0],"parents":[2147483647,0,0,1,1,2,2,5,5,6,6],"right_children":[2,4,6,-1,-1,8,10,-1,-1,-1,-1],"split_conditions":[1.6480497E-1,7.231906E1,9.018498E1,2.0088572E-2,8.0186754E-2,4.189878E1,2.4094866E1,2.5370402E-2,-5.7727904E-3,-9.5664844E-2,-3.2200653E-2],"split_indices":[2,0,0,0,0,2,2,0,0,0,0],"split_type":[0,0,0,0,0,0,0,0,0,0,0],"sum_hessian":[1.0057655E2,4.378001E0,9.619855E1,1.0515579E0,3.3264434E0,8.9141655E1,7.056896E0,2.4479198E1,6.466245E1,1.6779621E0,5.3789344E0],"tree_param":{"num_deleted":"0","num_feature":"4","num_nodes":"11","size_leaf_vector":"1"}},{"base_weights":[-6.7720436E-2,8.12862E-1,-1.2363421E-1,-5.2796034E-3,8.4432974E-2,-3.8656913E-2,-5.583983E-1,2.3110993E-2,-1.29992105E-2,-5.7156723E-2,4.6054162E-2],"categories":[],"categories_nodes":[],"categories_segments":[],"categories_sizes":[],"default_left":[0,0,0,0,0,0,0,0,0,0,0],"id":9,"left_children":[1,3,5,-1,-1,7,9,-1,-1,-1,-1],"loss_changes":[5.073117E0,1.3831663E0,3.5189457E0,0E0,0E0,3.3420315E0,3.1712174E0,0E0,0E0,0E0,0E0],"parents":[2147483647,0,0,1,1,2,2,5,5,6,6],"right_children":[2,4,6,-1,-1,8,10,-1,-1,-1,-1],"split_conditions":[6.2251914E-1,1.6946838E1,8.4201996E1,-5.2796034E-3,8.4432974E-2,4.5597755E1,3.9839252E2,2.3110993E-2,-1.29992105E-2,-5.7156723E-2,4.6054162E-2],"split_indices":[2,0,0,0,0,2,2,0,0,0,0],"split_type":[0,0,0,0,0,0,0,0,0,0,0],"sum_hessian":[9.9994194E1,5.161905E0,9.483228E1,1.2739137E0,3.8879912E0,8.023816E1,1.4594123E1,2.164728E1,5.8590885E1,1.3154001E1,1.4401222E0],"tree_param":{"num_deleted":"0","num_feature":"4","num_nodes":"11","size_leaf_vector":"1"}},{"base_weights":[4.3484434E-2,-1.7350158E-1,5.670358E-1,-2.3084007E-1,7.420312E-2,2.8007552E-1,8.3289397E-1,-8.0934495E-2,-1.4174415E-2,3.2767523E-2,-3.6229916E-2,9.402043E-2,3.7016686E-2],"categories":[],"categories_nodes":[],"categories_segments":[],"categories_sizes":[],"default_left":[0,0,0,0,0,0,0,0,0,0,0,0,0],"id":10,"left_children":[1,3,5,7,-1,9,11,-1,-1,-1,-1,-1,-1],"loss_changes":[1.1729246E1,4.8321037E0,2.0732422E0,2.7674885E0,0E0,1.70877E0,1.3809595E0,0E0,0E0,0E0,0E0,0E0,0E0],"parents":[2147483647,0,0,1,1,2,2,3,3,5,5,6,6],"right_children":[2,4,6,8,-1,10,12,-1,-1,-1,-1,-1,-1],"split_conditions":[7.6086324E-1,9.915735E1,9.667784E0,5.613133E-2,7.420312E-2,3E0,1.9219387E1,-8.0934495E-2,-1.4174415E-2,3.2767523E-2,-3.6229916E-2,9.402043E-2,3.7016686E-2],"split_indices":[1,0,0,1,0,3,0,0,0,0,0,0,0],"split_type":[0,0,0,0,0,0,0,0,0,0,0,0,0],"sum_hessian":[1.0138139E2,7.214816E1,2.9233225E1,6.932813E1,2.8200324E0,1.5046218E1,1.4187007E1,3.3099046E0,6.601823E1,1.3161616E1,1.8846011E0,6.240646E0,7.946361E0],"tree_param":{"num_deleted":"0","num_feature":"4","num_nodes":"13","size_leaf_vector":"1"}},{"base_weights":[1.6053282E-2,-2.2447279E-1,5.016887E-1,8.53286E-1,-3.102621E-1,1.5637141E-1,8.166311E-1,7.60257E-2,1.8820342E-2,-9.4688185E-2,-1.9731324E-2,2.8662411E-2,-4.223439E-2,9.3628325E-2,3.7827484E-2],"categories":[],"categories_nodes":[],"categories_segments":[],"categories_sizes":[],"default_left":[0,0,0,0,0,0,0,0,0,0,0,0,0,0,0],"id":11,"left_children":[1,3,5,7,9,11,13,-1,-1,-1,-1,-1,-1,-1,-1],"loss_changes":[1.153797E1,6.3768635E0,3.4294329E0,8.472276E-2,3.1509867E0,2.5156398E0,1.4980145E0,0E0,0E0,0E0,0E0,0E0,0E0,0E0,0E0],"parents":[2147483647,0,0,1,1,2,2,3,3,4,4,5,5,6,6],"right_children":[2,4,6,8,10,12,14,-1,-1,-1,-1,-1,-1,-1,-1],"split_conditions":[7.3836464E-1,4.0174693E-1,9.667784E0,2.8927025E-1,5.613133E-2,2.795979E2,1.842643E1,7.60257E-2,1.8820342E-2,-9.4688185E-2,-1.9731324E-2,2.8662411E-2,-4.223439E-2,9.3628325E-2,3.7827484E-2],"split_indices":[1,2,0,1,1,2,0,0,0,0,0,0,0,0,0],"split_type":[0,0,0,0,0,0,0,0,0,0,0,0,0,0,0],"sum_hessian":[9.681313E1,6.510542E1,3.1707712E1,4.1406574E0,6.0964764E1,1.5838339E1,1.5869374E1,3.114069E0,1.0265883E0,2.9442337E0,5.802053E1,1.259771E1,3.2406287E0,6.63664E0,9.232734E0],"tree_param":{"num_deleted":"0","num_feature":"4","num_nodes":"15","size_leaf_vector":"1"}},{"base_weights":[2.1247204E-2,-1.5537193E-1,5.5772084E-1,-2.0359811E-1,7.031465E-2,1.9331238E-1,7.349909E-1,-1.2777487E-2,-6.831556E-2,6.331715E-2,-1.6489338E-2,2.5680697E-2,7.136748E-2],"categories":[],"categories_nodes":[],"categories_segments":[],"categories_sizes":[],"default_left":[0,0,0,0,0,0,0,0,0,0,0,0,0],"id":12,"left_children":[1,3,5,7,-1,9,11,-1,-1,-1,-1,-1,-1],"loss_changes":[9.501967E0,3.9468765E0,1.4618721E0,1.946393E0,0E0,2.428711E0,7.767954E-1,0E0,0E0,0E0,0E0,0E0,0E0],"parents":[2147483647,0,0,1,1,2,2,3,3,5,5,6,6],"right_children":[2,4,6,8,-1,10,12,-1,-1,-1,-1,-1,-1],"split_conditions":[7.864821E-1,9.952E1,6.067783E0,9.544578E1,7.031465E-2,1E0,1E0,-1.2777487E-2,-6.831556E-2,6.331715E-2,-1.6489338E-2,2.5680697E-2,7.136748E-2],"split_indices":[1,0,0,0,0,3,3,0,0,0,0,0,0],"split_type":[0,0,0,0,0,0,0,0,0,0,0,0,0],"sum_hessian":[9.836848E1,7.453896E1,2.3829515E1,7.1985664E1,2.5532951E0,8.482601E0,1.5346913E1,6.860257E1,3.3830948E0,3.0034275E0,5.4791737E0,5.059058E0,1.0287855E1],"tree_param":{"num_deleted":"0","num_feature":"4","num_nodes":"13","size_leaf_vector":"1"}},{"base_weights":[7.1382173E-3,-1.0148639E-1,5.7918394E-1,7.6684046E-1,-1.500787E-1,7.846525E-2,4.178394E-1,7.044852E-2,1.74578E-2,-4.3970298E-2,-6.027578E-3,-4.629599E-2,4.5579296E-2],"categories":[],"categories_nodes":[],"categories_segments":[],"categories_sizes":[],"default_left":[0,0,0,0,0,0,0,0,0,0,0,0,0],"id":13,"left_children":[1,3,5,7,9,-1,11,-1,-1,-1,-1,-1,-1],"loss_changes":[6.160394E0,3.6330035E0,6.1529064E-1,9.3822E-2,2.3411946E0,0E0,2.3018184E0,0E0,0E0,0E0,0E0,0E0,0E0],"parents":[2147483647,0,0,1,1,2,2,3,3,4,4,6,6],"right_children":[2,4,6,8,10,-1,12,-1,-1,-1,-1,-1,-1],"split_conditions":[8.417625E-1,4.9473777E-2,4.5597755E1,1.7770068E-1,1.304561E-1,7.846525E-2,6.3753338E1,7.044852E-2,1.74578E-2,-4.3970298E-2,-6.027578E-3,-4.629599E-2,4.5579296E-2],"split_indices":[1,2,2,1,1,0,2,0,0,0,0,0,0],"split_type":[0,0,0,0,0,0,0,0,0,0,0,0,0],"sum_hessian":[9.71942E1,8.23748E1,1.4819395E1,3.5821412E0,7.879266E1,2.791515E0,1.202788E1,2.4656973E0,1.1164439E0,1.1414246E1,6.737841E1,1.2192687E0,1.0808611E1],"tree_param":{"num_deleted":"0","num_feature":"4","num_nodes":"13","size_leaf_vector":"1"}},{"base_weights":[6.875422E-2,3.173086E-1,-6.981082E-2,3.6941633E-1,-2.3895726E-1,-9.201409E-2,4.4542793E-3,3.8161073E-2,6.3196925E-4,-5.2163985E-2,1.5474333E-2,6.019269E-3,-9.395964E-2],"categories":[],"categories_nodes":[],"categories_segments":[],"categories_sizes":[],"default_left":[0,0,0,0,0,0,0,0,0,0,0,0,0],"id":14,"left_children":[1,3,5,7,9,-1,11,-1,-1,-1,-1,-1,-1],"loss_changes":[3.388935E0,1.1077244E0,5.1067276E0,1.2624097E0,7.7264667E-1,0E0,5.1365714E0,0E0,0E0,0E0,0E0,0E0,0E0],"parents":[2147483647,0,0,1,1,2,2,3,3,4,4,6,6],"right_children":[2,4,6,8,10,-1,12,-1,-1,-1,-1,-1,-1],"split_conditions":[5.7896866E1,3E0,6.57474E1,8.246911E1,2.65383E0,-9.201409E-2,9.5074844E1,3.8161073E-2,6.3196925E-4,-5.2163985E-2,1.5474333E-2,6.019269E-3,-9.395964E-2],"split_indices":[2,3,2,0,2,0,0,0,0,0,0,0,0],"split_type":[0,0,0,0,0,0,0,0,0,0,0,0,0],"sum_hessian":[9.675525E1,3.4170723E1,6.2584522E1,3.15511E1,2.6196225E0,3.093574E0,5.9490948E1,2.406826E1,7.48284E0,1.0798917E0,1.5397308E0,5.7004463E1,2.4864864E0],"tree_param":{"num_deleted":"0","num_feature":"4","num_nodes":"13","size_leaf_vector":"1"}},{"base_weights":[-1.13570765E-2,7.8603953E-1,-5.1112168E-2,2.0008918E-2,7.055484E-2,-1.9943526E-2,-5.5360153E-2,-4.4059705E-2,8.4199134E-4],"categories":[],"categories_nodes":[],"categories_segments":[],"categories_sizes":[],"default_left":[0,0,0,0,0,0,0,0,0],"id":15,"left_children":[1,3,5,-1,-1,7,-1,-1,-1],"loss_changes":[3.2262359E0,2.7846575E-2,1.9172649E0,0E0,0E0,1.5133723E0,0E0,0E0,0E0],"parents":[2147483647,0,0,1,1,2,2,5,5],"right_children":[2,4,6,-1,-1,8,-1,-1,-1],"split_conditions":[1.6480497E-1,7.765685E1,9.544578E1,2.0008918E-2,7.055484E-2,1.3511578E0,-5.5360153E-2,-4.4059705E-2,8.4199134E-4],"split_indices":[2,0,0,0,0,2,0,0,0],"split_type":[0,0,0,0,0,0,0,0,0],"sum_hessian":[9.950479E1,3.8338783E0,9.567091E1,1.1295246E0,2.7043536E0,9.221719E1,3.4537163E0,4.0790157E0,8.813818E1],"tree_param":{"num_deleted":"0","num_feature":"4","num_nodes":"9","size_leaf_vector":"1"}},{"base_weights":[8.1854954E-2,-5.9338074E-2,5.1490533E-1,-2.786264E-1,2.9250923E-1,2.0003021E-1,8.358645E-1,-8.7256074E-2,-9.962303E-3,5.491634E-2,-2.040672E-2,2.5114896E-2,-3.4848392E-2,8.375396E-2,4.259335E-2],"categories":[],"categories_nodes":[],"categories_segments":[],"categories_sizes":[],"default_left":[0,0,0,0,0,0,0,0,0,0,0,0,0,0,0],"id":16,"left_children":[1,3,5,7,9,11,13,-1,-1,-1,-1,-1,-1,-1,-1],"loss_changes":[5.7810297E0,5.622914E0,2.1802382E0,5.4650507E0,6.229025E0,1.0808511E0,1.591506E-1,0E0,0E0,0E0,0E0,0E0,0E0,0E0,0E0],"parents":[2147483647,0,0,1,1,2,2,3,3,4,4,5,5,6,6],"right_children":[2,4,6,8,10,12,14,-1,-1,-1,-1,-1,-1,-1,-1],"split_conditions":[7.864821E-1,7.205184E1,9.667784E0,2.2447637E-1,2.2447637E-1,8.190796E0,2.0682169E1,-8.7256074E-2,-9.962303E-3,5.491634E-2,-2.040672E-2,2.5114896E-2,-3.4848392E-2,8.375396E-2,4.259335E-2],"split_indices":[1,0,0,1,1,0,0,0,0,0,0,0,0,0,0],"split_type":[0,0,0,0,0,0,0,0,0,0,0,0,0,0,0],"sum_hessian":[9.304856E1,7.0820885E1,2.2227674E1,4.375731E1,2.7063576E1,1.203956E1,1.0188114E1,6.009585E0,3.7747726E1,1.5592537E1,1.1471039E1,1.0639132E1,1.400429E0,4.563747E0,5.6243668E0],"tree_param":{"num_deleted":"0","num_feature":"4","num_nodes":"15","size_leaf_vector":"1"}},{"base_weights":[-3.7519704E-3,-1.5470615E-1,4.372209E-1,2.9192948E-1,-3.4431362E-1,6.4587146E-2,3.0154505E-1,-6.2282275E-2,3.564665E-2,-3.7993766E-2,3.9150313E-2,-4.5531247E-2,3.5999883E-2],"categories":[],"categories_nodes":[],"categories_segments":[],"categories_sizes":[],"default_left":[0,0,0,0,0,0,0,0,0,0,0,0,0],"id":17,"left_children":[1,3,5,7,9,-1,11,-1,-1,-1,-1,-1,-1],"loss_changes":[6.4157567E0,6.1795177E0,9.9093485E-1,3.9544973E0,5.769327E0,0E0,2.787444E0,0E0,0E0,0E0,0E0,0E0,0E0],"parents":[2147483647,0,0,1,1,2,2,3,3,4,4,6,6],"right_children":[2,4,6,8,10,-1,12,-1,-1,-1,-1,-1,-1],"split_conditions":[7.8187495E-1,4.0678516E1,8.15473E-1,6.245707E-2,3E0,6.4587146E-2,8.3881605E-1,-6.2282275E-2,3.564665E-2,-3.7993766E-2,3.9150313E-2,-4.5531247E-2,3.5999883E-2],"split_indices":[1,2,1,1,3,0,1,0,0,0,0,0,0],"split_type":[0,0,0,0,0,0,0,0,0,0,0,0,0],"sum_hessian":[9.436473E1,7.07833E1,2.3581427E1,2.0933384E1,4.984992E1,4.9976177E0,1.8583809E1,2.117141E0,1.8816244E1,4.3470116E1,6.3798037E0,2.2942345E0,1.6289574E1],"tree_param":{"num_deleted":"0","num_feature":"4","num_nodes":"13","size_leaf_vector":"1"}},{"base_weights":[5.7422644E-3,6.469009E-1,-9.479606E-2,2.6865405E-1,7.6979585E-2,-3.4125504E-1,2.5208563E-1,6.445196E-2,-4.3762058E-2,-3.61218E-2,1.3384838E-2,-2.137191E-3,4.100747E-2],"categories":[],"categories_nodes":[],"categories_segments":[],"categories_sizes":[],"default_left":[0,0,0,0,0,0,0,0,0,0,0,0,0],"id":18,"left_children":[1,3,5,7,-1,9,11,-1,-1,-1,-1,-1,-1],"loss_changes":[6.4045057E0,1.3477516E0,7.432945E0,3.7301993E0,0E0,2.9167857E0,2.6480584E0,0E0,0E0,0E0,0E0,0E0,0E0],"parents":[2147483647,0,0,1,1,2,2,3,3,5,5,6,6],"right_children":[2,4,6,8,-1,10,12,-1,-1,-1,-1,-1,-1],"split_conditions":[3.837662E0,1.3511578E0,6.649651E-1,4.0174693E-1,7.6979585E-2,3.1244037E2,9.667784E0,6.445196E-2,-4.3762058E-2,-3.61218E-2,1.3384838E-2,-2.137191E-3,4.100747E-2],"split_indices":[2,2,1,2,0,2,0,0,0,0,0,0,0],"split_type":[0,0,0,0,0,0,0,0,0,0,0,0,0],"sum_hessian":[9.740339E1,1.2466561E1,8.493683E1,6.509966E0,5.9565954E0,4.966566E1,3.5271168E1,3.9330044E0,2.5769615E0,4.0908104E1,8.757557E0,1.747091E1,1.7800257E1],"tree_param":{"num_deleted":"0","num_feature":"4","num_nodes":"13","size_leaf_vector":"1"}},{"base_weights":[2.1011712E-2,3.3065596E-1,-1.10427946E-1,-3.160398E-2,3.994394E-1,-5.4854465E-1,-2.5929896E-2,7.650434E-2,1.3535519E-2,-1.196222E-2,-8.0038995E-2,1.558957E-3,-5.9552744E-2],"categories":[],"categories_nodes":[],"categories_segments":[],"categories_sizes":[],"default_left":[0,0,0,0,0,0,0,0,0,0,0,0,0],"id":19,"left_children":[1,3,5,-1,7,9,11,-1,-1,-1,-1,-1,-1],"loss_changes":[3.9357808E0,1.5953882E0,2.5033705E0,0E0,3.274856E0,1.8242981E0,1.9090813E0,0E0,0E0,0E0,0E0,0E0,0E0],"parents":[2147483647,0,0,1,1,2,2,4,4,5,5,6,6],"right_children":[2,4,6,-1,8,10,12,-1,-1,-1,-1,-1,-1],"split_conditions":[4.5597755E1,1.321395E0,7.311906E1,-3.160398E-2,1.2850403E1,5.860522E1,9.544578E1,7.650434E-2,1.3535519E-2,-1.196222E-2,-8.0038995E-2,1.558957E-3,-5.9552744E-2],"split_indices":[2,0,2,0,0,2,0,0,0,0,0,0,0],"split_type":[0,0,0,0,0,0,0,0,0,0,0,0,0],"sum_hessian":[9.480619E1,2.7799875E1,6.700632E1,1.9961314E0,2.5803743E1,9.945867E0,5.7060448E1,6.6256714E0,1.9178072E1,5.989042E0,3.9568248E0,5.4583E1,2.4774487E0],"tree_param":{"num_deleted":"0","num_feature":"4","num_nodes":"13","size_leaf_vector":"1"}},{"base_weights":[-4.308584E-2,-2.2818393E-1,2.3644315E-1,9.739332E-2,-4.2274007E-1,1.5069856E-1,8.0001265E-2,2.3048827E-2,-7.151634E-2,-9.331407E-2,-2.683185E-2,3.2762106E-4,2.8852668E-2],"categories":[],"categories_nodes":[],"categories_segments":[],"categories_sizes":[],"default_left":[0,0,0,0,0,0,0,0,0,0,0,0,0],"id":20,"left_children":[1,3,5,7,9,11,-1,-1,-1,-1,-1,-1,-1],"loss_changes":[5.0709877E0,3.7686214E0,2.4105935E0,4.572803E0,2.0135136E0,1.117352E0,0E0,0E0,0E0,0E0,0E0,0E0,0E0],"parents":[2147483647,0,0,1,1,2,2,3,3,4,4,5,5],"right_children":[2,4,6,8,10,12,-1,-1,-1,-1,-1,-1,-1],"split_conditions":[6.649651E-1,5.828357E1,3.9151592E1,5.715652E-1,7.0304344E1,8.417625E-1,8.0001265E-2,2.3048827E-2,-7.151634E-2,-9.331407E-2,-2.683185E-2,3.2762106E-4,2.8852668E-2],"split_indices":[1,2,0,1,2,1,0,0,0,0,0,0,0],"split_type":[0,0,0,0,0,0,0,0,0,0,0,0,0],"sum_hessian":[9.5965744E1,5.784543E1,3.8120316E1,2.1823915E1,3.6021515E1,3.5348278E1,2.7720377E0,1.8897718E1,2.9261978E0,2.4874077E0,3.3534107E1,2.1414927E1,1.3933351E1],"tree_param":{"num_deleted":"0","num_feature":"4","num_nodes":"13","size_leaf_vector":"1"}},{"base_weights":[-6.727611E-3,4.0681246E-1,-7.296072E-2,-6.0039878E-2,5.6285495E-1,7.3984295E-2,-1.0017355E-1,5.8334716E-2,-4.3313347E-2,-9.624418E-2,-4.587855E-3],"categories":[],"categories_nodes":[],"categories_segments":[],"categories_sizes":[],"default_left":[0,0,0,0,0,0,0,0,0,0,0],"id":21,"left_children":[1,3,5,-1,7,-1,9,-1,-1,-1,-1],"loss_changes":[2.6775436E0,2.8599827E0,2.37815E0,0E0,2.6843655E0,0E0,3.8437376E0,0E0,0E0,0E0,0E0],"parents":[2147483647,0,0,1,1,2,2,4,4,6,6],"right_children":[2,4,6,-1,8,-1,10,-1,-1,-1,-1],"split_conditions":[3.837662E0,1.321395E0,9.9548775E-1,-6.0039878E-2,3E0,7.3984295E-2,1.321395E0,5.8334716E-2,-4.3313347E-2,-9.624418E-2,-4.587855E-3],"split_indices":[2,0,0,0,3,0,0,0,0,0,0],"split_type":[0,0,0,0,0,0,0,0,0,0,0],"sum_hessian":[9.567243E1,1.24977865E1,8.3174644E1,1.0322659E0,1.1465521E1,1.3325434E0,8.18421E1,1.0259823E1,1.2056984E0,2.0465057E0,7.979559E1],"tree_param":{"num_deleted":"0","num_feature":"4","num_nodes":"11","size_leaf_vector":"1"}},{"base_weights":[5.140603E-2,-9.24963E-2,5.3069466E-1,-2.5836083E-1,1.6945636E-1,1.3376439E-1,7.2573996E-1,-7.159235E-2,-9.946421E-3,3.4628477E-2,-1.2578782E-2,6.713329E-2,-1.5317451E-2,6.0216792E-2,1.5877215E-2],"categories":[],"categories_nodes":[],"categories_segments":[],"categories_sizes":[],"default_left":[0,0,0,0,0,0,0,0,0,0,0,0,0,0,0],"id":22,"left_children":[1,3,5,7,9,11,13,-1,-1,-1,-1,-1,-1,-1,-1],"loss_changes":[6.6144867E0,3.2616696E0,1.6161499E0,3.7914636E0,2.5908542E0,2.1146712E0,5.84054E-2,0E0,0E0,0E0,0E0,0E0,0E0,0E0,0E0],"parents":[2147483647,0,0,1,1,2,2,3,3,4,4,5,5,6,6],"right_children":[2,4,6,8,10,12,14,-1,-1,-1,-1,-1,-1,-1,-1],"split_conditions":[7.864821E-1,7E1,6.067783E0,1.753891E1,2.2447637E-1,3.369782E1,9.571491E-1,-7.159235E-2,-9.946421E-3,3.4628477E-2,-1.2578782E-2,6.713329E-2,-1.5317451E-2,6.0216792E-2,1.5877215E-2],"split_indices":[1,0,0,2,1,2,1,0,0,0,0,0,0,0,0],"split_type":[0,0,0,0,0,0,0,0,0,0,0,0,0,0,0],"sum_hessian":[9.419107E1,7.3061874E1,2.1129194E1,4.4744217E1,2.831766E1,7.5171347E0,1.3612059E1,6.795217E0,3.7949E1,1.5497554E1,1.2820106E1,1.8734902E0,5.643645E0,1.2542943E1,1.0691156E0],"tree_param":{"num_deleted":"0","num_feature":"4","num_nodes":"15","size_leaf_vector":"1"}},{"base_weights":[-2.4360696E-2,-2.1402651E-1,3.2746866E-1,-4.177938E-1,3.286358E-2,9.6746445E-2,5.685767E-1,-7.1323834E-2,-2.4396345E-2,3.0344086E-2,-2.101367E-2,-7.545592E-3,6.2287573E-2,7.036012E-2,2.0779831E-2],"categories":[],"categories_nodes":[],"categories_segments":[],"categories_sizes":[],"default_left":[0,0,0,0,0,0,0,0,0,0,0,0,0,0,0],"id":23,"left_children":[1,3,5,7,9,11,13,-1,-1,-1,-1,-1,-1,-1,-1],"loss_changes":[6.439617E0,3.1642065E0,1.8268468E0,1.5660591E0,3.0936217E0,2.4825022E0,1.3402686E0,0E0,0E0,0E0,0E0,0E0,0E0,0E0,0E0],"parents":[2147483647,0,0,1,1,2,2,3,3,4,4,5,5,6,6],"right_children":[2,4,6,8,10,12,14,-1,-1,-1,-1,-1,-1,-1,-1],"split_conditions":[7.089403E-1,7E1,9.667784E0,2.2447637E-1,8.4201996E1,8.989393E-1,1.842643E1,-7.1323834E-2,-2.4396345E-2,3.0344086E-2,-2.101367E-2,-7.545592E-3,6.2287573E-2,7.036012E-2,2.0779831E-2],"split_indices":[1,0,0,1,0,1,0,0,0,0,0,0,0,0,0],"split_type":[0,0,0,0,0,0,0,0,0,0,0,0,0,0,0],"sum_hessian":[9.445227E1,6.1623604E1,3.2828667E1,3.338091E1,2.8242695E1,1.7491692E1,1.5336973E1,5.093776E0,2.8287134E1,1.2871159E1,1.5371535E1,1.433612E1,3.155573E0,6.7217474E0,8.615226E0],"tree_param":{"num_deleted":"0","num_feature":"4","num_nodes":"15","size_leaf_vector":"1"}},{"base_weights":[-1.0033583E-3,-1.1398551E-1,4.4178146E-1,-3.287762E-1,4.7005814E-2,2.751628E-3,6.6062534E-1,-1.5796287E-2,-9.160965E-2,-6.4521497E-3,8.255836E-2,6.1895568E-2,-5.576677E-2,6.663317E-2,1.4506402E-2],"categories":[],"categories_nodes":[],"categories_segments":[],"categories_sizes":[],"default_left":[0,0,0,0,0,0,0,0,0,0,0,0,0,0,0],"id":24,"left_children":[1,3,5,7,9,11,13,-1,-1,-1,-1,-1,-1,-1,-1],"loss_changes":[4.955349E0,2.744123E0,1.9329426E0,3.411502E0,5.864559E0,4.6952972E0,9.5833826E-1,0E0,0E0,0E0,0E0,0E0,0E0,0E0,0E0],"parents":[2147483647,0,0,1,1,2,2,3,3,4,4,5,5,6,6],"right_children":[2,4,6,8,10,12,14,-1,-1,-1,-1,-1,-1,-1,-1],"split_conditions":[8.0332977E-1,2.4432161E1,6.067783E0,1.9575531E1,5.8997345E-1,8.7347895E-1,2.5862276E1,-1.5796287E-2,-9.160965E-2,-6.4521497E-3,8.255836E-2,6.1895568E-2,-5.576677E-2,6.663317E-2,1.4506402E-2],"split_indices":[1,0,0,0,1,1,0,0,0,0,0,0,0,0,0],"split_type":[0,0,0,0,0,0,0,0,0,0,0,0,0,0,0],"sum_hessian":[9.7047325E1,7.791014E1,1.9137186E1,3.2931515E1,4.4978622E1,6.702884E0,1.2434302E1,2.9437826E1,3.4936895E0,4.0630783E1,4.3478413E0,3.139195E0,3.563689E0,8.603767E0,3.8305345E0],"tree_param":{"num_deleted":"0","num_feature":"4","num_nodes":"15","size_leaf_vector":"1"}},{"base_weights":[1.9081105E-3,2.0789547E-1,-1.0567358E-1,3.0039277E-2,6.089455E-1,-7.7296466E-1,-4.7012597E-2,5.4773442E-2,-8.199058E-3,-1.2595211E-2,7.294965E-2,-8.624044E-2,9.237105E-3,-8.110347E-6,-6.086078E-2],"categories":[],"categories_nodes":[],"categories_segments":[],"categories_sizes":[],"default_left":[0,0,0,0,0,0,0,0,0,0,0,0,0,0,0],"id":25,"left_children":[1,3,5,7,9,11,13,-1,-1,-1,-1,-1,-1,-1,-1],"loss_changes":[2.1627324E0,2.3698268E0,2.4736712E0,2.1736689E0,2.5195048E0,1.5111322E0,2.0090837E0,0E0,0E0,0E0,0E0,0E0,0E0,0E0,0E0],"parents":[2147483647,0,0,1,1,2,2,3,3,4,4,5,5,6,6],"right_children":[2,4,6,8,10,12,14,-1,-1,-1,-1,-1,-1,-1,-1],"split_conditions":[5.620081E1,3.0100666E1,6.57474E1,1.6480497E-1,1E0,2E0,9.544578E1,5.4773442E-2,-8.199058E-3,-1.2595211E-2,7.294965E-2,-8.624044E-2,9.237105E-3,-8.110347E-6,-6.086078E-2],"split_indices":[2,2,2,2,3,3,0,0,0,0,0,0,0,0,0],"split_type":[0,0,0,0,0,0,0,0,0,0,0,0,0,0,0],"sum_hessian":[9.560279E1,3.2480232E1,6.3122555E1,2.3246058E1,9.234176E0,4.116701E0,5.9005856E1,3.2123244E0,2.0033733E1,2.7520046E0,6.4821706E0,2.905661E0,1.2110401E0,5.6305317E1,2.7005396E0],"tree_param":{"num_deleted":"0","num_feature":"4","num_nodes":"15","size_leaf_vector":"1"}},{"base_weights":[8.5991295E-3,6.7923725E-2,-2.416789E-2,5.9467845E-2,-5.051623E-2,-8.6510114E-2,-7.123806E-4],"categories":[],"categories_nodes":[],"categories_segments":[],"categories_sizes":[],"default_left":[0,0,0,0,0,0,0],"id":26,"left_children":[1,-1,3,-1,5,-1,-1],"loss_changes":[2.6495657E0,0E0,1.915365E0,0E0,3.8814685E0,0E0,0E0],"parents":[2147483647,0,0,2,2,4,4],"right_children":[2,-1,4,-1,6,-1,-1],"split_conditions":[1.6480497E-1,6.7923725E-2,9.9548775E-1,5.9467845E-2,1.321395E0,-8.6510114E-2,-7.123806E-4],"split_indices":[2,0,0,0,0,0,0],"split_type":[0,0,0,0,0,0,0],"sum_hessian":[9.446643E1,2.6100159E0,9.1856415E1,2.1455355E0,8.971088E1,2.5112426E0,8.719964E1],"tree_param":{"num_deleted":"0","num_feature":"4","num_nodes":"7","size_leaf_vector":"1"}},{"base_weights":[-2.2132466E-2,-1.15879536E-1,5.109925E-1,-3.2170027E-1,6.4208575E-2,2.253904E-1,8.6229795E-1,-1.5713632E-2,-7.6964565E-2,-7.3556867E-3,9.429733E-2,7.429855E-2,-1.1470238E-2,7.826913E-2,1.326829E-2],"categories":[],"categories_nodes":[],"categories_segments":[],"categories_sizes":[],"default_left":[0,0,0,0,0,0,0,0,0,0,0,0,0,0,0],"id":27,"left_children":[1,3,5,7,9,11,13,-1,-1,-1,-1,-1,-1,-1,-1],"loss_changes":[4.837129E0,3.0644038E0,1.2586145E0,2.8986223E0,7.8756E0,2.5560706E0,3.3404207E-1,0E0,0E0,0E0,0E0,0E0,0E0,0E0,0E0],"parents":[2147483647,0,0,1,1,2,2,3,3,4,4,5,5,6,6],"right_children":[2,4,6,8,10,12,14,-1,-1,-1,-1,-1,-1,-1,-1],"split_conditions":[8.417625E-1,2.622582E1,9.302024E0,1.9398565E1,5.8997345E-1,2.7504196E0,9.3427515E-1,-1.5713632E-2,-7.6964565E-2,-7.3556867E-3,9.429733E-2,7.429855E-2,-1.1470238E-2,7.826913E-2,1.326829E-2],"split_indices":[1,0,0,0,1,0,1,0,0,0,0,0,0,0,0],"split_type":[0,0,0,0,0,0,0,0,0,0,0,0,0,0,0],"sum_hessian":[9.459864E1,8.111726E1,1.3481379E1,3.7487198E1,4.3630062E1,8.34152E0,5.1398587E0,3.2446148E1,5.041053E0,3.9073013E1,4.557052E0,2.3468914E0,5.994629E0,4.058662E0,1.081197E0],"tree_param":{"num_deleted":"0","num_feature":"4","num_nodes":"15","size_leaf_vector":"1"}},{"base_weights":[-5.234237E-2,-9.802341E-2,4.8822883E-1,8.276848E-3,-3.6281458E-1,7.6810054E-2,-1.036256E-1,-5.5557303E-3,2.8941976E-2,-5.230883E-2,8.949716E-3,4.2800467E-2,-4.7160238E-2],"categories":[],"categories_nodes":[],"categories_segments":[],"categories_sizes":[],"default_left":[0,0,0,0,0,0,0,0,0,0,0,0,0],"id":28,"left_children":[1,3,5,7,9,-1,11,-1,-1,-1,-1,-1,-1],"loss_changes":[2.3483503E0,2.444343E0,2.1736207E0,1.7523901E0,3.5087392E0,0E0,1.6177071E0,0E0,0E0,0E0,0E0,0E0,0E0],"parents":[2147483647,0,0,1,1,2,2,3,3,4,4,6,6],"right_children":[2,4,6,8,10,-1,12,-1,-1,-1,-1,-1,-1],"split_conditions":[5.1776056E2,1.724703E2,6.4548846E2,1.3001898E2,2E0,7.6810054E-2,1.7029612E1,-5.5557303E-3,2.8941976E-2,-5.230883E-2,8.949716E-3,4.2800467E-2,-4.7160238E-2],"split_indices":[2,2,2,2,3,0,0,0,0,0,0,0,0],"split_type":[0,0,0,0,0,0,0,0,0,0,0,0,0],"sum_hessian":[9.216053E1,8.573422E1,6.426314E0,6.186664E1,2.3867582E1,3.2292988E0,3.197015E0,5.1374485E1,1.049215E1,1.4561799E1,9.305783E0,1.3376764E0,1.8593388E0],"tree_param":{"num_deleted":"0","num_feature":"4","num_nodes":"13","size_leaf_vector":"1"}},{"base_weights":[1.2908607E-3,-2.9792305E-2,5.7553735E-2,-6.3349056E-1,6.8721566E-3,9.208183E-3,-7.9524964E-2,6.604024E-2,-2.4879852E-3],"categories":[],"categories_nodes":[],"categories_segments":[],"categories_sizes":[],"default_left":[0,0,0,0,0,0,0,0,0],"id":29,"left_children":[1,3,-1,5,7,-1,-1,-1,-1],"loss_changes":[2.166519E0,2.0644267E0,0E0,1.5556962E0,2.783911E0,0E0,0E0,0E0,0E0],"parents":[2147483647,0,0,1,1,3,3,4,4],"right_children":[2,4,-1,6,8,-1,-1,-1,-1],"split_conditions":[9.745057E1,1.3511578E0,5.7553735E-2,1E0,2.0247812E0,9.208183E-3,-7.9524964E-2,6.604024E-2,-2.4879852E-3],"split_indices":[0,2,0,3,2,0,0,0,0],"split_type":[0,0,0,0,0,0,0,0,0],"sum_hessian":[9.509832E1,9.2071655E1,3.026663E0,4.339621E0,8.773203E1,1.6320511E0,2.70757E0,2.9696693E0,8.476237E1],"tree_param":{"num_deleted":"0","num_feature":"4","num_nodes":"9","size_leaf_vector":"1"}},{"base_weights":[-3.3771884E-2,7.448723E-2,-6.0419638E-2,-8.749453E-2,-1.678195E-2,8.9069515E-2,-4.801904E-3],"categories":[],"categories_nodes":[],"categories_segments":[],"categories_sizes":[],"default_left":[0,0,0,0,0,0,0],"id":30,"left_children":[1,-1,3,-1,5,-1,-1],"loss_changes":[2.5168679E0,0E0,4.223101E0,0E0,4.527272E0,0E0,0E0],"parents":[2147483647,0,0,2,2,4,4],"right_children":[2,-1,4,-1,6,-1,-1],"split_conditions":[9.9548775E-1,7.448723E-2,1.321395E0,-8.749453E-2,2.1343944E0,8.9069515E-2,-4.801904E-3],"split_indices":[0,0,0,0,0,0,0],"split_type":[0,0,0,0,0,0,0],"sum_hessian":[9.470116E1,1.6329942E0,9.306816E1,2.7962074E0,9.027196E1,2.4147065E0,8.785725E1],"tree_param":{"num_deleted":"0","num_feature":"4","num_nodes":"7","size_leaf_vector":"1"}},{"base_weights":[2.903279E-2,7.729179E-2,1.0575763E-3,-8.147986E-2,4.3101024E-2,5.305657E-2,-4.0053474E-4],"categories":[],"categories_nodes":[],"categories_segments":[],"categories_sizes":[],"default_left":[0,0,0,0,0,0,0],"id":31,"left_children":[1,-1,3,-1,5,-1,-1],"loss_changes":[2.5583227E0,0E0,4.1502805E0,0E0,2.7765543E0,0E0,0E0],"parents":[2147483647,0,0,2,2,4,4],"right_children":[2,-1,4,-1,6,-1,-1],"split_conditions":[9.9548775E-1,7.729179E-2,1.321395E0,-8.147986E-2,2.806599E0,5.305657E-2,-4.0053474E-4],"split_indices":[0,0,0,0,0,0,0],"split_type":[0,0,0,0,0,0,0],"sum_hessian":[9.662537E1,1.8287863E0,9.479658E1,2.8345158E0,9.196207E1,5.7002482E0,8.626182E1],"tree_param":{"num_deleted":"0","num_feature":"4","num_nodes":"7","size_leaf_vector":"1"}},{"base_weights":[-3.739819E-2,-2.3996256E-1,2.812488E-1,7.1468306E-1,-3.1021565E-1,2.1026991E-1,7.2947495E-2,6.709492E-2,1.2829471E-2,-6.795997E-2,-1.8241525E-2,2.054089E-2,-4.531733E-2],"categories":[],"categories_nodes":[],"categories_segments":[],"categories_sizes":[],"default_left":[0,0,0,0,0,0,0,0,0,0,0,0,0],"id":32,"left_children":[1,3,5,7,9,11,-1,-1,-1,-1,-1,-1,-1],"loss_changes":[6.1251764E0,4.105917E0,1.46141E0,1.5918517E-1,2.2284746E0,1.3911963E0,0E0,0E0,0E0,0E0,0E0,0E0,0E0],"parents":[2147483647,0,0,1,1,2,2,3,3,4,4,5,5],"right_children":[2,4,6,8,10,12,-1,-1,-1,-1,-1,-1,-1],"split_conditions":[6.649651E-1,6.2251914E-1,3.9151592E1,1.9461662E-1,7.597837E-2,3.4601196E1,7.2947495E-2,6.709492E-2,1.2829471E-2,-6.795997E-2,-1.8241525E-2,2.054089E-2,-4.531733E-2],"split_indices":[1,2,0,1,1,0,0,0,0,0,0,0,0],"split_type":[0,0,0,0,0,0,0,0,0,0,0,0,0],"sum_hessian":[9.284992E1,5.6915554E1,3.5934372E1,3.2725809E0,5.3642975E1,3.3497395E1,2.4369743E0,2.255089E0,1.0174919E0,5.8601446E0,4.778283E1,3.2237286E1,1.2601118E0],"tree_param":{"num_deleted":"0","num_feature":"4","num_nodes":"13","size_leaf_vector":"1"}},{"base_weights":[1.6312844E-3,-1.4432858E-1,2.2467491E-1,3.4597516E-1,-2.2679037E-1,4.3878683E-1,-1.3205501E-1,-3.298107E-3,5.697792E-2,-2.6552875E-2,2.0978805E-2,5.4005343E-2,1.658484E-2,-5.2425575E-2,2.6552975E-2],"categories":[],"categories_nodes":[],"categories_segments":[],"categories_sizes":[],"default_left":[0,0,0,0,0,0,0,0,0,0,0,0,0,0,0],"id":33,"left_children":[1,3,5,7,9,11,13,-1,-1,-1,-1,-1,-1,-1,-1],"loss_changes":[3.0697882E0,2.383164E0,2.906568E0,1.2493331E0,2.6265316E0,1.1474166E0,3.8002868E0,0E0,0E0,0E0,0E0,0E0,0E0,0E0,0E0],"parents":[2147483647,0,0,1,1,2,2,3,3,4,4,5,5,6,6],"right_children":[2,4,6,8,10,12,14,-1,-1,-1,-1,-1,-1,-1,-1],"split_conditions":[6.649651E-1,2.8001652E0,1.724703E2,1.0740877E0,3.1244037E2,8.0289656E-1,7.8187495E-1,-3.298107E-3,5.697792E-2,-2.6552875E-2,2.0978805E-2,5.4005343E-2,1.658484E-2,-5.2425575E-2,2.6552975E-2],"split_indices":[1,2,2,2,2,1,1,0,0,0,0,0,0,0,0],"split_type":[0,0,0,0,0,0,0,0,0,0,0,0,0,0,0],"sum_hessian":[9.229818E1,5.6002823E1,3.629536E1,7.602727E0,4.8400093E1,2.2537914E1,1.3757447E1,4.1270304E0,3.4756968E0,4.0101242E1,8.298854E0,1.0204893E1,1.2333021E1,6.27173E0,7.4857173E0],"tree_param":{"num_deleted":"0","num_feature":"4","num_nodes":"15","size_leaf_vector":"1"}},{"base_weights":[-2.0963966E-3,3.6305687E-1,-6.048467E-2,-1.3188978E-1,6.4124537E-1,7.016581E-2,-8.735944E-2,3.091688E-2,-3.274599E-2,2.288307E-2,7.080504E-2,-7.2122425E-2,-4.207546E-3],"categories":[],"categories_nodes":[],"categories_segments":[],"categories_sizes":[],"default_left":[0,0,0,0,0,0,0,0,0,0,0,0,0],"id":34,"left_children":[1,3,5,7,9,-1,11,-1,-1,-1,-1,-1,-1],"loss_changes":[1.9708416E0,1.8392864E0,2.0838866E0,9.3690777E-1,4.6818733E-1,0E0,2.170362E0,0E0,0E0,0E0,0E0,0E0,0E0],"parents":[2147483647,0,0,1,1,2,2,3,3,4,4,6,6],"right_children":[2,4,6,8,10,-1,12,-1,-1,-1,-1,-1,-1],"split_conditions":[2.885693E0,1.6946838E1,9.9548775E-1,1E0,1.3511578E0,7.016581E-2,1.321395E0,3.091688E-2,-3.274599E-2,2.288307E-2,7.080504E-2,-7.2122425E-2,-4.207546E-3],"split_indices":[2,0,0,3,2,0,0,0,0,0,0,0,0],"split_type":[0,0,0,0,0,0,0,0,0,0,0,0,0],"sum_hessian":[9.040812E1,1.174408E1,7.866404E1,4.4149675E0,7.329112E0,1.3104916E0,7.735355E1,1.4021876E0,3.0127797E0,3.867659E0,3.4614532E0,2.1467342E0,7.520682E1],"tree_param":{"num_deleted":"0","num_feature":"4","num_nodes":"13","size_leaf_vector":"1"}},{"base_weights":[3.829274E-2,-4.048476E-1,8.137733E-2,-7.583696E-2,-4.3119818E-2,-1.639273E-2,3.2554564E-1,2.805486E-2,-7.653924E-2,-2.040617E-2,1.3021831E-2,1.0890574E-2,8.1207804E-2],"categories":[],"categories_nodes":[],"categories_segments":[],"categories_sizes":[],"default_left":[0,0,0,0,0,0,0,0,0,0,0,0,0],"id":35,"left_children":[1,3,5,-1,7,9,11,-1,-1,-1,-1,-1,-1],"loss_changes":[1.8484775E0,1.6473885E0,2.0941157E0,0E0,2.5682597E0,2.7541173E0,3.135707E0,0E0,0E0,0E0,0E0,0E0,0E0],"parents":[2147483647,0,0,1,1,2,2,4,4,5,5,6,6],"right_children":[2,4,6,-1,8,10,12,-1,-1,-1,-1,-1,-1],"split_conditions":[8.341886E-2,7.315844E1,7E1,-7.583696E-2,6.857155E-2,6.649651E-1,3.5049954E-1,2.805486E-2,-7.653924E-2,-2.040617E-2,1.3021831E-2,1.0890574E-2,8.1207804E-2],"split_indices":[1,0,0,0,1,1,1,0,0,0,0,0,0],"split_type":[0,0,0,0,0,0,0,0,0,0,0,0,0],"sum_hessian":[9.409129E1,7.5934434E0,8.649785E1,2.387737E0,5.2057066E0,6.2431744E1,2.4066103E1,4.06828E0,1.1374264E0,2.6587797E1,3.584395E1,1.9819338E1,4.246765E0],"tree_param":{"num_deleted":"0","num_feature":"4","num_nodes":"13","size_leaf_vector":"1"}},{"base_weights":[-7.0651416E-3,-1.296933E-1,1.199498E-1,-2.65905E-1,3.4825733E-1,-7.6451175E-2,5.230963E-1,-3.3825047E-2,5.793851E-3,-4.3529016E-3,5.563416E-2,7.580666E-3,-5.2076392E-2,9.9923335E-2,2.2192577E-2],"categories":[],"categories_nodes":[],"categories_segments":[],"categories_sizes":[],"default_left":[0,0,0,0,0,0,0,0,0,0,0,0,0,0,0],"id":36,"left_children":[1,3,5,7,9,11,13,-1,-1,-1,-1,-1,-1,-1,-1],"loss_changes":[1.4766188E0,3.2309918E0,3.7295122E0,2.0522807E0,1.5929812E0,3.2294364E0,2.3987832E0,0E0,0E0,0E0,0E0,0E0,0E0,0E0,0E0],"parents":[2147483647,0,0,1,1,2,2,3,3,4,4,5,5,6,6],"right_children":[2,4,6,8,10,12,14,-1,-1,-1,-1,-1,-1,-1,-1],"split_conditions":[2.4432161E1,8.417625E-1,3.8442066E-1,2E0,6.067783E0,2.8309998E-1,4.3028283E-1,-3.3825047E-2,5.793851E-3,-4.3529016E-3,5.563416E-2,7.580666E-3,-5.2076392E-2,9.9923335E-2,2.2192577E-2],"split_indices":[0,1,1,3,0,1,1,0,0,0,0,0,0,0,0],"split_type":[0,0,0,0,0,0,0,0,0,0,0,0,0,0,0],"sum_hessian":[9.28045E1,4.720691E1,4.5597588E1,3.7082405E1,1.01245E1,3.120554E1,1.4392046E1,2.516281E1,1.1919597E1,5.077999E0,5.0465016E0,2.4684347E1,6.5211926E0,2.6065524E0,1.1785493E1],"tree_param":{"num_deleted":"0","num_feature":"4","num_nodes":"15","size_leaf_vector":"1"}},{"base_weights":[-2.9191008E-2,6.685388E-1,-5.9990577E-2,1.6429296E-2,6.087677E-2,-8.777756E-2,-3.1097077E-2,3.9594676E-2,-6.515126E-3],"categories":[],"categories_nodes":[],"categories_segments":[],"categories_sizes":[],"default_left":[0,0,0,0,0,0,0,0,0],"id":37,"left_children":[1,3,5,-1,-1,-1,7,-1,-1],"loss_changes":[2.0375516E0,1.5460134E-2,2.6612105E0,0E0,0E0,0E0,2.3846686E0,0E0,0E0],"parents":[2147483647,0,0,1,1,2,2,6,6],"right_children":[2,4,6,-1,-1,-1,8,-1,-1],"split_conditions":[4.0174693E-1,7.231906E1,7.6470274E-1,1.6429296E-2,6.087677E-2,-8.777756E-2,2.885693E0,3.9594676E-2,-6.515126E-3],"split_indices":[2,0,2,0,0,0,2,0,0],"split_type":[0,0,0,0,0,0,0,0,0],"sum_hessian":[9.194865E1,3.0118744E0,8.893677E1,1.0369939E0,1.9748806E0,1.4082514E0,8.752852E1,6.8736253E0,8.065489E1],"tree_param":{"num_deleted":"0","num_feature":"4","num_nodes":"9","size_leaf_vector":"1"}},{"base_weights":[-1.912216E-2,-1.253855E-1,1.7521083E-1,3.6217067E-2,-3.9252827E-1,-1.0797461E-1,4.909448E-1,-8.420647E-3,8.01489E-2,-3.6961816E-2,1.1020192E-2,-1.7387776E-2,6.410706E-2,5.846983E-2,1.3778258E-2],"categories":[],"categories_nodes":[],"categories_segments":[],"categories_sizes":[],"default_left":[0,0,0,0,0,0,0,0,0,0,0,0,0,0,0],"id":38,"left_children":[1,3,5,7,9,11,13,-1,-1,-1,-1,-1,-1,-1,-1],"loss_changes":[1.9501795E0,2.6454074E0,3.0416265E0,5.418554E0,9.133322E-1,2.0081716E0,1.0964634E0,0E0,0E0,0E0,0E0,0E0,0E0,0E0,0E0],"parents":[2147483647,0,0,1,1,2,2,3,3,4,4,5,5,6,6],"right_children":[2,4,6,8,10,12,14,-1,-1,-1,-1,-1,-1,-1,-1],"split_conditions":[6.89982E-1,4.3028283E-1,9.667784E0,3.8442066E-1,4.451846E2,5.165123E2,2.1058699E1,-8.420647E-3,8.01489E-2,-3.6961816E-2,1.1020192E-2,-1.7387776E-2,6.410706E-2,5.846983E-2,1.3778258E-2],"split_indices":[1,1,0,1,2,2,0,0,0,0,0,0,0,0,0],"split_type":[0,0,0,0,0,0,0,0,0,0,0,0,0,0,0],"sum_hessian":[9.237368E1,5.9948177E1,3.2425507E1,3.7891136E1,2.205704E1,1.7440733E1,1.4984774E1,3.382629E1,4.0648456E0,1.9615152E1,2.4418871E0,1.6247458E1,1.1932755E0,7.811297E0,7.1734767E0],"tree_param":{"num_deleted":"0","num_feature":"4","num_nodes":"15","size_leaf_vector":"1"}},{"base_weights":[4.1991733E-2,-1.1774064E-1,3.013683E-1,-1.5587243E-1,5.7715964E-2,8.3386905E-2,5.1337546E-1,-8.642762E-3,-6.46401E-2,1.6436685E-2,-6.691098E-2,7.009065E-2,1.6185952E-2],"categories":[],"categories_nodes":[],"categories_segments":[],"categories_sizes":[],"default_left":[0,0,0,0,0,0,0,0,0,0,0,0,0],"id":39,"left_children":[1,3,5,7,-1,9,11,-1,-1,-1,-1,-1,-1],"loss_changes":[3.8469698E0,1.9573543E0,1.5905163E0,1.6587728E0,0E0,2.2624514E0,1.8225393E0,0E0,0E0,0E0,0E0,0E0,0E0],"parents":[2147483647,0,0,1,1,2,2,3,3,5,5,6,6],"right_children":[2,4,6,8,-1,10,12,-1,-1,-1,-1,-1,-1],"split_conditions":[6.649651E-1,9.952E1,9.302024E0,6.3395286E-1,5.7715964E-2,8.190796E0,1.842643E1,-8.642762E-3,-6.46401E-2,1.6436685E-2,-6.691098E-2,7.009065E-2,1.6185952E-2],"split_indices":[1,0,0,1,0,0,0,0,0,0,0,0,0],"split_type":[0,0,0,0,0,0,0,0,0,0,0,0,0],"sum_hessian":[9.099638E1,5.6653446E1,3.4342937E1,5.4969936E1,1.6835092E0,1.7619871E1,1.6723066E1,5.2299118E1,2.6708179E0,1.6241001E1,1.3788714E0,6.8812485E0,9.841819E0],"tree_param":{"num_deleted":"0","num_feature":"4","num_nodes":"13","size_leaf_vector":"1"}},{"base_weights":[2.392623E-2,-4.322284E-2,4.246277E-1,-6.643992E-2,5.5553667E-2,1.5983189E-2,6.9330055E-1,-2.86262E-3,-5.3408455E-2,6.483282E-2,-3.558775E-2,7.0387684E-2,-5.025926E-3],"categories":[],"categories_nodes":[],"categories_segments":[],"categories_sizes":[],"default_left":[0,0,0,0,0,0,0,0,0,0,0,0,0],"id":40,"left_children":[1,3,5,7,-1,9,11,-1,-1,-1,-1,-1,-1],"loss_changes":[2.5147243E0,1.4225494E0,1.4610729E0,1.428957E0,0E0,2.6824417E0,1.1930246E0,0E0,0E0,0E0,0E0,0E0,0E0],"parents":[2147483647,0,0,1,1,2,2,3,3,5,5,6,6],"right_children":[2,4,6,8,-1,10,12,-1,-1,-1,-1,-1,-1],"split_conditions":[8.417625E-1,9.952E1,6.067783E0,9.544578E1,5.5553667E-2,1E0,2.767861E1,-2.86262E-3,-5.3408455E-2,6.483282E-2,-3.558775E-2,7.0387684E-2,-5.025926E-3],"split_indices":[1,0,0,0,0,3,0,0,0,0,0,0,0],"split_type":[0,0,0,0,0,0,0,0,0,0,0,0,0],"sum_hessian":[9.177867E1,7.937006E1,1.2408608E1,7.783031E1,1.539752E0,5.342418E0,7.0661902E0,7.506196E1,2.7683518E0,1.6828159E0,3.6596022E0,5.5366125E0,1.5295775E0],"tree_param":{"num_deleted":"0","num_feature":"4","num_nodes":"13","size_leaf_vector":"1"}},{"base_weights":[6.019265E-3,-4.8708624E-1,5.2353997E-2,-7.8473604E-1,1.5949695E-1,-5.3942747E-2,2.604081E-1,4.3849233E-3,-9.37104E-2,4.452113E-2,-2.5282199E-2,-6.1348908E-2,-9.405773E-4,8.98529E-3,6.1507516E-2],"categories":[],"categories_nodes":[],"categories_segments":[],"categories_sizes":[],"default_left":[0,0,0,0,0,0,0,0,0,0,0,0,0,0,0],"id":41,"left_children":[1,3,5,7,9,11,13,-1,-1,-1,-1,-1,-1,-1,-1],"loss_changes":[2.1531801E0,1.6832461E0,1.916592E0,1.9185817E0,8.145779E-1,1.728292E0,2.1169074E0,0E0,0E0,0E0,0E0,0E0,0E0,0E0,0E0],"parents":[2147483647,0,0,1,1,2,2,3,3,4,4,5,5,6,6],"right_children":[2,4,6,8,10,12,14,-1,-1,-1,-1,-1,-1,-1,-1],"split_conditions":[7.597837E-2,8.5873085E1,6.1546177E1,1E0,9.171055E1,3.0474585E-1,3.8442066E-1,4.3849233E-3,-9.37104E-2,4.452113E-2,-2.5282199E-2,-6.1348908E-2,-9.405773E-4,8.98529E-3,6.1507516E-2],"split_indices":[1,0,0,3,0,1,1,0,0,0,0,0,0,0,0],"split_type":[0,0,0,0,0,0,0,0,0,0,0,0,0,0,0],"sum_hessian":[9.212358E1,7.0958185E0,8.502776E1,4.7126975E0,2.383121E0,5.6766148E1,2.8261616E1,1.7566333E0,2.956064E0,1.2059512E0,1.1771699E0,2.2116606E0,5.4554485E1,2.2832193E1,5.429422E0],"tree_param":{"num_deleted":"0","num_feature":"4","num_nodes":"15","size_leaf_vector":"1"}},{"base_weights":[4.2825215E-3,6.4910166E-2,-2.6067201E-2,-6.695975E-2,5.014712E-1,-2.8628232E-3,-9.0640284E-2,7.630846E-2,-2.2336936E-2],"categories":[],"categories_nodes":[],"categories_segments":[],"categories_sizes":[],"default_left":[0,0,0,0,0,0,0,0,0],"id":42,"left_children":[1,-1,3,5,7,-1,-1,-1,-1],"loss_changes":[2.2763665E0,0E0,1.9686286E0,2.7553608E0,2.5869226E0,0E0,0E0,0E0,0E0],"parents":[2147483647,0,0,2,2,3,3,4,4],"right_children":[2,-1,4,6,8,-1,-1,-1,-1],"split_conditions":[1.6480497E-1,6.4910166E-2,5.1776056E2,4.7245178E2,7.278762E2,-2.8628232E-3,-9.0640284E-2,7.630846E-2,-2.2336936E-2],"split_indices":[2,0,2,2,2,0,0,0,0],"split_type":[0,0,0,0,0,0,0,0,0],"sum_hessian":[9.106807E1,2.3677554E0,8.870032E1,8.312954E1,5.57078E0,8.177184E1,1.3576963E0,3.386546E0,2.1842337E0],"tree_param":{"num_deleted":"0","num_feature":"4","num_nodes":"9","size_leaf_vector":"1"}},{"base_weights":[1.709957E-2,-5.2587837E-1,4.6836052E-2,-9.053617E-1,2.7969092E-2,1.4765507E-1,-1.4897688E-1,-1.0395621E-2,-9.186832E-2,6.914359E-3,5.0300464E-2,-2.8818386E-2,7.724454E-3],"categories":[],"categories_nodes":[],"categories_segments":[],"categories_sizes":[],"default_left":[0,0,0,0,0,0,0,0,0,0,0,0,0],"id":43,"left_children":[1,3,5,7,-1,9,11,-1,-1,-1,-1,-1,-1],"loss_changes":[1.5350075E0,1.9573499E0,1.790945E0,5.5244136E-1,0E0,1.7027531E0,1.640276E0,0E0,0E0,0E0,0E0,0E0,0E0],"parents":[2147483647,0,0,1,1,2,2,3,3,5,5,6,6],"right_children":[2,4,6,8,-1,10,12,-1,-1,-1,-1,-1,-1],"split_conditions":[5.794884E-2,9.668797E1,1.724703E2,1.3511578E0,2.7969092E-2,1.4309941E2,3.2958698E2,-1.0395621E-2,-9.186832E-2,6.914359E-3,5.0300464E-2,-2.8818386E-2,7.724454E-3],"split_indices":[1,2,2,2,0,2,2,0,0,0,0,0,0],"split_type":[0,0,0,0,0,0,0,0,0,0,0,0,0],"sum_hessian":[9.254353E1,3.9387467E0,8.860479E1,2.7239354E0,1.2148114E0,5.8652214E1,2.9952574E1,1.0161273E0,1.7078079E0,5.3077183E1,5.575031E0,1.584909E1,1.4103483E1],"tree_param":{"num_deleted":"0","num_feature":"4","num_nodes":"13","size_leaf_vector":"1"}},{"base_weights":[2.5911383E-2,2.2876857E-1,-6.725465E-2,-1.2533116E-1,5.155088E-1,-8.517508E-1,-2.1063594E-2,5.7744905E-3,-6.9235146E-2,7.207754E-2,-3.2518264E-3,-1.2966175E-2,-8.957589E-2,1.0749443E-2,-1.9619422E-2],"categories":[],"categories_nodes":[],"categories_segments":[],"categories_sizes":[],"default_left":[0,0,0,0,0,0,0,0,0,0,0,0,0,0,0],"id":44,"left_children":[1,3,5,7,9,11,13,-1,-1,-1,-1,-1,-1,-1,-1],"loss_changes":[1.7243882E0,2.977297E0,2.255537E0,2.056385E0,3.4766226E0,4.5853424E-1,2.1332533E0,0E0,0E0,0E0,0E0,0E0,0E0,0E0,0E0],"parents":[2147483647,0,0,1,1,2,2,3,3,4,4,5,5,6,6],"right_children":[2,4,6,8,10,12,14,-1,-1,-1,-1,-1,-1,-1,-1],"split_conditions":[1E0,2.4051176E1,1.0740877E0,1.9219387E1,8.0698944E1,4.0174693E-1,3.4601196E1,5.7744905E-3,-6.9235146E-2,7.207754E-2,-3.2518264E-3,-1.2966175E-2,-8.957589E-2,1.0749443E-2,-1.9619422E-2],"split_indices":[3,0,2,0,0,2,0,0,0,0,0,0,0,0,0],"split_type":[0,0,0,0,0,0,0,0,0,0,0,0,0,0,0],"sum_hessian":[8.942629E1,2.7686646E1,6.1739643E1,1.2640103E1,1.5046541E1,2.4633334E0,5.927631E1,1.06897955E1,1.9503081E0,8.520895E0,6.5256467E0,1.13831E0,1.3250235E0,3.5242214E1,2.4034096E1],"tree_param":{"num_deleted":"0","num_feature":"4","num_nodes":"15","size_leaf_vector":"1"}},{"base_weights":[-5.161582E-3,-2.3695793E-2,5.3995565E-2,3.8874E-2,-3.7316045E-1,-2.646493E-3,3.979119E-2,-8.401872E-3,-6.749025E-2],"categories":[],"categories_nodes":[],"categories_segments":[],"categories_sizes":[],"default_left":[0,0,0,0,0,0,0,0,0],"id":45,"left_children":[1,3,-1,5,7,-1,-1,-1,-1],"loss_changes":[1.1739668E0,1.9910451E0,0E0,2.5757685E0,1.6549317E0,0E0,0E0,0E0,0E0],"parents":[2147483647,0,0,1,1,3,3,4,4],"right_children":[2,4,-1,6,8,-1,-1,-1,-1],"split_conditions":[9.952E1,8.4201996E1,5.3995565E-2,7.2797295E1,2.7253094E-1,-2.646493E-3,3.979119E-2,-8.401872E-3,-6.749025E-2],"split_indices":[0,0,0,0,1,0,0,0,0],"split_type":[0,0,0,0,0,0,0,0,0],"sum_hessian":[9.0864525E1,8.939354E1,1.4709885E0,7.657241E1,1.2821122E1,6.698783E1,9.584587E0,8.9458065E0,3.8753161E0],"tree_param":{"num_deleted":"0","num_feature":"4","num_nodes":"9","size_leaf_vector":"1"}},{"base_weights":[-6.4975065E-3,-4.703965E-1,3.3552945E-2,-8.0082655E-1,1.7882194E-2,1.2930515E-1,-1.6170287E-1,-8.296778E-3,-8.674553E-2,4.535596E-3,3.7350982E-2,-8.282709E-2,-1.2296577E-3],"categories":[],"categories_nodes":[],"categories_segments":[],"categories_sizes":[],"default_left":[0,0,0,0,0,0,0,0,0,0,0,0,0],"id":46,"left_children":[1,3,5,7,-1,9,11,-1,-1,-1,-1,-1,-1],"loss_changes":[1.7593532E0,1.9043689E0,1.6534542E0,9.38061E-1,0E0,1.4232632E0,3.7139366E0,0E0,0E0,0E0,0E0,0E0,0E0],"parents":[2147483647,0,0,1,1,2,2,3,3,5,5,6,6],"right_children":[2,4,6,8,-1,10,12,-1,-1,-1,-1,-1,-1],"split_conditions":[7.597837E-2,1.421656E2,1.724703E2,2.1893423E0,1.7882194E-2,1.3001898E2,1.9603053E2,-8.296778E-3,-8.674553E-2,4.535596E-3,3.7350982E-2,-8.282709E-2,-1.2296577E-3],"split_indices":[1,2,2,2,0,2,2,0,0,0,0,0,0],"split_type":[0,0,0,0,0,0,0,0,0,0,0,0,0],"sum_hessian":[9.2844444E1,6.524694E0,8.631975E1,4.3156357E0,2.2090583E0,5.8144043E1,2.8175703E1,1.6425022E0,2.6731334E0,4.8812874E1,9.331168E0,3.1706927E0,2.500501E1],"tree_param":{"num_deleted":"0","num_feature":"4","num_nodes":"13","size_leaf_vector":"1"}},{"base_weights":[1.7180037E-2,-4.2169568E-1,5.9236173E-2,-7.2565943E-1,1.8281515E-1,6.0800184E-2,4.056768E-2,4.831082E-3,-8.740474E-2,5.8771916E-2,-4.3128766E-2,-6.582953E-2,6.3960487E-3],"categories":[],"categories_nodes":[],"categories_segments":[],"categories_sizes":[],"default_left":[0,0,0,0,0,0,0,0,0,0,0,0,0],"id":47,"left_children":[1,3,5,7,9,-1,11,-1,-1,-1,-1,-1,-1],"loss_changes":[1.7057629E0,1.6185236E0,1.0677685E0,1.6758304E0,1.7921296E0,0E0,2.883202E0,0E0,0E0,0E0,0E0,0E0,0E0],"parents":[2147483647,0,0,1,1,2,2,3,3,4,4,6,6],"right_children":[2,4,6,8,10,-1,12,-1,-1,-1,-1,-1,-1],"split_conditions":[8.341886E-2,8.5873085E1,8.506446E-1,1E0,5.9712164E-2,6.0800184E-2,1.321395E0,4.831082E-3,-8.740474E-2,5.8771916E-2,-4.3128766E-2,-6.582953E-2,6.3960487E-3],"split_indices":[1,0,0,3,1,0,0,0,0,0,0,0,0],"split_type":[0,0,0,0,0,0,0,0,0,0,0,0,0],"sum_hessian":[9.006276E1,7.086351E0,8.297641E1,4.5819964E0,2.5043542E0,1.1227019E0,8.185371E1,1.7239683E0,2.8580284E0,1.4093966E0,1.0949577E0,2.7028127E0,7.9150894E1],"tree_param":{"num_deleted":"0","num_feature":"4","num_nodes":"13","size_leaf_vector":"1"}},{"base_weights":[1.1724016E-2,1.2769E-1,-1.9740823E-1,5.080347E-1,7.069095E-2,-7.5272167E-1,-7.6496705E-2,-4.745204E-3,6.709533E-2,3.535579E-2,-1.6763083E-3,-7.4821953E-3,-7.9147086E-2,-4.3252986E-2,2.9126578E-3],"categories":[],"categories_nodes":[],"categories_segments":[],"categories_sizes":[],"default_left":[0,0,0,0,0,0,0,0,0,0,0,0,0,0,0],"id":48,"left_children":[1,3,5,7,9,11,13,-1,-1,-1,-1,-1,-1,-1,-1],"loss_changes":[2.2549307E0,1.2594357E0,2.1708117E0,1.4803067E0,1.8167673E0,8.1542134E-1,1.5063169E0,0E0,0E0,0E0,0E0,0E0,0E0,0E0,0E0],"parents":[2147483647,0,0,1,1,2,2,3,3,4,4,5,5,6,6],"right_children":[2,4,6,8,10,12,14,-1,-1,-1,-1,-1,-1,-1,-1],"split_conditions":[1.5951833E2,2.814801E0,1.9603053E2,1.3053735E0,2.885693E0,1.724703E2,4.3285975E0,-4.745204E-3,6.709533E-2,3.535579E-2,-1.6763083E-3,-7.4821953E-3,-7.9147086E-2,-4.3252986E-2,2.9126578E-3],"split_indices":[2,0,2,0,2,2,0,0,0,0,0,0,0,0,0],"split_type":[0,0,0,0,0,0,0,0,0,0,0,0,0,0,0],"sum_hessian":[9.093891E1,5.8750553E1,3.218836E1,6.6256576E0,5.2124897E1,4.8210783E0,2.736728E1,2.7418077E0,3.8838499E0,9.56289E0,4.2562008E1,1.641968E0,3.17911E0,4.6132026E0,2.2754078E1],"tree_param":{"num_deleted":"0","num_feature":"4","num_nodes":"15","size_leaf_vector":"1"}},{"base_weights":[-8.3889486E-4,5.9335124E-2,-1.7725948E-2,-7.53748E-1,1.931279E-2,-9.17633E-3,-8.397138E-2,5.1179066E-2,-7.1379205E-4],"categories":[],"categories_nodes":[],"categories_segments":[],"categories_sizes":[],"default_left":[0,0,0,0,0,0,0,0,0],"id":49,"left_children":[1,-1,3,5,7,-1,-1,-1,-1],"loss_changes":[1.184099E0,0E0,2.530343E0,7.2038364E-1,1.56195E0,0E0,0E0,0E0,0E0],"parents":[2147483647,0,0,2,2,3,3,4,4],"right_children":[2,-1,4,6,8,-1,-1,-1,-1],"split_conditions":[8.506446E-1,5.9335124E-2,1.321395E0,1.0855343E0,4.0174693E-1,-9.17633E-3,-8.397138E-2,5.1179066E-2,-7.1379205E-4],"split_indices":[0,0,0,0,2,0,0,0,0],"split_type":[0,0,0,0,0,0,0,0,0],"sum_hessian":[9.238397E1,1.0999138E0,9.128406E1,3.4464784E0,8.783758E1,1.5299319E0,1.9165463E0,2.8807166E0,8.495686E1],"tree_param":{"num_deleted":"0","num_feature":"4","num_nodes":"9","size_leaf_vector":"1"}},{"base_weights":[3.2176577E-2,-1.9169375E-2,3.5599568E-1,-1.7638712E-1,1.235721E-1,7.369832E-2,7.96374E-2,-4.2244713E-3,-6.6037245E-2,-1.3787539E-3,8.94412E-2,-4.402614E-2,4.1355785E-2],"categories":[],"categories_nodes":[],"categories_segments":[],"categories_sizes":[],"default_left":[0,0,0,0,0,0,0,0,0,0,0,0,0],"id":50,"left_children":[1,3,5,7,9,-1,11,-1,-1,-1,-1,-1,-1],"loss_changes":[1.537864E0,1.8267411E0,1.903237E0,3.0595362E0,6.004354E0,0E0,2.927312E0,0E0,0E0,0E0,0E0,0E0,0E0],"parents":[2147483647,0,0,1,1,2,2,3,3,4,4,6,6],"right_children":[2,4,6,8,10,-1,12,-1,-1,-1,-1,-1,-1],"split_conditions":[8.417625E-1,2.622582E1,1E0,1.9398565E1,5.8997345E-1,7.369832E-2,5.8630137E0,-4.2244713E-3,-6.6037245E-2,-1.3787539E-3,8.94412E-2,-4.402614E-2,4.1355785E-2],"split_indices":[1,0,3,0,1,0,0,0,0,0,0,0,0],"split_type":[0,0,0,0,0,0,0,0,0,0,0,0,0],"sum_hessian":[9.1082634E1,7.94289E1,1.1653737E1,3.768563E1,4.1743267E1,3.0605536E0,8.5931835E0,3.2566494E1,5.1191382E0,3.7426582E1,4.316686E0,3.4151185E0,5.1780653E0],"tree_param":{"num_deleted":"0","num_feature":"4","num_nodes":"13","size_leaf_vector":"1"}},{"base_weights":[2.0806344E-2,7.3406406E-2,-6.4335163E-3,-6.8336174E-2,2.3517137E-2,-2.5800066E-3,4.252579E-2],"categories":[],"categories_nodes":[],"categories_segments":[],"categories_sizes":[],"default_left":[0,0,0,0,0,0,0],"id":51,"left_children":[1,-1,3,-1,5,-1,-1],"loss_changes":[2.2518847E0,0E0,2.3110247E0,0E0,2.5138304E0,0E0,0E0],"parents":[2147483647,0,0,2,2,4,4],"right_children":[2,-1,4,-1,6,-1,-1],"split_conditions":[9.9548775E-1,7.3406406E-2,1.321395E0,-6.8336174E-2,4.467196E2,-2.5800066E-3,4.252579E-2],"split_indices":[0,0,0,0,2,0,0],"split_type":[0,0,0,0,0,0,0],"sum_hessian":[9.094295E1,1.7174346E0,8.922552E1,2.1055832E0,8.7119934E1,7.934686E1,7.773069E0],"tree_param":{"num_deleted":"0","num_feature":"4","num_nodes":"7","size_leaf_vector":"1"}},{"base_weights":[2.9349014E-2,-6.9991816E-3,3.441717E-1,1.7162947E-2,-7.404848E-2,6.403477E-1,-3.2233036E-1,-4.860092E-3,1.7755648E-2,7.660257E-2,1.5817087E-2,-7.4092865E-2,4.0494185E-2],"categories":[],"categories_nodes":[],"categories_segments":[],"categories_sizes":[],"default_left":[0,0,0,0,0,0,0,0,0,0,0,0,0],"id":52,"left_children":[1,3,5,7,-1,9,11,-1,-1,-1,-1,-1,-1],"loss_changes":[1.0671012E0,1.8889858E0,2.1113768E0,1.3411356E0,0E0,7.95717E-1,2.286886E0,0E0,0E0,0E0,0E0,0E0,0E0],"parents":[2147483647,0,0,1,1,2,2,3,3,5,5,6,6],"right_children":[2,4,6,8,-1,10,12,-1,-1,-1,-1,-1,-1],"split_conditions":[4.467196E2,4.1622864E2,7.130713E2,7.3445594E-1,-7.404848E-2,6.1575097E-1,5.8997345E-1,-4.860092E-3,1.7755648E-2,7.660257E-2,1.5817087E-2,-7.4092865E-2,4.0494185E-2],"split_indices":[2,2,2,1,0,1,1,0,0,0,0,0,0],"split_type":[0,0,0,0,0,0,0,0,0,0,0,0,0],"sum_hessian":[9.204119E1,8.339096E1,8.650227E0,8.2209915E1,1.181052E0,6.0160794E0,2.6341467E0,6.0061516E1,2.2148396E1,2.8270226E0,3.189057E0,1.4554927E0,1.178654E0],"tree_param":{"num_deleted":"0","num_feature":"4","num_nodes":"13","size_leaf_vector":"1"}},{"base_weights":[2.7242554E-2,-4.330958E-2,3.2487816E-1,-6.462287E-2,5.1244967E-2,5.9037316E-1,1.2895637E-2,-1.6460804E-3,-3.211168E-2,2.1956787E-2,5.681422E-2,-3.7244298E-2,3.3326156E-2],"categories":[],"categories_nodes":[],"categories_segments":[],"categories_sizes":[],"default_left":[0,0,0,0,0,0,0,0,0,0,0,0,0],"id":53,"left_children":[1,3,5,7,-1,9,11,-1,-1,-1,-1,-1,-1],"loss_changes":[1.9075911E0,1.1167238E0,1.4333373E0,1.0665203E0,0E0,1.5995216E-1,1.9361436E0,0E0,0E0,0E0,0E0,0E0,0E0],"parents":[2147483647,0,0,1,1,2,2,3,3,5,5,6,6],"right_children":[2,4,6,8,-1,10,12,-1,-1,-1,-1,-1,-1],"split_conditions":[8.0332977E-1,9.952E1,8.7347895E-1,9.018498E1,5.1244967E-2,1E0,6.067783E0,-1.6460804E-3,-3.211168E-2,2.1956787E-2,5.681422E-2,-3.7244298E-2,3.3326156E-2],"split_indices":[1,0,1,0,0,3,0,0,0,0,0,0,0],"split_type":[0,0,0,0,0,0,0,0,0,0,0,0,0],"sum_hessian":[8.917271E1,7.2776184E1,1.6396524E1,7.145476E1,1.3214278E0,8.376149E0,8.020374E0,6.412843E1,7.3263183E0,3.207961E0,5.1681886E0,3.6001499E0,4.420224E0],"tree_param":{"num_deleted":"0","num_feature":"4","num_nodes":"13","size_leaf_vector":"1"}},{"base_weights":[-2.689467E-2,-1.1678564E-1,1.2054536E-1,-7.7617414E-2,-8.379779E-2,6.078402E-2,6.2433165E-2,-1.05985915E-2,2.5944907E-2,8.447367E-3,-4.95538E-2],"categories":[],"categories_nodes":[],"categories_segments":[],"categories_sizes":[],"default_left":[0,0,0,0,0,0,0,0,0,0,0],"id":54,"left_children":[1,3,5,7,-1,9,-1,-1,-1,-1,-1],"loss_changes":[1.2186723E0,1.9955084E0,1.3294972E0,1.2723746E0,0E0,1.0743027E0,0E0,0E0,0E0,0E0,0E0],"parents":[2147483647,0,0,1,1,2,2,3,3,5,5],"right_children":[2,4,6,8,-1,10,-1,-1,-1,-1,-1],"split_conditions":[6.649651E-1,6.503112E-1,3.9151592E1,5.9192884E-1,-8.379779E-2,3.4601196E1,6.2433165E-2,-1.05985915E-2,2.5944907E-2,8.447367E-3,-4.95538E-2],"split_indices":[1,1,0,1,0,0,0,0,0,0,0],"split_type":[0,0,0,0,0,0,0,0,0,0,0],"sum_hessian":[8.988857E1,5.5971737E1,3.3916836E1,5.4750927E1,1.2208109E0,3.210165E1,1.8151847E0,4.8764717E1,5.986207E0,3.0910229E1,1.1914222E0],"tree_param":{"num_deleted":"0","num_feature":"4","num_nodes":"11","size_leaf_vector":"1"}},{"base_weights":[-9.195928E-3,-4.038662E-1,2.473819E-2,-7.5717163E-1,3.0847006E-2,2.2066364E-1,-3.6559302E-2,6.0013128E-3,-8.148712E-2,-4.330343E-2,2.535444E-2,-6.5870665E-2,3.581984E-3],"categories":[],"categories_nodes":[],"categories_segments":[],"categories_sizes":[],"default_left":[0,0,0,0,0,0,0,0,0,0,0,0,0],"id":55,"left_children":[1,3,5,7,-1,9,11,-1,-1,-1,-1,-1,-1],"loss_changes":[1.267153E0,2.3809493E0,1.0574658E0,1.2754257E0,0E0,1.7093576E0,4.3510675E0,0E0,0E0,0E0,0E0,0E0,0E0],"parents":[2147483647,0,0,1,1,2,2,3,3,5,5,6,6],"right_children":[2,4,6,8,-1,10,12,-1,-1,-1,-1,-1,-1],"split_conditions":[7.597837E-2,1.421656E2,2.8309998E-1,1.4312485E0,3.0847006E-2,6.2758614E1,3.3498108E-1,6.0013128E-3,-8.148712E-2,-4.330343E-2,2.535444E-2,-6.5870665E-2,3.581984E-3],"split_indices":[1,2,1,2,0,0,1,0,0,0,0,0,0],"split_type":[0,0,0,0,0,0,0,0,0,0,0,0,0],"sum_hessian":[9.286859E1,6.489625E0,8.637897E1,4.511485E0,1.9781398E0,1.996497E1,6.6413994E1,1.24888E0,3.262605E0,1.7209264E0,1.8244043E1,5.3673096E0,6.1046688E1],"tree_param":{"num_deleted":"0","num_feature":"4","num_nodes":"13","size_leaf_vector":"1"}},{"base_weights":[2.363698E-2,3.9918557E-1,-2.460991E-2,-2.4623482E-2,7.64764E-1,-8.2734454E-1,1.6712042E-2,6.0140528E-2,-5.021053E-2,8.4299915E-2,-6.615012E-3,-7.857078E-2,-1.7128019E-2,1.9826313E-2,-4.6998467E-3],"categories":[],"categories_nodes":[],"categories_segments":[],"categories_sizes":[],"default_left":[0,0,0,0,0,0,0,0,0,0,0,0,0,0,0],"id":56,"left_children":[1,3,5,7,9,11,13,-1,-1,-1,-1,-1,-1,-1,-1],"loss_changes":[1.620926E0,1.5962085E0,2.6587374E0,3.1327443E0,1.4333842E0,1.6215253E-1,1.3541914E0,0E0,0E0,0E0,0E0,0E0,0E0,0E0,0E0],"parents":[2147483647,0,0,1,1,2,2,3,3,4,4,5,5,6,6],"right_children":[2,4,6,8,10,12,14,-1,-1,-1,-1,-1,-1,-1,-1],"split_conditions":[2.885693E0,1.2557584E0,1.1177545E1,1.6480497E-1,2E0,2E0,5.828357E1,6.0140528E-2,-5.021053E-2,8.4299915E-2,-6.615012E-3,-7.857078E-2,-1.7128019E-2,1.9826313E-2,-4.6998467E-3],"split_indices":[2,2,2,2,3,3,2,0,0,0,0,0,0,0,0],"split_type":[0,0,0,0,0,0,0,0,0,0,0,0,0,0,0],"sum_hessian":[8.7917564E1,9.180869E0,7.87367E1,4.6837363E0,4.497133E0,2.9234197E0,7.581328E1,1.939688E0,2.744048E0,3.172025E0,1.3251078E0,1.8539269E0,1.0694928E0,1.809826E1,5.771502E1],"tree_param":{"num_deleted":"0","num_feature":"4","num_nodes":"15","size_leaf_vector":"1"}},{"base_weights":[-6.362342E-2,4.717415E-2,-8.396137E-2,-7.8005576E-1,-5.2477494E-2,-8.519672E-2,-4.618135E-3,6.524473E-2,-7.054252E-3],"categories":[],"categories_nodes":[],"categories_segments":[],"categories_sizes":[],"default_left":[0,0,0,0,0,0,0,0,0],"id":57,"left_children":[1,-1,3,5,7,-1,-1,-1,-1],"loss_changes":[1.2624228E0,0E0,1.9184736E0,7.198572E-1,2.7559047E0,0E0,0E0,0E0,0E0],"parents":[2147483647,0,0,2,2,3,3,4,4],"right_children":[2,-1,4,6,8,-1,-1,-1,-1],"split_conditions":[9.9548775E-1,4.717415E-2,1.321395E0,7.0150334E-1,2.1343944E0,-8.519672E-2,-4.618135E-3,6.524473E-2,-7.054252E-3],"split_indices":[0,0,0,1,0,0,0,0,0],"split_type":[0,0,0,0,0,0,0,0,0],"sum_hessian":[9.028712E1,1.8807071E0,8.840641E1,2.796682E0,8.560973E1,1.6654495E0,1.1312324E0,2.518946E0,8.309078E1],"tree_param":{"num_deleted":"0","num_feature":"4","num_nodes":"9","size_leaf_vector":"1"}},{"base_weights":[-1.1343629E-2,6.18574E-2,-3.136825E-2,-5.9764866E-2,7.159522E-4,-3.5496813E-3,4.5047846E-2],"categories":[],"categories_nodes":[],"categories_segments":[],"categories_sizes":[],"default_left":[0,0,0,0,0,0,0],"id":58,"left_children":[1,-1,3,-1,5,-1,-1],"loss_changes":[1.4237087E0,0E0,2.0171287E0,0E0,2.1815836E0,0E0,0E0],"parents":[2147483647,0,0,2,2,4,4],"right_children":[2,-1,4,-1,6,-1,-1],"split_conditions":[9.9548775E-1,6.18574E-2,1.321395E0,-5.9764866E-2,5.1776056E2,-3.5496813E-3,4.5047846E-2],"split_indices":[0,0,0,0,2,0,0],"split_type":[0,0,0,0,0,0,0],"sum_hessian":[8.807742E1,1.2559555E0,8.682147E1,2.7690358E0,8.405244E1,7.866672E1,5.38572E0],"tree_param":{"num_deleted":"0","num_feature":"4","num_nodes":"7","size_leaf_vector":"1"}},{"base_weights":[-5.5888034E-3,-9.6791565E-2,1.528522E-1,-1.8728804E-2,-4.5050353E-1,6.507082E-2,7.081218E-2,-9.017324E-3,1.6367566E-2,-1.0566398E-1,-2.3034757E-3,6.061785E-2,-1.1710769E-3],"categories":[],"categories_nodes":[],"categories_segments":[],"categories_sizes":[],"default_left":[0,0,0,0,0,0,0,0,0,0,0,0,0],"id":59,"left_children":[1,3,5,7,9,11,-1,-1,-1,-1,-1,-1,-1],"loss_changes":[1.328292E0,1.6013892E0,2.1020033E0,1.0474591E0,3.814644E0,1.7269809E0,0E0,0E0,0E0,0E0,0E0,0E0,0E0],"parents":[2147483647,0,0,1,1,2,2,3,3,4,4,5,5],"right_children":[2,4,6,8,10,12,-1,-1,-1,-1,-1,-1,-1],"split_conditions":[6.649651E-1,5.715652E-1,3.59947E1,3.8442066E-1,5.9192884E-1,6.9620883E-1,7.081218E-2,-9.017324E-3,1.6367566E-2,-1.0566398E-1,-2.3034757E-3,6.061785E-2,-1.1710769E-3],"split_indices":[1,1,0,1,1,1,0,0,0,0,0,0,0],"split_type":[0,0,0,0,0,0,0,0,0,0,0,0,0],"sum_hessian":[8.9897835E1,5.7302265E1,3.259557E1,4.7804874E1,9.497389E0,3.0078854E1,2.516718E0,3.3993618E1,1.3811258E1,2.4040556E0,7.0933332E0,2.2263536E0,2.7852499E1],"tree_param":{"num_deleted":"0","num_feature":"4","num_nodes":"13","size_leaf_vector":"1"}},{"base_weights":[-1.1225697E-2,6.92115E-2,-1.735028E-1,-7.835266E-1,1.1839539E-1,-7.689835E-2,-8.35152E-2,-2.141955E-2,-7.392462E-2,-1.2139665E-3,2.771032E-2,2.8848063E-2,-1.6858965E-2],"categories":[],"categories_nodes":[],"categories_segments":[],"categories_sizes":[],"default_left":[0,0,0,0,0,0,0,0,0,0,0,0,0],"id":60,"left_children":[1,3,5,7,9,-1,11,-1,-1,-1,-1,-1,-1],"loss_changes":[1.2125006E0,2.7017136E0,2.1004894E0,7.981777E-3,1.8226707E0,0E0,1.6978945E0,0E0,0E0,0E0,0E0,0E0,0E0],"parents":[2147483647,0,0,1,1,2,2,3,3,4,4,6,6],"right_children":[2,4,6,8,10,-1,12,-1,-1,-1,-1,-1,-1],"split_conditions":[1.724703E2,5.613133E-2,1.827575E2,1.3203604E1,8.020279E1,-7.689835E-2,2.3179437E-1,-2.141955E-2,-7.392462E-2,-1.2139665E-3,2.771032E-2,2.8848063E-2,-1.6858965E-2],"split_indices":[2,1,2,2,2,0,1,0,0,0,0,0,0],"split_type":[0,0,0,0,0,0,0,0,0,0,0,0,0],"sum_hessian":[9.096979E1,6.120521E1,2.9764578E1,2.5234642E0,5.8681747E1,2.058986E0,2.7705591E1,1.1624033E0,1.3610609E0,3.7591347E1,2.10904E1,5.760827E0,2.1944765E1],"tree_param":{"num_deleted":"0","num_feature":"4","num_nodes":"13","size_leaf_vector":"1"}},{"base_weights":[4.360482E-2,-4.3033028E-1,9.185356E-2,-6.874545E-1,3.7246883E-2,-1.6954307E-1,1.7185703E-1,6.0797376E-3,-7.976785E-2,2.1501068E-2,-4.6732944E-2,5.508681E-2,9.043541E-3],"categories":[],"categories_nodes":[],"categories_segments":[],"categories_sizes":[],"default_left":[0,0,0,0,0,0,0,0,0,0,0,0,0],"id":61,"left_children":[1,3,5,7,-1,9,11,-1,-1,-1,-1,-1,-1],"loss_changes":[2.0764E0,2.2565625E0,1.7370584E0,1.7153192E0,0E0,3.726493E0,1.8375818E0,0E0,0E0,0E0,0E0,0E0,0E0],"parents":[2147483647,0,0,1,1,2,2,3,3,5,5,6,6],"right_children":[2,4,6,8,-1,10,12,-1,-1,-1,-1,-1,-1],"split_conditions":[8.507865E-2,2.2429608E2,6.7124715E0,2.1893423E0,3.7246883E-2,3.0305862E0,9.118128E0,6.0797376E-3,-7.976785E-2,2.1501068E-2,-4.6732944E-2,5.508681E-2,9.043541E-3],"split_indices":[1,2,0,2,0,0,0,0,0,0,0,0,0],"split_type":[0,0,0,0,0,0,0,0,0,0,0,0,0],"sum_hessian":[8.8075645E1,7.406314E0,8.0669334E1,5.935524E0,1.4707903E0,1.8641724E1,6.202761E1,1.9304394E0,4.0050845E0,9.233006E0,9.408718E0,5.244184E0,5.678343E1],"tree_param":{"num_deleted":"0","num_feature":"4","num_nodes":"13","size_leaf_vector":"1"}},{"base_weights":[-1.8350132E-2,1.4587863E-1,-9.045823E-2,-1.1379577E-1,3.701701E-1,-2.3855191E-1,7.754995E-2,-3.104573E-2,5.3240217E-2,6.278048E-2,-1.3147686E-2,-4.4607434E-2,4.7878874E-3,-2.1883285E-2,2.8213011E-2],"categories":[],"categories_nodes":[],"categories_segments":[],"categories_sizes":[],"default_left":[0,0,0,0,0,0,0,0,0,0,0,0,0,0,0],"id":62,"left_children":[1,3,5,7,9,11,13,-1,-1,-1,-1,-1,-1,-1,-1],"loss_changes":[1.0825042E0,1.6690062E0,1.5950423E0,3.1887128E0,3.5023463E0,3.2629094E0,3.036697E0,0E0,0E0,0E0,0E0,0E0,0E0,0E0,0E0],"parents":[2147483647,0,0,1,1,2,2,3,3,4,4,5,5,6,6],"right_children":[2,4,6,8,10,12,14,-1,-1,-1,-1,-1,-1,-1,-1],"split_conditions":[1E0,2.622582E1,5.9192884E-1,8.3881605E-1,8.0698944E1,7.1095215E1,6.5616446E0,-3.104573E-2,5.3240217E-2,6.278048E-2,-1.3147686E-2,-4.4607434E-2,4.7878874E-3,-2.1883285E-2,2.8213011E-2],"split_indices":[3,0,1,1,0,0,0,0,0,0,0,0,0,0,0],"split_type":[0,0,0,0,0,0,0,0,0,0,0,0,0,0,0],"sum_hessian":[8.929623E1,2.6932789E1,6.2363438E1,1.2710174E1,1.4222614E1,3.2923008E1,2.9440432E1,9.772681E0,2.9374926E0,7.7462454E0,6.476369E0,1.5491426E1,1.7431581E1,1.2936698E1,1.6503735E1],"tree_param":{"num_deleted":"0","num_feature":"4","num_nodes":"15","size_leaf_vector":"1"}},{"base_weights":[2.3655698E-2,6.772194E-2,-5.317932E-4,-4.8883703E-2,2.4222834E-2,6.0279198E-2,-3.538139E-4],"categories":[],"categories_nodes":[],"categories_segments":[],"categories_sizes":[],"default_left":[0,0,0,0,0,0,0],"id":63,"left_children":[1,-1,3,-1,5,-1,-1],"loss_changes":[1.7975738E0,0E0,1.3555503E0,0E0,1.8044775E0,0E0,0E0],"parents":[2147483647,0,0,2,2,4,4],"right_children":[2,-1,4,-1,6,-1,-1],"split_conditions":[9.9548775E-1,6.772194E-2,1.321395E0,-4.8883703E-2,2.1343944E0,6.0279198E-2,-3.538139E-4],"split_indices":[0,0,0,0,0,0,0],"split_type":[0,0,0,0,0,0,0],"sum_hessian":[8.929353E1,1.5789388E0,8.77146E1,2.4950848E0,8.521951E1,2.2645245E0,8.295499E1],"tree_param":{"num_deleted":"0","num_feature":"4","num_nodes":"7","size_leaf_vector":"1"}},{"base_weights":[-3.6837652E-2,5.5366617E-2,-2.0222054E-1,-5.895166E-3,6.473191E-1,3.2353118E-1,-3.5774112E-1,3.4063396E-3,-8.952456E-2,7.361031E-2,2.2926493E-2,-4.842069E-2,6.683089E-2,-9.775227E-2,-1.0453792E-2],"categories":[],"categories_nodes":[],"categories_segments":[],"categories_sizes":[],"default_left":[0,0,0,0,0,0,0,0,0,0,0,0,0,0,0],"id":64,"left_children":[1,3,5,7,9,11,13,-1,-1,-1,-1,-1,-1,-1,-1],"loss_changes":[1.389516E0,2.1367965E0,2.778791E0,2.9772773E0,2.800672E-1,4.28988E0,4.8655205E0,0E0,0E0,0E0,0E0,0E0,0E0,0E0,0E0],"parents":[2147483647,0,0,1,1,2,2,3,3,4,4,5,5,6,6],"right_children":[2,4,6,8,10,12,14,-1,-1,-1,-1,-1,-1,-1,-1],"split_conditions":[1.5951833E2,1.4309941E2,2.3179437E-1,1.3837883E2,2.4134466E-1,1E0,3.9360607E-1,3.4063396E-3,-8.952456E-2,7.361031E-2,2.2926493E-2,-4.842069E-2,6.683089E-2,-9.775227E-2,-1.0453792E-2],"split_indices":[2,2,1,2,1,3,1,0,0,0,0,0,0,0,0],"split_type":[0,0,0,0,0,0,0,0,0,0,0,0,0,0,0],"sum_hessian":[8.93875E1,5.7818016E1,3.1569479E1,5.3292736E1,4.52528E0,6.960056E0,2.4609423E1,5.199048E1,1.302259E0,1.6937146E0,2.8315654E0,2.4080434E0,4.5520124E0,4.2091875E0,2.0400236E1],"tree_param":{"num_deleted":"0","num_feature":"4","num_nodes":"15","size_leaf_vector":"1"}},{"base_weights":[-4.0994924E-2,3.8956836E-2,-6.0757946E-2,-8.203421E-2,-3.333145E-2,6.0745567E-2,-5.186684E-3],"categories":[],"categories_nodes":[],"categories_segments":[],"categories_sizes":[],"default_left":[0,0,0,0,0,0,0],"id":65,"left_children":[1,-1,3,-1,5,-1,-1],"loss_changes":[9.802168E-1,0E0,2.3128815E0,0E0,2.2289197E0,0E0,0E0],"parents":[2147483647,0,0,2,2,4,4],"right_children":[2,-1,4,-1,6,-1,-1],"split_conditions":[1.0855343E0,3.8956836E-2,1.321395E0,-8.203421E-2,2.1343944E0,6.0745567E-2,-5.186684E-3],"split_indices":[0,0,0,0,0,0,0],"split_type":[0,0,0,0,0,0,0],"sum_hessian":[9.0108925E1,2.3983626E0,8.771056E1,1.4188064E0,8.6291756E1,2.415272E0,8.387649E1],"tree_param":{"num_deleted":"0","num_feature":"4","num_nodes":"7","size_leaf_vector":"1"}},{"base_weights":[3.3776592E-2,2.4560514E-1,-7.212361E-2,3.0957022E-1,-3.6632985E-1,-6.536022E-1,-2.0024044E-2,3.3768773E-2,-3.7264365E-3,-4.771204E-2,6.269819E-4,-7.604351E-2,1.5004593E-2,1.6394244E-3,-5.0101846E-2],"categories":[],"categories_nodes":[],"categories_segments":[],"categories_sizes":[],"default_left":[0,0,0,0,0,0,0,0,0,0,0,0,0,0,0],"id":66,"left_children":[1,3,5,7,9,11,13,-1,-1,-1,-1,-1,-1,-1,-1],"loss_changes":[2.0397394E0,1.2982539E0,1.8308741E0,1.1398244E0,2.9070717E-1,1.420553E0,1.4103324E0,0E0,0E0,0E0,0E0,0E0,0E0,0E0,0E0],"parents":[2147483647,0,0,1,1,2,2,3,3,4,4,5,5,6,6],"right_children":[2,4,6,8,10,12,14,-1,-1,-1,-1,-1,-1,-1,-1],"split_conditions":[5.620081E1,3E0,6.57474E1,8.246911E1,2.885693E0,2E0,9.544578E1,3.3768773E-2,-3.7264365E-3,-4.771204E-2,6.269819E-4,-7.604351E-2,1.5004593E-2,1.6394244E-3,-5.0101846E-2],"split_indices":[2,3,2,0,2,3,0,0,0,0,0,0,0,0,0],"split_type":[0,0,0,0,0,0,0,0,0,0,0,0,0,0,0],"sum_hessian":[8.913747E1,2.9270157E1,5.9867306E1,2.6947472E1,2.3226857E0,3.9735558E0,5.5893753E1,2.0336254E1,6.611218E0,1.0705045E0,1.2521812E0,2.8407052E0,1.1328505E0,5.329794E1,2.5958118E0],"tree_param":{"num_deleted":"0","num_feature":"4","num_nodes":"15","size_leaf_vector":"1"}},{"base_weights":[4.0426154E-2,5.8992617E-2,1.733067E-2,6.1295398E-2,-2.1087767E-3,-5.2567232E-2,2.1274856E-3],"categories":[],"categories_nodes":[],"categories_segments":[],"categories_sizes":[],"default_left":[0,0,0,0,0,0,0],"id":67,"left_children":[1,-1,3,-1,5,-1,-1],"loss_changes":[1.4456074E0,0E0,1.2931166E0,0E0,1.6618675E0,0E0,0E0],"parents":[2147483647,0,0,2,2,4,4],"right_children":[2,-1,4,-1,6,-1,-1],"split_conditions":[1.6480497E-1,5.8992617E-2,9.9548775E-1,6.1295398E-2,1.321395E0,-5.2567232E-2,2.1274856E-3],"split_indices":[2,0,0,0,0,0,0],"split_type":[0,0,0,0,0,0,0],"sum_hessian":[8.959923E1,1.8817776E0,8.771745E1,1.247461E0,8.646999E1,2.7110534E0,8.375894E1],"tree_param":{"num_deleted":"0","num_feature":"4","num_nodes":"7","size_leaf_vector":"1"}},{"base_weights":[-2.9655673E-2,4.0308195E-1,-4.8156638E-2,5.6537252E-2,-1.5688494E-2,-6.480231E-2,-2.7704163E-2,3.70473E-2,-4.701178E-3],"categories":[],"categories_nodes":[],"categories_segments":[],"categories_sizes":[],"default_left":[0,0,0,0,0,0,0,0,0],"id":68,"left_children":[1,3,5,-1,-1,-1,7,-1,-1],"loss_changes":[7.234584E-1,8.1397796E-1,1.3055809E0,0E0,0E0,0E0,1.3082647E0,0E0,0E0],"parents":[2147483647,0,0,1,1,2,2,6,6],"right_children":[2,4,6,-1,-1,-1,8,-1,-1],"split_conditions":[4.0174693E-1,3.4123656E-1,7.6470274E-1,5.6537252E-2,-1.5688494E-2,-6.480231E-2,2.0247812E0,3.70473E-2,-4.701178E-3],"split_indices":[2,1,2,0,0,0,2,0,0],"split_type":[0,0,0,0,0,0,0,0,0],"sum_hessian":[8.693927E1,2.712267E0,8.4227E1,1.6809857E0,1.0312812E0,1.1926943E0,8.303431E1,4.11428E0,7.892003E1],"tree_param":{"num_deleted":"0","num_feature":"4","num_nodes":"9","size_leaf_vector":"1"}},{"base_weights":[-1.2567576E-2,3.555677E-2,-2.9889353E-2,-8.039859E-2,2.9989597E-4,2.7467987E-2,-3.6433195E-3],"categories":[],"categories_nodes":[],"categories_segments":[],"categories_sizes":[],"default_left":[0,0,0,0,0,0,0],"id":69,"left_children":[1,-1,3,-1,5,-1,-1],"loss_changes":[7.142617E-1,0E0,2.53926E0,0E0,1.3469778E0,0E0,0E0],"parents":[2147483647,0,0,2,2,4,4],"right_children":[2,-1,4,-1,6,-1,-1],"split_conditions":[1.0855343E0,3.555677E-2,1.321395E0,-8.039859E-2,2.885693E0,2.7467987E-2,-3.6433195E-3],"split_indices":[0,0,0,0,2,0,0],"split_type":[0,0,0,0,0,0,0],"sum_hessian":[8.754608E1,2.2964437E0,8.524964E1,1.5904285E0,8.365921E1,9.096489E0,7.456272E1],"tree_param":{"num_deleted":"0","num_feature":"4","num_nodes":"7","size_leaf_vector":"1"}},{"base_weights":[-1.5278589E-2,-9.447875E-2,1.3695467E-1,4.988824E-3,-4.740486E-1,7.123739E-2,7.359245E-2,2.7067484E-2,-3.9602816E-3,-1.0064408E-1,-1.2460774E-2,1.1801551E-3,5.6049798E-2],"categories":[],"categories_nodes":[],"categories_segments":[],"categories_sizes":[],"default_left":[0,0,0,0,0,0,0,0,0,0,0,0,0],"id":70,"left_children":[1,3,5,7,9,-1,11,-1,-1,-1,-1,-1,-1],"loss_changes":[1.0856382E0,2.2342322E0,1.4076202E0,8.8558805E-1,2.8696392E0,0E0,1.0799727E0,0E0,0E0,0E0,0E0,0E0,0E0],"parents":[2147483647,0,0,1,1,2,2,3,3,4,4,6,6],"right_children":[2,4,6,8,10,-1,12,-1,-1,-1,-1,-1,-1],"split_conditions":[6.89982E-1,5.715652E-1,7.0150334E-1,1.0335346E1,5.9192884E-1,7.123739E-2,3.9151592E1,2.7067484E-2,-3.9602816E-3,-1.0064408E-1,-1.2460774E-2,1.1801551E-3,5.6049798E-2],"split_indices":[1,1,1,0,1,0,0,0,0,0,0,0,0],"split_type":[0,0,0,0,0,0,0,0,0,0,0,0,0],"sum_hessian":[8.796972E1,5.8114647E1,2.9855072E1,4.6829636E1,1.1285009E1,1.3032329E0,2.855184E1,5.8476796E0,4.0981956E1,2.4060166E0,8.878992E0,2.703811E1,1.5137298E0],"tree_param":{"num_deleted":"0","num_feature":"4","num_nodes":"13","size_leaf_vector":"1"}},{"base_weights":[1.7331E-2,-5.7816267E-2,1.8047185E-1,-7.1494806E-1,1.7103057E-2,4.8441008E-1,-1.7829141E-1,-3.5287935E-2,-8.2354516E-2,-8.749318E-3,2.072619E-2,1.1231888E-2,9.118486E-2,-4.7327723E-2,4.118663E-2],"categories":[],"categories_nodes":[],"categories_segments":[],"categories_sizes":[],"default_left":[0,0,0,0,0,0,0,0,0,0,0,0,0,0,0],"id":71,"left_children":[1,3,5,7,9,11,13,-1,-1,-1,-1,-1,-1,-1,-1],"loss_changes":[1.1069304E0,3.064171E0,3.1884613E0,9.430623E-2,1.7611505E0,3.3730469E0,4.251732E0,0E0,0E0,0E0,0E0,0E0,0E0,0E0,0E0],"parents":[2147483647,0,0,1,1,2,2,3,3,4,4,5,5,6,6],"right_children":[2,4,6,8,10,12,14,-1,-1,-1,-1,-1,-1,-1,-1],"split_conditions":[7E1,2.2447637E-1,2.2447637E-1,1.4869556E-1,2E0,1.7770068E-1,3.5049954E-1,-3.5287935E-2,-8.2354516E-2,-8.749318E-3,2.072619E-2,1.1231888E-2,9.118486E-2,-4.7327723E-2,4.118663E-2],"split_indices":[0,1,1,1,3,1,1,0,0,0,0,0,0,0,0],"split_type":[0,0,0,0,0,0,0,0,0,0,0,0,0,0,0],"sum_hessian":[8.843988E1,6.0991215E1,2.7448664E1,5.3676467E0,5.5623566E1,1.4670143E1,1.2778521E1,4.1534667E0,1.21418E0,3.6890514E1,1.8733053E1,1.0416745E1,4.253398E0,8.096884E0,4.6816363E0],"tree_param":{"num_deleted":"0","num_feature":"4","num_nodes":"15","size_leaf_vector":"1"}},{"base_weights":[4.431996E-2,-1.4637111E-1,1.0062319E-1,3.013973E-1,-3.364317E-1,5.9602045E-2,5.60359E-2,4.5204E-2,-2.5611874E-2,2.1034346E-3,-5.270146E-2,6.4113936E-3,-3.964606E-2],"categories":[],"categories_nodes":[],"categories_segments":[],"categories_sizes":[],"default_left":[0,0,0,0,0,0,0,0,0,0,0,0,0],"id":72,"left_children":[1,3,5,7,9,-1,11,-1,-1,-1,-1,-1,-1],"loss_changes":[9.689947E-1,1.8603103E0,1.946873E0,1.2765696E0,1.7689917E0,0E0,9.1488373E-1,0E0,0E0,0E0,0E0,0E0,0E0],"parents":[2147483647,0,0,1,1,2,2,3,3,4,4,6,6],"right_children":[2,4,6,8,10,-1,12,-1,-1,-1,-1,-1,-1],"split_conditions":[6.7124715E0,4.189878E1,8.303239E0,2E0,3.1252942E0,5.9602045E-2,7.130713E2,4.5204E-2,-2.5611874E-2,2.1034346E-3,-5.270146E-2,6.4113936E-3,-3.964606E-2],"split_indices":[0,2,0,3,0,0,2,0,0,0,0,0,0],"split_type":[0,0,0,0,0,0,0,0,0,0,0,0,0],"sum_hessian":[8.788039E1,1.966799E1,6.8212395E1,5.686122E0,1.3981868E1,3.3976817E0,6.481471E1,4.0563564E0,1.6297655E0,7.0109215E0,6.970947E0,6.2919712E1,1.8950038E0],"tree_param":{"num_deleted":"0","num_feature":"4","num_nodes":"13","size_leaf_vector":"1"}},{"base_weights":[3.652412E-2,-1.8201154E-1,9.97587E-2,1.9749846E-2,-6.735368E-1,5.0545615E-1,4.3170717E-2,-2.1932576E-2,7.489929E-2,3.443861E-2,-8.197428E-2,6.835835E-2,-9.915454E-3,-5.4180506E-3,2.9805815E-2],"categories":[],"categories_nodes":[],"categories_segments":[],"categories_sizes":[],"default_left":[0,0,0,0,0,0,0,0,0,0,0,0,0,0,0],"id":73,"left_children":[1,3,5,7,9,11,13,-1,-1,-1,-1,-1,-1,-1,-1],"loss_changes":[1.2218146E0,1.9869287E0,1.5438938E0,4.3189692E0,2.697404E0,1.9193137E0,2.2515333E0,0E0,0E0,0E0,0E0,0E0,0E0,0E0,0E0],"parents":[2147483647,0,0,1,1,2,2,3,3,4,4,5,5,6,6],"right_children":[2,4,6,8,10,12,14,-1,-1,-1,-1,-1,-1,-1,-1],"split_conditions":[6.7124715E0,2.2115645E2,1.0048585E1,1.3001898E2,1E0,2.795979E2,2.2429608E2,-2.1932576E-2,7.489929E-2,3.443861E-2,-8.197428E-2,6.835835E-2,-9.915454E-3,-5.4180506E-3,2.9805815E-2],"split_indices":[0,2,0,2,3,2,2,0,0,0,0,0,0,0,0],"split_type":[0,0,0,0,0,0,0,0,0,0,0,0,0,0,0],"sum_hessian":[8.6101555E1,1.8901281E1,6.720027E1,1.4081091E1,4.8201904E0,7.2549543E0,5.994532E1,1.1192623E1,2.8884687E0,1.1086259E0,3.7115643E0,4.436921E0,2.8180335E0,4.544142E1,1.4503897E1],"tree_param":{"num_deleted":"0","num_feature":"4","num_nodes":"15","size_leaf_vector":"1"}},{"base_weights":[-2.0298244E-2,-3.7213925E-1,1.8445613E-2,1.8457112E-1,-5.9214216E-1,2.9987806E-1,-6.334155E-2,-1.1697311E-3,2.4037156E-2,-7.2704725E-2,1.3959904E-2,1.1214231E-2,6.567193E-2,-5.423538E-2,-4.16602E-4],"categories":[],"categories_nodes":[],"categories_segments":[],"categories_sizes":[],"default_left":[0,0,0,0,0,0,0,0,0,0,0,0,0,0,0],"id":74,"left_children":[1,3,5,7,9,11,13,-1,-1,-1,-1,-1,-1,-1,-1],"loss_changes":[1.1834226E0,1.1636751E0,1.8305194E0,7.8283824E-2,1.7142487E0,1.3739951E0,2.2047474E0,0E0,0E0,0E0,0E0,0E0,0E0,0E0,0E0],"parents":[2147483647,0,0,1,1,2,2,3,3,4,4,5,5,6,6],"right_children":[2,4,6,8,10,12,14,-1,-1,-1,-1,-1,-1,-1,-1],"split_conditions":[9.25929E-2,2.6249073E0,2.8309998E-1,1.3511578E0,2.2429608E2,3.251685E2,3.3498108E-1,-1.1697311E-3,2.4037156E-2,-7.2704725E-2,1.3959904E-2,1.1214231E-2,6.567193E-2,-5.423538E-2,-4.16602E-4],"split_indices":[1,2,1,2,2,2,1,0,0,0,0,0,0,0,0],"split_type":[0,0,0,0,0,0,0,0,0,0,0,0,0,0,0],"sum_hessian":[8.53106E1,7.60876E0,7.770184E1,2.200788E0,5.407972E0,1.68959E1,6.0805943E1,1.130892E0,1.0698959E0,3.6959064E0,1.7120656E0,1.390337E1,2.9925308E0,4.333188E0,5.6472755E1],"tree_param":{"num_deleted":"0","num_feature":"4","num_nodes":"15","size_leaf_vector":"1"}},{"base_weights":[-2.0896986E-2,-6.198664E-1,2.7735673E-2,-8.5434437E-1,1.9221134E-2,2.9965645E-1,-8.302321E-2,-1.9354783E-2,-7.960229E-2,8.768344E-3,6.220573E-2,-1.3431925E-2,1.5171843E-2],"categories":[],"categories_nodes":[],"categories_segments":[],"categories_sizes":[],"default_left":[0,0,0,0,0,0,0,0,0,0,0,0,0],"id":75,"left_children":[1,3,5,7,-1,9,11,-1,-1,-1,-1,-1,-1],"loss_changes":[2.6036768E0,1.5587234E0,2.5271072E0,2.3250914E-1,0E0,2.1185822E0,1.4162341E0,0E0,0E0,0E0,0E0,0E0,0E0],"parents":[2147483647,0,0,1,1,2,2,3,3,5,5,6,6],"right_children":[2,4,6,8,-1,10,12,-1,-1,-1,-1,-1,-1],"split_conditions":[8.341886E-2,2.2429608E2,4.766051E1,2.1893423E0,1.9221134E-2,3.0100666E1,7.8187495E-1,-1.9354783E-2,-7.960229E-2,8.768344E-3,6.220573E-2,-1.3431925E-2,1.5171843E-2],"split_indices":[1,2,2,2,0,2,1,0,0,0,0,0,0],"split_type":[0,0,0,0,0,0,0,0,0,0,0,0,0],"sum_hessian":[8.779269E1,5.71085E0,8.208184E1,4.492805E0,1.2180448E0,2.326331E1,5.8818527E1,1.3473575E0,3.1454475E0,1.7523924E1,5.7393856E0,4.5149E1,1.366953E1],"tree_param":{"num_deleted":"0","num_feature":"4","num_nodes":"13","size_leaf_vector":"1"}},{"base_weights":[5.754507E-2,-2.0676587E-2,1.909544E-1,7.7355765E-2,-4.9904227E-1,7.0446715E-2,1.338426E-1,-2.7873563E-3,2.934233E-2,-5.9923667E-2,4.489882E-2,5.012577E-3,4.17633E-2],"categories":[],"categories_nodes":[],"categories_segments":[],"categories_sizes":[],"default_left":[0,0,0,0,0,0,0,0,0,0,0,0,0],"id":76,"left_children":[1,3,5,7,9,-1,11,-1,-1,-1,-1,-1,-1],"loss_changes":[9.1709745E-1,2.6677294E0,1.1598374E0,1.5517982E0,2.9834845E0,0E0,8.277751E-1,0E0,0E0,0E0,0E0,0E0,0E0],"parents":[2147483647,0,0,1,1,2,2,3,3,4,4,6,6],"right_children":[2,4,6,8,10,-1,12,-1,-1,-1,-1,-1,-1],"split_conditions":[6.543109E-1,5.715652E-1,6.789317E-1,3.8442066E-1,3E0,7.0446715E-2,2.622582E1,-2.7873563E-3,2.934233E-2,-5.9923667E-2,4.489882E-2,5.012577E-3,4.17633E-2],"split_indices":[1,1,1,1,3,0,0,0,0,0,0,0,0],"split_type":[0,0,0,0,0,0,0,0,0,0,0,0,0],"sum_hessian":[8.650411E1,5.5063713E1,3.1440395E1,4.639433E1,8.669383E0,1.3018503E0,3.0138546E1,3.4067394E1,1.2326935E1,7.252783E0,1.4166006E0,2.6449762E1,3.688783E0],"tree_param":{"num_deleted":"0","num_feature":"4","num_nodes":"13","size_leaf_vector":"1"}},{"base_weights":[2.798962E-2,-3.6628076E-3,4.769061E-1,2.0729592E-2,-6.551914E-2,6.761109E-2,-4.1002147E-2,-1.940127E-3,3.0703144E-2,-8.502266E-3,3.5116342E-3],"categories":[],"categories_nodes":[],"categories_segments":[],"categories_sizes":[],"default_left":[0,0,0,0,0,0,0,0,0,0,0],"id":77,"left_children":[1,3,5,7,-1,-1,9,-1,-1,-1,-1],"loss_changes":[1.253819E0,1.673729E0,1.142942E0,1.3461592E0,0E0,0E0,2.3333326E-2,0E0,0E0,0E0,0E0],"parents":[2147483647,0,0,1,1,2,2,3,3,6,6],"right_children":[2,4,6,8,-1,-1,10,-1,-1,-1,-1],"split_conditions":[9.434936E1,9.1116806E1,9.5929245E1,4.467196E2,-6.551914E-2,6.761109E-2,9.745057E1,-1.940127E-3,3.0703144E-2,-8.502266E-3,3.5116342E-3],"split_indices":[0,0,2,2,0,0,0,0,0,0,0],"split_type":[0,0,0,0,0,0,0,0,0,0,0],"sum_hessian":[8.711641E1,8.2305046E1,4.8113647E0,8.086049E1,1.4445559E0,2.4427438E0,2.3686209E0,7.277701E1,8.083485E0,1.1966764E0,1.1719445E0],"tree_param":{"num_deleted":"0","num_feature":"4","num_nodes":"11","size_leaf_vector":"1"}},{"base_weights":[-1.3644944E-2,5.753318E-2,-1.4627472E-1,-5.661972E-2,1.0107853E-1,-8.0492936E-2,-3.9673233E-3,3.3837836E-3,4.213056E-2,5.078771E-3,-6.667125E-2],"categories":[],"categories_nodes":[],"categories_segments":[],"categories_sizes":[],"default_left":[0,0,0,0,0,0,0,0,0,0,0],"id":78,"left_children":[1,3,5,-1,7,-1,9,-1,-1,-1,-1],"loss_changes":[8.3721626E-1,1.9993567E0,3.7824996E0,0E0,1.3687999E0,0E0,1.594424E0,0E0,0E0,0E0,0E0],"parents":[2147483647,0,0,1,1,2,2,4,4,6,6],"right_children":[2,4,6,-1,8,-1,10,-1,-1,-1,-1],"split_conditions":[1.724703E2,5.613133E-2,1.9603053E2,-5.661972E-2,1.4309941E2,-8.0492936E-2,9.544578E1,3.3837836E-3,4.213056E-2,5.078771E-3,-6.667125E-2],"split_indices":[2,1,2,0,2,0,0,0,0,0,0],"split_type":[0,0,0,0,0,0,0,0,0,0,0],"sum_hessian":[8.6793526E1,5.6850117E1,2.994341E1,2.239492E0,5.4610622E1,3.3898761E0,2.6553534E1,4.8948776E1,5.6618476E0,2.5410511E1,1.1430233E0],"tree_param":{"num_deleted":"0","num_feature":"4","num_nodes":"11","size_leaf_vector":"1"}},{"base_weights":[7.013916E-2,1.36421155E-2,2.9374495E-1,1.522295E-1,-1.3463207E-1,5.383557E-1,-2.9651003E-2,3.8397515E-3,6.9405705E-2,-5.236861E-2,-4.9005006E-4,1.7134754E-2,6.581703E-2,5.706726E-2,-2.3746451E-2],"categories":[],"categories_nodes":[],"categories_segments":[],"categories_sizes":[],"default_left":[0,0,0,0,0,0,0,0,0,0,0,0,0,0,0],"id":79,"left_children":[1,3,5,7,9,11,13,-1,-1,-1,-1,-1,-1,-1,-1],"loss_changes":[1.1195371E0,1.5009809E0,1.4311669E0,2.770031E0,2.3572595E0,7.675202E-1,1.9292816E0,0E0,0E0,0E0,0E0,0E0,0E0,0E0,0E0],"parents":[2147483647,0,0,1,1,2,2,3,3,4,4,5,5,6,6],"right_children":[2,4,6,8,10,12,14,-1,-1,-1,-1,-1,-1,-1,-1],"split_conditions":[7.864821E-1,4.3028283E-1,8.7347895E-1,3.8442066E-1,1.753891E1,1.312969E2,1E0,3.8397515E-3,6.9405705E-2,-5.236861E-2,-4.9005006E-4,1.7134754E-2,6.581703E-2,5.706726E-2,-2.3746451E-2],"split_indices":[1,1,1,1,2,2,3,0,0,0,0,0,0,0,0],"split_type":[0,0,0,0,0,0,0,0,0,0,0,0,0,0,0],"sum_hessian":[8.79368E1,7.104686E1,1.6889944E1,3.67092E1,3.4337654E1,9.237884E0,7.65206E0,3.2971947E1,3.737253E0,5.9932404E0,2.8344416E1,5.1359963E0,4.1018877E0,1.5822203E0,6.06984E0],"tree_param":{"num_deleted":"0","num_feature":"4","num_nodes":"15","size_leaf_vector":"1"}},{"base_weights":[3.628079E-2,3.6397773E-1,-1.1554426E-2,5.8680944E-2,6.2545276E-1,-4.5090294E-1,3.87068E-2,4.2634178E-2,-4.5316003E-2,6.465618E-2,3.0551662E-3,-4.60834E-2,1.2992962E-2,4.629898E-2,-3.2804578E-3],"categories":[],"categories_nodes":[],"categories_segments":[],"categories_sizes":[],"default_left":[0,0,0,0,0,0,0,0,0,0,0,0,0,0,0],"id":80,"left_children":[1,3,5,7,9,11,13,-1,-1,-1,-1,-1,-1,-1,-1],"loss_changes":[1.3615959E0,8.4627056E-1,1.707455E0,2.1418736E0,5.97461E-1,7.0260835E-1,3.0196786E0,0E0,0E0,0E0,0E0,0E0,0E0,0E0,0E0],"parents":[2147483647,0,0,1,1,2,2,3,3,4,4,5,5,6,6],"right_children":[2,4,6,8,10,12,14,-1,-1,-1,-1,-1,-1,-1,-1],"split_conditions":[2.885693E0,1.3511578E0,1.753891E1,6.2251914E-1,7.650136E1,7.864821E-1,4.5597755E1,4.2634178E-2,-4.5316003E-2,6.465618E-2,3.0551662E-3,-4.60834E-2,1.2992962E-2,4.629898E-2,-3.2804578E-3],"split_indices":[2,2,2,2,0,1,2,0,0,0,0,0,0,0,0],"split_type":[0,0,0,0,0,0,0,0,0,0,0,0,0,0,0],"sum_hessian":[8.559336E1,1.0061014E1,7.553235E1,5.206434E0,4.854581E0,6.935538E0,6.859681E1,3.0443661E0,2.1620677E0,3.4154987E0,1.439082E0,5.8107057E0,1.1248322E0,8.01784E0,6.057897E1],"tree_param":{"num_deleted":"0","num_feature":"4","num_nodes":"15","size_leaf_vector":"1"}},{"base_weights":[-1.6803106E-2,-9.85056E-4,-4.1476962E-1,-3.9852694E-2,5.04645E-1,-5.9095383E-2,8.279526E-3,-1.2941245E-3,-7.0460685E-2,7.253038E-2,1.4357028E-2],"categories":[],"categories_nodes":[],"categories_segments":[],"categories_sizes":[],"default_left":[0,0,0,0,0,0,0,0,0,0,0],"id":81,"left_children":[1,3,5,7,9,-1,-1,-1,-1,-1,-1],"loss_changes":[5.52615E-1,1.7003053E0,6.3983744E-1,1.5848463E0,6.446115E-1,0E0,0E0,0E0,0E0,0E0,0E0],"parents":[2147483647,0,0,1,1,2,2,3,3,4,4],"right_children":[2,4,6,8,10,-1,-1,-1,-1,-1,-1],"split_conditions":[7.130713E2,4.467196E2,5.562128E-1,4.1622864E2,1E0,-5.9095383E-2,8.279526E-3,-1.2941245E-3,-7.0460685E-2,7.253038E-2,1.4357028E-2],"split_indices":[2,2,1,2,3,0,0,0,0,0,0],"split_type":[0,0,0,0,0,0,0,0,0,0,0],"sum_hessian":[8.685048E1,8.449454E1,2.355945E0,7.931853E1,5.1760106E0,1.188065E0,1.16788E0,7.813776E1,1.1807716E0,1.5150558E0,3.6609547E0],"tree_param":{"num_deleted":"0","num_feature":"4","num_nodes":"11","size_leaf_vector":"1"}},{"base_weights":[1.7984886E-2,5.2176106E-1,-6.212597E-3,6.549457E-2,-1.3314367E-2,-5.441732E-2,2.0896168E-2,5.505331E-2,-7.2545867E-4],"categories":[],"categories_nodes":[],"categories_segments":[],"categories_sizes":[],"default_left":[0,0,0,0,0,0,0,0,0],"id":82,"left_children":[1,3,5,-1,-1,-1,7,-1,-1],"loss_changes":[1.0783305E0,9.6458936E-1,1.5698376E0,0E0,0E0,0E0,1.6621325E0,0E0,0E0],"parents":[2147483647,0,0,1,1,2,2,6,6],"right_children":[2,4,6,-1,-1,-1,8,-1,-1],"split_conditions":[6.2251914E-1,1E0,1.3511578E0,6.549457E-2,-1.3314367E-2,-5.441732E-2,2.0247812E0,5.505331E-2,-7.2545867E-4],"split_indices":[2,3,2,0,0,0,2,0,0],"split_type":[0,0,0,0,0,0,0,0,0],"sum_hessian":[8.7193504E1,3.0537503E0,8.4139755E1,2.0008602E0,1.05289E0,2.3217626E0,8.181799E1,2.572198E0,7.92458E1],"tree_param":{"num_deleted":"0","num_feature":"4","num_nodes":"9","size_leaf_vector":"1"}},{"base_weights":[-2.3983976E-2,6.0564965E-2,-4.4989366E-2,-6.65459E-2,-1.7816944E-2,5.634727E-2,-3.591744E-3],"categories":[],"categories_nodes":[],"categories_segments":[],"categories_sizes":[],"default_left":[0,0,0,0,0,0,0],"id":83,"left_children":[1,-1,3,-1,5,-1,-1],"loss_changes":[1.494283E0,0E0,1.8584567E0,0E0,1.7078501E0,0E0,0E0],"parents":[2147483647,0,0,2,2,4,4],"right_children":[2,-1,4,-1,6,-1,-1],"split_conditions":[9.9548775E-1,6.0564965E-2,1.321395E0,-6.65459E-2,2.1343944E0,5.634727E-2,-3.591744E-3],"split_indices":[0,0,0,0,0,0,0],"split_type":[0,0,0,0,0,0,0],"sum_hessian":[8.8004486E1,1.3870828E0,8.66174E1,1.9028746E0,8.471453E1,2.1579216E0,8.25566E1],"tree_param":{"num_deleted":"0","num_feature":"4","num_nodes":"7","size_leaf_vector":"1"}},{"base_weights":[-4.9300414E-2,1.8191785E-2,-1.7737539E-1,-5.5114146E-2,7.444719E-1,-3.4191978E-1,4.0926254E-1,-4.785615E-2,5.6383683E-4,9.2243545E-2,2.3961887E-2,-3.9694898E-2,3.9897487E-2,5.2303478E-2,-2.0937758E-2],"categories":[],"categories_nodes":[],"categories_segments":[],"categories_sizes":[],"default_left":[0,0,0,0,0,0,0,0,0,0,0,0,0,0,0],"id":84,"left_children":[1,3,5,7,9,11,13,-1,-1,-1,-1,-1,-1,-1,-1],"loss_changes":[7.567991E-1,3.128935E0,3.0530572E0,1.814154E0,6.338253E-1,3.3745167E0,1.3304453E0,0E0,0E0,0E0,0E0,0E0,0E0,0E0,0E0],"parents":[2147483647,0,0,1,1,2,2,3,3,4,4,5,5,6,6],"right_children":[2,4,6,8,10,12,14,-1,-1,-1,-1,-1,-1,-1,-1],"split_conditions":[1.6120609E2,1.4309941E2,7.8187495E-1,8.507865E-2,2.4134466E-1,3E0,3E0,-4.785615E-2,5.6383683E-4,9.2243545E-2,2.3961887E-2,-3.9694898E-2,3.9897487E-2,5.2303478E-2,-2.0937758E-2],"split_indices":[2,2,1,1,1,3,3,0,0,0,0,0,0,0,0],"split_type":[0,0,0,0,0,0,0,0,0,0,0,0,0,0,0],"sum_hessian":[8.617805E1,5.699901E1,2.9179043E1,5.261274E1,4.386269E0,2.3113232E1,6.06581E0,4.5179343E0,4.8094807E1,1.4569849E0,2.929284E0,1.9875591E1,3.2376406E0,4.4644313E0,1.6013792E0],"tree_param":{"num_deleted":"0","num_feature":"4","num_nodes":"15","size_leaf_vector":"1"}},{"base_weights":[2.5207262E-2,-2.5149617E-2,3.4777597E-1,4.677763E-2,-5.183999E-2,5.2651054E-1,-1.8454316E-1,-6.6728964E-2,-1.3941178E-3,5.246635E-2,-7.970354E-3,-3.9160676E-2,1.8050704E-2],"categories":[],"categories_nodes":[],"categories_segments":[],"categories_sizes":[],"default_left":[0,0,0,0,0,0,0,0,0,0,0,0,0],"id":85,"left_children":[1,3,5,-1,7,9,11,-1,-1,-1,-1,-1,-1],"loss_changes":[1.3773146E0,1.2317448E0,1.1860172E0,0E0,1.9138651E0,7.80087E-1,5.6292015E-1,0E0,0E0,0E0,0E0,0E0,0E0],"parents":[2147483647,0,0,1,1,2,2,4,4,5,5,6,6],"right_children":[2,4,6,-1,8,10,12,-1,-1,-1,-1,-1,-1],"split_conditions":[8.417625E-1,6.2251914E-1,9.250169E-1,4.677763E-2,1.3511578E0,3E0,1.02548E2,-6.6728964E-2,-1.3941178E-3,5.246635E-2,-7.970354E-3,-3.9160676E-2,1.8050704E-2],"split_indices":[1,2,1,0,2,3,2,0,0,0,0,0,0],"split_type":[0,0,0,0,0,0,0,0,0,0,0,0,0],"sum_hessian":[8.3253E1,7.2808716E1,1.0444288E1,2.176167E0,7.0632545E1,7.827121E0,2.6171675E0,1.9971157E0,6.863543E1,6.44798E0,1.3791406E0,1.3901714E0,1.2269961E0],"tree_param":{"num_deleted":"0","num_feature":"4","num_nodes":"13","size_leaf_vector":"1"}},{"base_weights":[2.3080798E-2,1.4211723E-1,-5.9289195E-2,2.1660743E-2,8.0038555E-2,-3.6330238E-1,4.2598844E-2,1.1872945E-2,-2.9389322E-2,-7.670857E-3,-1.0293186E-1,8.5068926E-2,-1.7349306E-3],"categories":[],"categories_nodes":[],"categories_segments":[],"categories_sizes":[],"default_left":[0,0,0,0,0,0,0,0,0,0,0,0,0],"id":86,"left_children":[1,3,5,7,-1,9,11,-1,-1,-1,-1,-1,-1],"loss_changes":[8.722817E-1,3.7343128E0,1.6502591E0,1.6757258E0,0E0,3.1736906E0,2.6756997E0,0E0,0E0,0E0,0E0,0E0,0E0],"parents":[2147483647,0,0,1,1,2,2,3,3,5,5,6,6],"right_children":[2,4,6,8,-1,10,12,-1,-1,-1,-1,-1,-1],"split_conditions":[4.3028283E-1,3.8442066E-1,5.9192884E-1,2.8309998E-1,8.0038555E-2,5.754937E-1,5.952548E-1,1.1872945E-2,-2.9389322E-2,-7.670857E-3,-1.0293186E-1,8.5068926E-2,-1.7349306E-3],"split_indices":[1,1,1,1,0,1,1,0,0,0,0,0,0],"split_type":[0,0,0,0,0,0,0,0,0,0,0,0,0],"sum_hessian":[8.710331E1,3.532634E1,5.177697E1,3.1878046E1,3.448292E0,1.2352857E1,3.9424114E1,2.4510616E1,7.367431E0,1.043465E1,1.9182062E0,1.4149803E0,3.8009132E1],"tree_param":{"num_deleted":"0","num_feature":"4","num_nodes":"13","size_leaf_vector":"1"}},{"base_weights":[-3.2578573E-2,-9.298392E-2,1.0175557E-1,-1.26638E-1,3.357402E-1,4.7286123E-1,-1.038004E-1,-4.8942E-3,-3.6696862E-2,5.6892294E-2,-3.5804946E-2,8.189845E-2,1.0478151E-2,-3.7371326E-2,7.7298665E-3],"categories":[],"categories_nodes":[],"categories_segments":[],"categories_sizes":[],"default_left":[0,0,0,0,0,0,0,0,0,0,0,0,0,0,0],"id":87,"left_children":[1,3,5,7,9,11,13,-1,-1,-1,-1,-1,-1,-1,-1],"loss_changes":[7.298941E-1,9.337053E-1,2.1862864E0,1.2326562E0,1.7208289E0,1.7806695E0,1.4178319E0,0E0,0E0,0E0,0E0,0E0,0E0,0E0,0E0],"parents":[2147483647,0,0,1,1,2,2,3,3,4,4,5,5,6,6],"right_children":[2,4,6,8,10,12,14,-1,-1,-1,-1,-1,-1,-1,-1],"split_conditions":[7E1,5.165123E2,8.110752E1,2.8237402E2,1.7029612E1,8.091758E1,8.5873085E1,-4.8942E-3,-3.6696862E-2,5.6892294E-2,-3.5804946E-2,8.189845E-2,1.0478151E-2,-3.7371326E-2,7.7298665E-3],"split_indices":[0,2,0,2,0,2,0,0,0,0,0,0,0,0,0],"split_type":[0,0,0,0,0,0,0,0,0,0,0,0,0,0,0],"sum_hessian":[8.7783356E1,6.076658E1,2.7016777E1,5.6997032E1,3.7695487E0,9.1668215E0,1.7849955E1,4.8600742E1,8.396287E0,2.6105144E0,1.1590343E0,2.7467222E0,6.4200993E0,5.8727255E0,1.1977229E1],"tree_param":{"num_deleted":"0","num_feature":"4","num_nodes":"15","size_leaf_vector":"1"}},{"base_weights":[7.6713827E-3,3.2486176E-1,-3.5488207E-2,-1.5200038E-1,7.502144E-1,-3.5874453E-1,2.9205417E-2,4.3314744E-2,-5.5174425E-2,8.343656E-2,-1.2478791E-2,-5.177178E-2,3.7400716E-3,6.825321E-2,-8.5820176E-4],"categories":[],"categories_nodes":[],"categories_segments":[],"categories_sizes":[],"default_left":[0,0,0,0,0,0,0,0,0,0,0,0,0,0,0],"id":88,"left_children":[1,3,5,7,9,11,13,-1,-1,-1,-1,-1,-1,-1,-1],"loss_changes":[1.1685952E0,2.1873245E0,1.5851706E0,2.4801946E0,1.6405935E0,1.5075064E0,2.1039894E0,0E0,0E0,0E0,0E0,0E0,0E0,0E0,0E0],"parents":[2147483647,0,0,1,1,2,2,3,3,4,4,5,5,6,6],"right_children":[2,4,6,8,10,12,14,-1,-1,-1,-1,-1,-1,-1,-1],"split_conditions":[3.837662E0,1.3511578E0,1.7770068E-1,4.0174693E-1,2E0,1.4309941E2,2.0054917E-1,4.3314744E-2,-5.5174425E-2,8.343656E-2,-1.2478791E-2,-5.177178E-2,3.7400716E-3,6.825321E-2,-8.5820176E-4],"split_indices":[2,2,1,2,3,2,1,0,0,0,0,0,0,0,0],"split_type":[0,0,0,0,0,0,0,0,0,0,0,0,0,0,0],"sum_hessian":[8.3520294E1,9.221589E0,7.4298706E1,4.6505327E0,4.571056E0,1.1631916E1,6.2666786E1,2.0280354E0,2.6224976E0,3.340887E0,1.2301689E0,6.4491267E0,5.18279E0,1.9553778E0,6.0711407E1],"tree_param":{"num_deleted":"0","num_feature":"4","num_nodes":"15","size_leaf_vector":"1"}},{"base_weights":[2.7469942E-2,-1.4715691E-1,6.6114716E-2,6.462633E-2,-5.6250864E-1,7.248584E-1,1.7649211E-2,5.8408067E-2,-1.411384E-2,-7.563542E-2,3.9604545E-2,1.710946E-2,8.4101446E-2,-4.1665353E-2,3.3377826E-3],"categories":[],"categories_nodes":[],"categories_segments":[],"categories_sizes":[],"default_left":[0,0,0,0,0,0,0,0,0,0,0,0,0,0,0],"id":89,"left_children":[1,3,5,7,9,11,13,-1,-1,-1,-1,-1,-1,-1,-1],"loss_changes":[6.0881996E-1,1.478621E0,2.3299303E0,2.0146186E0,2.752115E0,6.0975385E-1,9.210086E-1,0E0,0E0,0E0,0E0,0E0,0E0,0E0,0E0],"parents":[2147483647,0,0,1,1,2,2,3,3,4,4,5,5,6,6],"right_children":[2,4,6,8,10,12,14,-1,-1,-1,-1,-1,-1,-1,-1],"split_conditions":[1.7770068E-1,2E0,2.2121261E-1,2.6249073E0,2.2429608E2,6.2623013E1,7.6470274E-1,5.8408067E-2,-1.411384E-2,-7.563542E-2,3.9604545E-2,1.710946E-2,8.4101446E-2,-4.1665353E-2,3.3377826E-3],"split_indices":[1,3,1,2,2,2,2,0,0,0,0,0,0,0,0],"split_type":[0,0,0,0,0,0,0,0,0,0,0,0,0,0,0],"sum_hessian":[8.7775024E1,1.5396019E1,7.2379005E1,1.075604E1,4.6399794E0,4.0037546E0,6.837525E1,2.3206058E0,8.435433E0,3.48435E0,1.1556293E0,2.2058067E0,1.7979481E0,2.042984E0,6.633227E1],"tree_param":{"num_deleted":"0","num_feature":"4","num_nodes":"15","size_leaf_vector":"1"}},{"base_weights":[-5.9173223E-2,-1.6097847E-1,5.434906E-2,-2.4286984E-1,5.738155E-1,2.2504462E-1,-1.8127505E-1,-1.0895252E-2,-6.730194E-2,6.481213E-2,1.7621895E-2,5.6553084E-2,-1.8100421E-3,-1.3868095E-3,-4.1134153E-2],"categories":[],"categories_nodes":[],"categories_segments":[],"categories_sizes":[],"default_left":[0,0,0,0,0,0,0,0,0,0,0,0,0,0,0],"id":90,"left_children":[1,3,5,7,9,11,13,-1,-1,-1,-1,-1,-1,-1,-1],"loss_changes":[9.922113E-1,2.8541026E0,1.6890141E0,2.5215323E0,2.2438169E-1,2.9053779E0,9.6088254E-1,0E0,0E0,0E0,0E0,0E0,0E0,0E0,0E0],"parents":[2147483647,0,0,1,1,2,2,3,3,4,4,5,5,6,6],"right_children":[2,4,6,8,10,12,14,-1,-1,-1,-1,-1,-1,-1,-1],"split_conditions":[2.622582E1,8.989393E-1,8.110752E1,1.9398565E1,4.518966E0,1E0,2E0,-1.0895252E-2,-6.730194E-2,6.481213E-2,1.7621895E-2,5.6553084E-2,-1.8100421E-3,-1.3868095E-3,-4.1134153E-2],"split_indices":[0,1,0,0,0,3,3,0,0,0,0,0,0,0,0],"split_type":[0,0,0,0,0,0,0,0,0,0,0,0,0,0,0],"sum_hessian":[8.409547E1,4.411537E1,3.99801E1,4.029414E1,3.8212318E0,2.3210432E1,1.6769667E1,3.523949E1,5.0546503E0,1.5161705E0,2.3050613E0,7.250177E0,1.5960255E1,1.1941206E1,4.828461E0],"tree_param":{"num_deleted":"0","num_feature":"4","num_nodes":"15","size_leaf_vector":"1"}},{"base_weights":[-8.352283E-3,1.0448083E-1,-5.5071346E-2,-5.1646954E-1,2.3657498E-1,-4.6450302E-1,1.2470263E-2,-9.742754E-3,-6.0953487E-2,1.483291E-3,4.319699E-2,1.0488639E-2,-5.655521E-2,5.680972E-2,-3.3103004E-3],"categories":[],"categories_nodes":[],"categories_segments":[],"categories_sizes":[],"default_left":[0,0,0,0,0,0,0,