{"learner":{"attributes":{"scikit_learn":"{\"_estimator_type\": \"classifier\"}"},"feature_names":[],"feature_types":[],"gradient_booster":{"model":{"cats":{"enc":[],"feature_segments":[],"sorted_idx":[]},"gbtree_model_param":{"num_parallel_tree":"1","num_trees":"150"},"iteration_indptr":[0,1,2,3,4,5,6,7,8,9,10,11,12,13,14,15,16,17,18,19,20,21,22,23,24,25,26,27,28,29,30,31,32,33,34,35,36,37,38,39,40,41,42,43,44,45,46,47,48,49,50,51,52,53,54,55,56,57,58,59,60,61,62,63,64,65,66,67,68,69,70,71,72,73,74,75,76,77,78,79,80,81,82,83,84,85,86,87,88,89,90,91,92,93,94,95,96,97,98,99,100,101,102,103,104,105,106,107,108,109,110,111,112,113,114,115,116,117,118,119,120,121,122,123,124,125,126,127,128,129,130,131,132,133,134,135,136,137,138,139,140,141,142,143,144,145,146,147,148,149,150],"tree_info":[0,0,0,0,0,0,0,0,0,0,0,0,0,0,0,0,0,0,0,0,0,0,0,0,0,0,0,0,0,0,0,0,0,0,0,0,0,0,0,0,0,0,0,0,0,0,0,0,0,0,0,0,0,0,0,0,0,0,0,0,0,0,0,0,0,0,0,0,0,0,0,0,0,0,0,0,0,0,0,0,0,0,0,0,0,0,0,0,0,0,0,0,0,0,0,0,0,0,0,0,0,0,0,0,0,0,0,0,0,0,0,0,0,0,0,0,0,0,0,0,0,0,0,0,0,0,0,0,0,0,0,0,0,0,0,0,0,0,0,0,0,0,0,0,0,0,0,0,0,0],"trees":[{"base_weights":[-2.6020821E-2,-5.53811E-1,2.598311E-1,4.912288E-1,-7.2955185E-1,5.1307404E-1,1.138674E-1,-1.3505595E-2,5.9508756E-2,-1.07465945E-1,-2.8006112E-2,2.2836244E-2,7.89656E-2,-4.5134723E-2,1.77738E-2],"categories":[],"categories_nodes":[],"categories_segments":[],"categories_sizes":[],"default_left":[0,0,0,0,0,0,0,0,0,0,0,0,0,0,0],"id":0,"left_children":[1,3,5,7,9,11,13,-1,-1,-1,-1,-1,-1,-1,-1],"loss_changes":[1.3015038E1,5.9216547E0,2.0123568E0,9.5237637E-1,5.6630993E0,1.8974295E0,2.8295019E0,0E0,0E0,0E0,0E0,0E0,0E0,0E0,0E0],"parents":[2147483647,0,0,1,1,2,2,3,3,4,4,5,5,6,6],"right_children":[2,4,6,8,10,12,14,-1,-1,-1,-1,-1,-1,-1,-1],"split_conditions":[6.6787606E-1,5.334503E0,6.3202675E1,4.2591003E-1,8.783658E1,3.1010637E1,8.554861E1,-1.3505595E-2,5.9508756E-2,-1.07465945E-1,-2.8006112E-2,2.2836244E-2,7.89656E-2,-4.5134723E-2,1.77738E-2],"split_indices":[1,2,2,1,2,2,2,0,0,0,0,0,0,0,0],"split_type":[0,0,0,0,0,0,0,0,0,0,0,0,0,0,0],"sum_hessian":[8.431288E1,2.92918E1,5.5021084E1,3.9583514E0,2.5333448E1,1.9198004E1,3.582308E1,1.1875054E0,2.770846E0,8.708373E0,1.6625076E1,1.4052147E1,5.145857E0,4.3541865E0,3.1468893E1],"tree_param":{"num_deleted":"0","num_feature":"4","num_nodes":"15","size_leaf_vector":"1"}},{"base_weights":[-6.303677E-3,-4.388985E-1,4.421959E-1,-1.0280263E0,-1.6925992E-2,2.3445467E-2,6.668791E-1,-1.08017854E-1,-2.2635309E-2,-2.6620492E-2,3.2724284E-2,1.3670045E-2,-7.093734E-2,4.070206E-2,7.734449E-2],"categories":[],"categories_nodes":[],"categories_segments":[],"categories_sizes":[],"default_left":[0,0,0,0,0,0,0,0,0,0,0,0,0,0,0],"id":1,"left_children":[1,3,5,7,9,11,13,-1,-1,-1,-1,-1,-1,-1,-1],"loss_changes":[1.682832E1,1.0956443E1,3.991681E0,4.0365925E0,3.7332754E0,2.2863126E0,8.208103E-1,0E0,0E0,0E0,0E0,0E0,0E0,0E0,0E0],"parents":[2147483647,0,0,1,1,2,2,3,3,4,4,5,5,6,6],"right_children":[2,4,6,8,10,12,14,-1,-1,-1,-1,-1,-1,-1,-1],"split_conditions":[7.239714E-1,8.053007E0,7.2044845E0,2E0,6.421685E-1,9.5621276E-1,2.4311798E1,-1.08017854E-1,-2.2635309E-2,-2.6620492E-2,3.2724284E-2,1.3670045E-2,-7.093734E-2,4.070206E-2,7.734449E-2],"split_indices":[1,0,0,3,1,1,0,0,0,0,0,0,0,0,0],"split_type":[0,0,0,0,0,0,0,0,0,0,0,0,0,0,0],"sum_hessian":[8.473529E1,4.3143326E1,4.159197E1,1.7406033E1,2.5737295E1,1.4909301E1,2.6682667E1,1.1584414E1,5.821619E0,1.49051485E1,1.0832146E1,1.3529948E1,1.3793527E0,1.923793E1,7.4447355E0],"tree_param":{"num_deleted":"0","num_feature":"4","num_nodes":"15","size_leaf_vector":"1"}},{"base_weights":[4.7703683E-2,-6.1985856E-1,3.2708097E-1,-9.820605E-1,3.981572E-1,-1.2147196E-1,6.2609005E-1,-3.1555647E-3,-9.138134E-2,-2.6063867E-2,5.98984E-2,-4.935037E-2,2.32604E-2,5.4175623E-2,-2.0579163E-2],"categories":[],"categories_nodes":[],"categories_segments":[],"categories_sizes":[],"default_left":[0,0,0,0,0,0,0,0,0,0,0,0,0,0,0],"id":2,"left_children":[1,3,5,7,9,11,13,-1,-1,-1,-1,-1,-1,-1,-1],"loss_changes":[1.5987877E1,9.725828E0,8.166481E0,2.8183289E0,2.1106598E0,5.277706E0,1.8154469E0,0E0,0E0,0E0,0E0,0E0,0E0,0E0,0E0],"parents":[2147483647,0,0,1,1,2,2,3,3,4,4,5,5,6,6],"right_children":[2,4,6,8,10,12,14,-1,-1,-1,-1,-1,-1,-1,-1],"split_conditions":[6.428466E-1,2.2371948E1,8.053007E0,5.334503E0,8.07507E1,7.704626E-1,5.137262E1,-3.1555647E-3,-9.138134E-2,-2.6063867E-2,5.98984E-2,-4.935037E-2,2.32604E-2,5.4175623E-2,-2.0579163E-2],"split_indices":[1,0,0,2,2,1,0,0,0,0,0,0,0,0,0],"split_type":[0,0,0,0,0,0,0,0,0,0,0,0,0,0,0],"sum_hessian":[8.363799E1,2.431631E1,5.9321686E1,1.7961184E1,6.3551273E0,2.3964914E1,3.535677E1,2.790245E0,1.51709385E1,2.0964632E0,4.258664E0,1.0658838E1,1.3306075E1,3.364367E1,1.7131035E0],"tree_param":{"num_deleted":"0","num_feature":"4","num_nodes":"15","size_leaf_vector":"1"}},{"base_weights":[1.2910508E-2,-3.5964698E-1,4.2732242E-1,2.714081E-1,-4.8763713E-1,6.735004E-1,2.7165705E-1,4.0046837E-2,-4.9278196E-2,-8.130391E-2,-1.4747347E-2,3.7544914E-2,8.353053E-2,-3.5543073E-2,3.0498242E-2],"categories":[],"categories_nodes":[],"categories_segments":[],"categories_sizes":[],"default_left":[0,0,0,0,0,0,0,0,0,0,0,0,0,0,0],"id":3,"left_children":[1,3,5,7,9,11,13,-1,-1,-1,-1,-1,-1,-1,-1],"loss_changes":[1.3652766E1,3.8949537E0,1.4207416E0,2.03649E0,6.079939E0,6.8566895E-1,2.312034E0,0E0,0E0,0E0,0E0,0E0,0E0,0E0,0E0],"parents":[2147483647,0,0,1,1,2,2,3,3,4,4,5,5,6,6],"right_children":[2,4,6,8,10,12,14,-1,-1,-1,-1,-1,-1,-1,-1],"split_conditions":[7.239714E-1,1.3834565E1,6.3202675E1,6.8573827E-1,9.476746E1,3.1010637E1,7.5182104E-1,4.0046837E-2,-4.9278196E-2,-8.130391E-2,-1.4747347E-2,3.7544914E-2,8.353053E-2,-3.5543073E-2,3.0498242E-2],"split_indices":[1,2,2,1,2,2,1,0,0,0,0,0,0,0,0],"split_type":[0,0,0,0,0,0,0,0,0,0,0,0,0,0,0],"sum_hessian":[8.643366E1,4.558488E1,4.0848785E1,7.497574E0,3.8087307E1,1.4535281E1,2.6313505E1,6.305098E0,1.1924758E0,1.3027951E1,2.5059355E1,1.0833251E1,3.7020304E0,3.0871334E0,2.3226372E1],"tree_param":{"num_deleted":"0","num_feature":"4","num_nodes":"15","size_leaf_vector":"1"}},{"base_weights":[-5.0394326E-2,-2.1045406E-1,6.303904E-1,3.9953575E-1,-3.51263E-1,7.0691216E-1,-2.385075E-2,-3.571343E-2,4.5902938E-2,-9.579892E-2,-1.9125316E-2,6.417768E-2,1.3454363E-2],"categories":[],"categories_nodes":[],"categories_segments":[],"categories_sizes":[],"default_left":[0,0,0,0,0,0,0,0,0,0,0,0,0],"id":4,"left_children":[1,3,5,7,9,11,-1,-1,-1,-1,-1,-1,-1],"loss_changes":[9.760219E0,6.349015E0,1.423542E0,2.3234773E0,5.3400755E0,6.9000435E-1,0E0,0E0,0E0,0E0,0E0,0E0,0E0],"parents":[2147483647,0,0,1,1,2,2,3,3,4,4,5,5],"right_children":[2,4,6,8,10,12,-1,-1,-1,-1,-1,-1,-1],"split_conditions":[2.4690168E1,9.174257E0,4E0,4.8560807E-1,2.0757601E0,2.973122E2,-2.385075E-2,-3.571343E-2,4.5902938E-2,-9.579892E-2,-1.9125316E-2,6.417768E-2,1.3454363E-2],"split_indices":[0,2,3,2,0,2,0,0,0,0,0,0,0],"split_type":[0,0,0,0,0,0,0,0,0,0,0,0,0],"sum_hessian":[8.735353E1,7.128463E1,1.6068909E1,1.302451E1,5.8260117E1,1.5065961E1,1.0029471E0,1.95781E0,1.1066701E1,5.687792E0,5.2572323E1,1.2385682E1,2.6802785E0],"tree_param":{"num_deleted":"0","num_feature":"4","num_nodes":"13","size_leaf_vector":"1"}},{"base_weights":[4.7036357E-2,-4.387496E-1,3.242168E-1,-7.9623795E-1,1.7988259E-1,-7.3429775E-1,4.4847798E-1,-8.5249715E-2,2.4788687E-2,-3.289899E-2,2.9367194E-2,-1.3602833E-1,2.1182805E-2,2.6200721E-2,6.715302E-2],"categories":[],"categories_nodes":[],"categories_segments":[],"categories_sizes":[],"default_left":[0,0,0,0,0,0,0,0,0,0,0,0,0,0,0],"id":5,"left_children":[1,3,5,7,9,11,13,-1,-1,-1,-1,-1,-1,-1,-1],"loss_changes":[1.1889279E1,7.2464643E0,7.7111673E0,6.4504385E0,1.5429535E0,6.5069523E0,2.129675E0,0E0,0E0,0E0,0E0,0E0,0E0,0E0,0E0],"parents":[2147483647,0,0,1,1,2,2,3,3,4,4,5,5,6,6],"right_children":[2,4,6,8,10,12,14,-1,-1,-1,-1,-1,-1,-1,-1],"split_conditions":[6.6787606E-1,1.5502058E1,2.0723026E0,3E0,5.1790535E-1,7.704626E-1,2.4372723E1,-8.5249715E-2,2.4788687E-2,-3.289899E-2,2.9367194E-2,-1.3602833E-1,2.1182805E-2,2.6200721E-2,6.715302E-2],"split_indices":[1,0,0,3,1,1,0,0,0,0,0,0,0,0,0],"split_type":[0,0,0,0,0,0,0,0,0,0,0,0,0,0,0],"sum_hessian":[8.624097E1,3.1118986E1,5.512198E1,1.954021E1,1.1578775E1,5.2752895E0,4.9846687E1,1.5742746E1,3.797464E0,2.4971523E0,9.081623E0,2.3251176E0,2.950172E0,3.9470795E1,1.0375894E1],"tree_param":{"num_deleted":"0","num_feature":"4","num_nodes":"15","size_leaf_vector":"1"}},{"base_weights":[-1.8303517E-2,-3.951889E-1,2.4737875E-1,4.6012223E-1,-6.594823E-1,3.769463E-2,5.390169E-1,-9.651378E-3,6.335953E-2,-2.715713E-2,-8.424077E-2,1.578508E-2,-1.3527985E-1,3.3968374E-2,6.882959E-2],"categories":[],"categories_nodes":[],"categories_segments":[],"categories_sizes":[],"default_left":[0,0,0,0,0,0,0,0,0,0,0,0,0,0,0],"id":6,"left_children":[1,3,5,7,9,11,13,-1,-1,-1,-1,-1,-1,-1,-1],"loss_changes":[8.815574E0,8.527946E0,3.1400328E0,1.8644335E0,3.194621E0,8.926068E0,4.2666435E-1,0E0,0E0,0E0,0E0,0E0,0E0,0E0,0E0],"parents":[2147483647,0,0,1,1,2,2,3,3,4,4,5,5,6,6],"right_children":[2,4,6,8,10,12,14,-1,-1,-1,-1,-1,-1,-1,-1],"split_conditions":[8.053007E0,1.9020258E1,1.4224248E2,1E0,1.5834587E2,1.3704243E2,4.254926E2,-9.651378E-3,6.335953E-2,-2.715713E-2,-8.424077E-2,1.578508E-2,-1.3527985E-1,3.3968374E-2,6.882959E-2],"split_indices":[0,2,2,3,2,2,2,0,0,0,0,0,0,0,0],"split_type":[0,0,0,0,0,0,0,0,0,0,0,0,0,0,0],"sum_hessian":[8.60634E1,3.5383064E1,5.0680336E1,8.177604E0,2.7205462E1,3.01396E1,2.0540735E1,3.2051609E0,4.9724426E0,1.603133E1,1.1174131E1,2.840288E1,1.7367204E0,1.6859503E1,3.6812336E0],"tree_param":{"num_deleted":"0","num_feature":"4","num_nodes":"15","size_leaf_vector":"1"}},{"base_weights":[-1.7909413E-2,-7.666464E-1,7.525553E-2,1.1756286E-1,-1.0800663E0,9.018115E-1,1.0904631E-2,-2.0927593E-2,3.1426217E-2,8.720143E-3,-1.1363246E-1,8.2700044E-2,1.357467E-2,-8.524648E-3,3.8415518E-2],"categories":[],"categories_nodes":[],"categories_segments":[],"categories_sizes":[],"default_left":[0,0,0,0,0,0,0,0,0,0,0,0,0,0,0],"id":7,"left_children":[1,3,5,7,9,11,13,-1,-1,-1,-1,-1,-1,-1,-1],"loss_changes":[6.030363E0,2.777532E0,4.088846E0,4.5811996E-1,3.0521927E0,3.6105776E-1,4.047889E0,0E0,0E0,0E0,0E0,0E0,0E0,0E0,0E0],"parents":[2147483647,0,0,1,1,2,2,3,3,4,4,5,5,6,6],"right_children":[2,4,6,8,10,12,14,-1,-1,-1,-1,-1,-1,-1,-1],"split_conditions":[2.2576165E0,3.7037125E1,1.7788699E0,2.1265862E0,1.0165523E0,1.7556917E1,2.4690168E1,-2.0927593E-2,3.1426217E-2,8.720143E-3,-1.1363246E-1,8.2700044E-2,1.357467E-2,-8.524648E-3,3.8415518E-2],"split_indices":[0,2,2,2,0,0,0,0,0,0,0,0,0,0,0],"split_type":[0,0,0,0,0,0,0,0,0,0,0,0,0,0,0],"sum_hessian":[8.462224E1,8.564352E0,7.6057884E1,2.404831E0,6.1595216E0,4.5537114E0,7.150417E1,1.0324144E0,1.3724165E0,1.5219401E0,4.6375813E0,3.5093076E0,1.0444038E0,5.7807854E1,1.36963215E1],"tree_param":{"num_deleted":"0","num_feature":"4","num_nodes":"15","size_leaf_vector":"1"}},{"base_weights":[-1.7309036E-2,-3.1304318E-1,1.9299358E-1,3.9330566E-1,-4.8627624E-1,6.059341E-2,5.0123686E-1,5.4983175E-3,7.043231E-2,-9.2120476E-2,-2.8762717E-2,1.7070781E-2,-8.0735E-2,5.1345915E-2,-7.1837013E-3],"categories":[],"categories_nodes":[],"categories_segments":[],"categories_sizes":[],"default_left":[0,0,0,0,0,0,0,0,0,0,0,0,0,0,0],"id":8,"left_children":[1,3,5,7,9,11,13,-1,-1,-1,-1,-1,-1,-1,-1],"loss_changes":[5.4603906E0,4.653202E0,2.0657182E0,1.162333E0,2.0926342E0,6.273838E0,1.3284976E0,0E0,0E0,0E0,0E0,0E0,0E0,0E0,0E0],"parents":[2147483647,0,0,1,1,2,2,3,3,4,4,5,5,6,6],"right_children":[2,4,6,8,10,12,14,-1,-1,-1,-1,-1,-1,-1,-1],"split_conditions":[8.053007E0,1.6662973E1,2.4690168E1,2.4623382E0,3.4436638E1,2.2854576E1,2.8718594E2,5.4983175E-3,7.043231E-2,-9.2120476E-2,-2.8762717E-2,1.7070781E-2,-8.0735E-2,5.1345915E-2,-7.1837013E-3],"split_indices":[0,2,0,2,2,0,2,0,0,0,0,0,0,0,0],"split_type":[0,0,0,0,0,0,0,0,0,0,0,0,0,0,0],"sum_hessian":[8.5825165E1,3.5464848E1,5.0360317E1,6.7345757E0,2.8730272E1,3.606559E1,1.4294727E1,4.72631E0,2.0082657E0,3.3038743E0,2.5426397E1,3.225877E1,3.8068213E0,1.1478451E1,2.8162768E0],"tree_param":{"num_deleted":"0","num_feature":"4","num_nodes":"15","size_leaf_vector":"1"}},{"base_weights":[1.9869083E-3,-6.7447835E-1,1.1707135E-1,7.960787E-2,-8.616733E-1,-6.9701495E-3,5.782727E-1,-2.2071183E-2,2.757476E-2,-8.174932E-2,2.1347482E-2,5.6492123E-3,-8.0388814E-2,6.279426E-2,1.1333917E-2],"categories":[],"categories_nodes":[],"categories_segments":[],"categories_sizes":[],"default_left":[0,0,0,0,0,0,0,0,0,0,0,0,0,0,0],"id":9,"left_children":[1,3,5,7,9,11,13,-1,-1,-1,-1,-1,-1,-1,-1],"loss_changes":[6.7613645E0,1.8511424E0,4.249357E0,4.180104E-1,2.1168237E0,4.6750793E0,1.3089743E0,0E0,0E0,0E0,0E0,0E0,0E0,0E0,0E0],"parents":[2147483647,0,0,1,1,2,2,3,3,4,4,5,5,6,6],"right_children":[2,4,6,8,10,12,14,-1,-1,-1,-1,-1,-1,-1,-1],"split_conditions":[3.1493595E0,8.248934E0,2.4372723E1,1.1701877E0,4.1242258E2,2.2854576E1,2E0,-2.2071183E-2,2.757476E-2,-8.174932E-2,2.1347482E-2,5.6492123E-3,-8.0388814E-2,6.279426E-2,1.1333917E-2],"split_indices":[0,2,0,2,2,0,3,0,0,0,0,0,0,0,0],"split_type":[0,0,0,0,0,0,0,0,0,0,0,0,0,0,0],"sum_hessian":[8.483621E1,1.162774E1,7.320847E1,2.426736E0,9.201004E0,5.846817E1,1.4740304E1,1.0191494E0,1.4075866E0,8.140029E0,1.0609746E0,5.5112446E1,3.355722E0,9.463238E0,5.277066E0],"tree_param":{"num_deleted":"0","num_feature":"4","num_nodes":"15","size_leaf_vector":"1"}},{"base_weights":[4.3380473E-2,-3.4281522E-1,2.5864103E-1,-5.626013E-1,4.0091026E-1,-4.8022874E-2,4.751024E-1,-6.2860385E-2,-1.4284106E-3,5.76185E-2,8.31729E-3,1.7281886E-2,-4.596598E-2,6.265644E-2,1.9312017E-2],"categories":[],"categories_nodes":[],"categories_segments":[],"categories_sizes":[],"default_left":[0,0,0,0,0,0,0,0,0,0,0,0,0,0,0],"id":10,"left_children":[1,3,5,7,9,11,13,-1,-1,-1,-1,-1,-1,-1,-1],"loss_changes":[7.301128E0,5.371416E0,3.758575E0,2.9904737E0,6.613984E-1,3.4880583E0,2.193025E0,0E0,0E0,0E0,0E0,0E0,0E0,0E0,0E0],"parents":[2147483647,0,0,1,1,2,2,3,3,4,4,5,5,6,6],"right_children":[2,4,6,8,10,12,14,-1,-1,-1,-1,-1,-1,-1,-1],"split_conditions":[6.6787606E-1,2.2371948E1,7.90586E0,2E0,3.122101E1,5.386724E0,1.4018504E1,-6.2860385E-2,-1.4284106E-3,5.76185E-2,8.31729E-3,1.7281886E-2,-4.596598E-2,6.265644E-2,1.9312017E-2],"split_indices":[1,0,0,3,0,0,0,0,0,0,0,0,0,0,0],"split_type":[0,0,0,0,0,0,0,0,0,0,0,0,0,0,0],"sum_hessian":[8.5758415E1,3.0480772E1,5.527764E1,2.3715803E1,6.764969E0,2.319504E1,3.2082603E1,1.6510078E1,7.2057242E0,2.5728061E0,4.192163E0,1.5841065E1,7.3539743E0,1.2824295E1,1.9258308E1],"tree_param":{"num_deleted":"0","num_feature":"4","num_nodes":"15","size_leaf_vector":"1"}},{"base_weights":[-1.1363599E-2,-3.3024478E-1,3.646428E-1,-9.8567404E-2,-2.3731524E-1,4.3894935E-2,5.462846E-1,-2.9327951E-2,2.2789428E-2,3.9663445E-2,-3.363633E-2,4.911866E-2,7.848188E-3],"categories":[],"categories_nodes":[],"categories_segments":[],"categories_sizes":[],"default_left":[0,0,0,0,0,0,0,0,0,0,0,0,0],"id":11,"left_children":[1,3,5,-1,7,9,11,-1,-1,-1,-1,-1,-1],"loss_changes":[1.0176825E1,3.555109E0,2.2461066E0,0E0,2.9977968E0,3.392757E0,6.9189596E-1,0E0,0E0,0E0,0E0,0E0,0E0],"parents":[2147483647,0,0,1,1,2,2,4,4,5,5,6,6],"right_children":[2,4,6,-1,8,10,12,-1,-1,-1,-1,-1,-1],"split_conditions":[7.239714E-1,2.0075438E0,7.2044845E0,-9.8567404E-2,2.4870215E2,3.8101878E0,2.973122E2,-2.9327951E-2,2.2789428E-2,3.9663445E-2,-3.363633E-2,4.911866E-2,7.848188E-3],"split_indices":[1,0,0,0,2,0,2,0,0,0,0,0,0],"split_type":[0,0,0,0,0,0,0,0,0,0,0,0,0],"sum_hessian":[8.28723E1,4.490838E1,3.7963917E1,3.0500817E0,4.18583E1,1.4174997E1,2.3788921E1,3.3790306E1,8.06799E0,7.1494927E0,7.0255046E0,2.0345726E1,3.4431953E0],"tree_param":{"num_deleted":"0","num_feature":"4","num_nodes":"13","size_leaf_vector":"1"}},{"base_weights":[4.0644746E-2,-1.5007246E-1,3.926364E-1,-3.7363705E-1,3.4456077E-1,8.089237E-1,1.4357676E-1,-3.973528E-2,3.0366812E-2,-2.5733612E-2,3.6602803E-2,7.473711E-2,1.3774703E-2,-8.9547515E-2,2.5241353E-2],"categories":[],"categories_nodes":[],"categories_segments":[],"categories_sizes":[],"default_left":[0,0,0,0,0,0,0,0,0,0,0,0,0,0,0],"id":12,"left_children":[1,3,5,7,9,11,13,-1,-1,-1,-1,-1,-1,-1,-1],"loss_changes":[5.7004433E0,6.2360835E0,2.974444E0,3.7585282E0,1.4803174E0,7.1210957E-1,4.6670637E0,0E0,0E0,0E0,0E0,0E0,0E0,0E0,0E0],"parents":[2147483647,0,0,1,1,2,2,3,3,4,4,5,5,6,6],"right_children":[2,4,6,8,10,12,14,-1,-1,-1,-1,-1,-1,-1,-1],"split_conditions":[7.823622E-1,1.8109837E1,8.376748E-1,3E0,5.1790535E-1,1.7984789E1,8.539424E-1,-3.973528E-2,3.0366812E-2,-2.5733612E-2,3.6602803E-2,7.473711E-2,1.3774703E-2,-8.9547515E-2,2.5241353E-2],"split_indices":[1,0,1,3,1,0,1,0,0,0,0,0,0,0,0],"split_type":[0,0,0,0,0,0,0,0,0,0,0,0,0,0,0],"sum_hessian":[8.303764E1,5.4228848E1,2.8808796E1,3.7516663E1,1.6712185E1,9.942548E0,1.886625E1,3.2541016E1,4.975648E0,2.1552103E0,1.4556974E1,7.9174604E0,2.0250874E0,1.6004769E0,1.7265772E1],"tree_param":{"num_deleted":"0","num_feature":"4","num_nodes":"15","size_leaf_vector":"1"}},{"base_weights":[-4.6044104E-2,-3.9493272E-1,1.547627E-1,3.1856263E-1,-5.1753116E-1,5.4467225E-1,3.4844406E-2,-1.3685834E-2,5.108524E-2,-8.15578E-2,-1.709556E-2,2.7606478E-2,7.368617E-2,-9.237497E-2,9.633623E-3],"categories":[],"categories_nodes":[],"categories_segments":[],"categories_sizes":[],"default_left":[0,0,0,0,0,0,0,0,0,0,0,0,0,0,0],"id":13,"left_children":[1,3,5,7,9,11,13,-1,-1,-1,-1,-1,-1,-1,-1],"loss_changes":[5.867369E0,2.8377671E0,2.4741004E0,9.082699E-1,3.8170733E0,6.192243E-1,4.398817E0,0E0,0E0,0E0,0E0,0E0,0E0,0E0,0E0],"parents":[2147483647,0,0,1,1,2,2,3,3,4,4,5,5,6,6],"right_children":[2,4,6,8,10,12,14,-1,-1,-1,-1,-1,-1,-1,-1],"split_conditions":[6.6539896E-1,1.3834565E1,2.0161156E1,5.371314E-1,9.476746E1,2E0,3.1010637E1,-1.3685834E-2,5.108524E-2,-8.15578E-2,-1.709556E-2,2.7606478E-2,7.368617E-2,-9.237497E-2,9.633623E-3],"split_indices":[1,2,2,1,2,3,2,0,0,0,0,0,0,0,0],"split_type":[0,0,0,0,0,0,0,0,0,0,0,0,0,0,0],"sum_hessian":[8.1876305E1,2.9556719E1,5.2319584E1,4.099593E0,2.5457127E1,1.1473131E1,4.084645E1,1.8042765E0,2.2953167E0,8.71105E0,1.6746077E1,8.750108E0,2.7230227E0,1.902867E0,3.8943584E1],"tree_param":{"num_deleted":"0","num_feature":"4","num_nodes":"15","size_leaf_vector":"1"}},{"base_weights":[4.021131E-2,-6.4479667E-1,1.1878763E-1,1.6499568E-2,-9.231333E-1,7.7985204E-3,3.8171354E-1,-2.8184189E-2,3.1429254E-2,1.7791755E-3,-9.672053E-2,-8.358051E-3,4.193654E-2,1.1906662E-2,6.377097E-2],"categories":[],"categories_nodes":[],"categories_segments":[],"categories_sizes":[],"default_left":[0,0,0,0,0,0,0,0,0,0,0,0,0,0,0],"id":14,"left_children":[1,3,5,7,9,11,13,-1,-1,-1,-1,-1,-1,-1,-1],"loss_changes":[4.5576043E0,1.6207132E0,2.2010865E0,6.334115E-1,1.690661E0,3.193196E0,2.0482519E0,0E0,0E0,0E0,0E0,0E0,0E0,0E0,0E0],"parents":[2147483647,0,0,1,1,2,2,3,3,4,4,5,5,6,6],"right_children":[2,4,6,8,10,12,14,-1,-1,-1,-1,-1,-1,-1,-1],"split_conditions":[2.0757601E0,1.0165523E0,2E0,8.5957247E-1,3.0684927E1,2.4690168E1,2.0350543E2,-2.8184189E-2,3.1429254E-2,1.7791755E-3,-9.672053E-2,-8.358051E-3,4.193654E-2,1.1906662E-2,6.377097E-2],"split_indices":[0,0,3,0,2,0,2,0,0,0,0,0,0,0,0],"split_type":[0,0,0,0,0,0,0,0,0,0,0,0,0,0,0],"sum_hessian":[8.225085E1,7.7224593E0,7.452839E1,2.5661943E0,5.156265E0,5.313017E1,2.1398216E1,1.3284149E0,1.2377794E0,1.4113117E0,3.7449532E0,4.4297073E1,8.833097E0,1.4582023E1,6.816194E0],"tree_param":{"num_deleted":"0","num_feature":"4","num_nodes":"15","size_leaf_vector":"1"}},{"base_weights":[5.235438E-3,-6.116397E-1,7.8915276E-2,-7.1146905E-2,-8.431448E-2,1.8339012E-4,3.9752918E-1,-2.2969339E-2,2.8466765E-2,-1.1696677E-2,2.9755691E-2,4.4382304E-2,-2.7944122E-2],"categories":[],"categories_nodes":[],"categories_segments":[],"categories_sizes":[],"default_left":[0,0,0,0,0,0,0,0,0,0,0,0,0],"id":15,"left_children":[1,3,5,7,-1,9,11,-1,-1,-1,-1,-1,-1],"loss_changes":[3.924855E0,2.1278012E0,1.9333977E0,5.834642E-1,0E0,3.4724047E0,1.9872916E0,0E0,0E0,0E0,0E0,0E0,0E0],"parents":[2147483647,0,0,1,1,2,2,3,3,5,5,6,6],"right_children":[2,4,6,8,-1,10,12,-1,-1,-1,-1,-1,-1],"split_conditions":[2.0757601E0,1.05231476E2,2.4311798E1,2E0,-8.431448E-2,2E0,2.973122E2,-2.2969339E-2,2.8466765E-2,-1.1696677E-2,2.9755691E-2,4.4382304E-2,-2.7944122E-2],"split_indices":[0,2,0,3,0,3,2,0,0,0,0,0,0],"split_type":[0,0,0,0,0,0,0,0,0,0,0,0,0],"sum_hessian":[8.4291084E1,8.214542E0,7.607654E1,4.219298E0,3.9952447E0,6.1804707E1,1.4271831E1,3.019555E0,1.1997429E0,4.477861E1,1.7026098E1,1.2001912E1,2.269918E0],"tree_param":{"num_deleted":"0","num_feature":"4","num_nodes":"13","size_leaf_vector":"1"}},{"base_weights":[-2.7974145E-2,-2.7216294E-1,2.6210922E-1,-1.0056378E-1,-2.125196E-1,1.7315462E-1,7.7812266E-1,-6.995726E-2,-1.0674385E-2,2.2071969E-2,-6.0610354E-2,7.1525455E-2,1.8870687E-2],"categories":[],"categories_nodes":[],"categories_segments":[],"categories_sizes":[],"default_left":[0,0,0,0,0,0,0,0,0,0,0,0,0],"id":16,"left_children":[1,3,5,-1,7,9,11,-1,-1,-1,-1,-1,-1],"loss_changes":[5.7582564E0,2.3222377E0,1.5729537E0,0E0,2.1223187E0,3.366749E0,1.1503172E-1,0E0,0E0,0E0,0E0,0E0,0E0],"parents":[2147483647,0,0,1,1,2,2,4,4,5,5,6,6],"right_children":[2,4,6,-1,8,10,12,-1,-1,-1,-1,-1,-1],"split_conditions":[7.239714E-1,3.232423E-1,2.8817057E1,-1.0056378E-1,2.0075438E0,2.2683998E1,4.1925426E1,-6.995726E-2,-1.0674385E-2,2.2071969E-2,-6.0610354E-2,7.1525455E-2,1.8870687E-2],"split_indices":[1,1,0,0,0,0,0,0,0,0,0,0,0],"split_type":[0,0,0,0,0,0,0,0,0,0,0,0,0],"sum_hessian":[7.928392E1,4.308079E1,3.6203133E1,1.313587E0,4.1767204E1,3.2019E1,4.1841326E0,3.3844278E0,3.8382774E1,2.9469572E1,2.5494275E0,2.9125123E0,1.2716203E0],"tree_param":{"num_deleted":"0","num_feature":"4","num_nodes":"13","size_leaf_vector":"1"}},{"base_weights":[-1.922212E-2,-1.7229095E-1,3.2622832E-1,3.1847972E-1,-2.8637528E-1,8.0161417E-1,1.316374E-1,-4.7045045E-2,4.3860853E-2,-6.472882E-2,-7.8697745E-3,7.733432E-2,3.2792807E-2,-8.594514E-2,2.4618149E-2],"categories":[],"categories_nodes":[],"categories_segments":[],"categories_sizes":[],"default_left":[0,0,0,0,0,0,0,0,0,0,0,0,0,0,0],"id":17,"left_children":[1,3,5,7,9,11,13,-1,-1,-1,-1,-1,-1,-1,-1],"loss_changes":[4.306954E0,3.2467418E0,2.2097664E0,2.635385E0,4.4662504E0,6.105995E-2,4.3559313E0,0E0,0E0,0E0,0E0,0E0,0E0,0E0,0E0],"parents":[2147483647,0,0,1,1,2,2,3,3,4,4,5,5,6,6],"right_children":[2,4,6,8,10,12,14,-1,-1,-1,-1,-1,-1,-1,-1],"split_conditions":[8.0049616E-1,1.3834565E1,8.376748E-1,4.8560807E-1,7.275983E1,8.2264763E-1,8.539424E-1,-4.7045045E-2,4.3860853E-2,-6.472882E-2,-7.8697745E-3,7.733432E-2,3.2792807E-2,-8.594514E-2,2.4618149E-2],"split_indices":[1,2,1,2,2,1,1,0,0,0,0,0,0,0,0],"split_type":[0,0,0,0,0,0,0,0,0,0,0,0,0,0,0],"sum_hessian":[7.938829E1,5.5359703E1,2.4028587E1,1.010371E1,4.5255993E1,6.07293E0,1.7955658E1,1.727816E0,8.375894E0,1.1097141E1,3.415885E1,3.2397933E0,2.8331363E0,1.6378511E0,1.6317806E1],"tree_param":{"num_deleted":"0","num_feature":"4","num_nodes":"15","size_leaf_vector":"1"}},{"base_weights":[-6.301085E-2,3.969987E-1,-1.7476389E-1,-5.185223E-2,5.5637753E-1,-4.3748632E-1,3.4141038E-2,-7.913328E-3,4.9794797E-2,-9.9520355E-2,-2.8916525E-2,-4.934171E-3,6.395506E-2],"categories":[],"categories_nodes":[],"categories_segments":[],"categories_sizes":[],"default_left":[0,0,0,0,0,0,0,0,0,0,0,0,0],"id":18,"left_children":[1,3,5,-1,7,9,11,-1,-1,-1,-1,-1,-1],"loss_changes":[4.381303E0,3.1423852E0,3.7567947E0,0E0,7.1209717E-1,1.4065628E0,2.9022799E0,0E0,0E0,0E0,0E0,0E0,0E0],"parents":[2147483647,0,0,1,1,2,2,4,4,5,5,6,6],"right_children":[2,4,6,-1,8,10,12,-1,-1,-1,-1,-1,-1],"split_conditions":[1.9020258E1,4.8560807E-1,8.053007E0,-5.185223E-2,4.8606566E-1,2.8056929E1,4.254926E2,-7.913328E-3,4.9794797E-2,-9.9520355E-2,-2.8916525E-2,-4.934171E-3,6.395506E-2],"split_indices":[2,2,0,0,1,2,2,0,0,0,0,0,0],"split_type":[0,0,0,0,0,0,0,0,0,0,0,0,0],"sum_hessian":[8.287735E1,1.5699786E1,6.717757E1,1.6715558E0,1.4028231E1,2.9271294E1,3.7906273E1,1.2390763E0,1.2789154E1,1.1982518E0,2.8073042E1,3.4505463E1,3.40081E0],"tree_param":{"num_deleted":"0","num_feature":"4","num_nodes":"13","size_leaf_vector":"1"}},{"base_weights":[-2.3901174E-2,-2.2516514E-1,1.4018826E-1,3.2210347E-1,-3.6228395E-1,-5.6644294E-2,1.7697464E-1,-9.496577E-3,5.0318927E-2,-1.8000193E-2,-5.6800608E-2,6.703948E-2,6.9048447E-3],"categories":[],"categories_nodes":[],"categories_segments":[],"categories_sizes":[],"default_left":[0,0,0,0,0,0,0,0,0,0,0,0,0],"id":19,"left_children":[1,3,5,7,9,-1,11,-1,-1,-1,-1,-1,-1],"loss_changes":[2.749948E0,2.91963E0,1.559431E0,1.1586373E0,1.2885201E0,0E0,2.6155436E0,0E0,0E0,0E0,0E0,0E0,0E0],"parents":[2147483647,0,0,1,1,2,2,3,3,4,4,6,6],"right_children":[2,4,6,8,10,-1,12,-1,-1,-1,-1,-1,-1],"split_conditions":[8.053007E0,1.9020258E1,3.8057625E-1,1E0,5.9789495E0,-5.6644294E-2,3.6490242E0,-9.496577E-3,5.0318927E-2,-1.8000193E-2,-5.6800608E-2,6.703948E-2,6.9048447E-3],"split_indices":[0,2,2,3,0,0,2,0,0,0,0,0,0],"split_type":[0,0,0,0,0,0,0,0,0,0,0,0,0],"sum_hessian":[8.131214E1,3.635217E1,4.4959976E1,7.01296E0,2.9339209E1,1.1103003E0,4.3849674E1,3.1300716E0,3.8828883E0,2.221556E1,7.1236463E0,4.294711E0,3.9554962E1],"tree_param":{"num_deleted":"0","num_feature":"4","num_nodes":"13","size_leaf_vector":"1"}},{"base_weights":[1.2309918E-2,-8.539973E-2,5.109777E-1,-3.348285E-1,6.856118E-2,7.355492E-2,9.409107E-2,-3.566066E-2,2.7240468E-2,1.0789638E-2,-6.025356E-2,2.4817E-2,-4.4889774E-2],"categories":[],"categories_nodes":[],"categories_segments":[],"categories_sizes":[],"default_left":[0,0,0,0,0,0,0,0,0,0,0,0,0],"id":20,"left_children":[1,3,5,7,9,-1,11,-1,-1,-1,-1,-1,-1],"loss_changes":[4.118256E0,2.7411127E0,2.2709045E0,2.188328E0,2.5315595E0,0E0,1.3020198E0,0E0,0E0,0E0,0E0,0E0,0E0],"parents":[2147483647,0,0,1,1,2,2,3,3,4,4,6,6],"right_children":[2,4,6,8,10,-1,12,-1,-1,-1,-1,-1,-1],"split_conditions":[2.4690168E1,6.6787606E-1,3.568866E1,3.0384756E2,2.2854576E1,7.355492E-2,2.8718594E2,-3.566066E-2,2.7240468E-2,1.0789638E-2,-6.025356E-2,2.4817E-2,-4.4889774E-2],"split_indices":[0,1,0,2,0,0,2,0,0,0,0,0,0],"split_type":[0,0,0,0,0,0,0,0,0,0,0,0,0],"sum_hessian":[8.26254E1,6.978113E1,1.2844267E1,2.6184853E1,4.3596275E1,5.878815E0,6.965452E0,2.2782555E1,3.4022968E0,4.111443E1,2.481846E0,5.6337223E0,1.3317301E0],"tree_param":{"num_deleted":"0","num_feature":"4","num_nodes":"13","size_leaf_vector":"1"}},{"base_weights":[5.2853763E-2,-2.7407091E-2,4.7183278E-1,5.1040196E-1,-8.0689386E-2,5.7269084E-1,1.087132E-2,-1.1142352E-2,6.349027E-2,-2.7145217E-3,-5.6743633E-2,1.8355079E-2,6.0063638E-2,-2.7074303E-2,2.4928955E-2],"categories":[],"categories_nodes":[],"categories_segments":[],"categories_sizes":[],"default_left":[0,0,0,0,0,0,0,0,0,0,0,0,0,0,0],"id":21,"left_children":[1,3,5,7,9,11,13,-1,-1,-1,-1,-1,-1,-1,-1],"loss_changes":[2.789376E0,2.0538447E0,6.1343646E-1,1.3006445E0,1.8796182E0,4.9510956E-1,4.638932E-1,0E0,0E0,0E0,0E0,0E0,0E0,0E0,0E0],"parents":[2147483647,0,0,1,1,2,2,3,3,4,4,5,5,6,6],"right_children":[2,4,6,8,10,12,14,-1,-1,-1,-1,-1,-1,-1,-1],"split_conditions":[2.4690168E1,1.7788699E0,2.973122E2,4.8560807E-1,2.2854576E1,8.07507E1,3.6190655E1,-1.1142352E-2,6.349027E-2,-2.7145217E-3,-5.6743633E-2,1.8355079E-2,6.0063638E-2,-2.7074303E-2,2.4928955E-2],"split_indices":[0,2,2,2,0,2,0,0,0,0,0,0,0,0,0],"split_type":[0,0,0,0,0,0,0,0,0,0,0,0,0,0,0],"sum_hessian":[8.156442E1,6.923596E1,1.2328459E1,5.4677362E0,6.3768227E1,9.916379E0,2.4120805E0,1.8142784E0,3.6534576E0,6.033433E1,3.4338946E0,4.169305E0,5.7470737E0,1.0579683E0,1.3541121E0],"tree_param":{"num_deleted":"0","num_feature":"4","num_nodes":"15","size_leaf_vector":"1"}},{"base_weights":[5.210932E-2,-1.4458507E-1,3.7246686E-1,-9.6797246E-1,-5.2385744E-2,4.5811522E-1,-3.167037E-2,-1.8329106E-2,-9.067402E-2,3.3115827E-2,-1.1052857E-2,1.3796489E-2,5.476528E-2,-9.2870586E-2,4.3179236E-2],"categories":[],"categories_nodes":[],"categories_segments":[],"categories_sizes":[],"default_left":[0,0,0,0,0,0,0,0,0,0,0,0,0,0,0],"id":22,"left_children":[1,3,5,7,9,11,13,-1,-1,-1,-1,-1,-1,-1,-1],"loss_changes":[5.2125583E0,3.8547401E0,1.1021895E0,3.6661148E-1,1.9500301E0,1.5633774E0,4.7757034E0,0E0,0E0,0E0,0E0,0E0,0E0,0E0,0E0],"parents":[2147483647,0,0,1,1,2,2,3,3,4,4,5,5,6,6],"right_children":[2,4,6,8,10,12,14,-1,-1,-1,-1,-1,-1,-1,-1],"split_conditions":[7.5182104E-1,2.0723026E0,2.2854576E1,5.261214E-1,4.199467E0,6.8699136E0,2.4311798E1,-1.8329106E-2,-9.067402E-2,3.3115827E-2,-1.1052857E-2,1.3796489E-2,5.476528E-2,-9.2870586E-2,4.3179236E-2],"split_indices":[1,0,0,1,0,0,0,0,0,0,0,0,0,0,0],"split_type":[0,0,0,0,0,0,0,0,0,0,0,0,0,0,0],"sum_hessian":[8.086792E1,5.0444485E1,3.042343E1,4.12323E0,4.6321255E1,2.4993105E1,5.4303255E0,1.1907032E0,2.932527E0,6.60202E0,3.9719234E1,1.1830693E1,1.3162411E1,1.4779732E0,3.9523523E0],"tree_param":{"num_deleted":"0","num_feature":"4","num_nodes":"15","size_leaf_vector":"1"}},{"base_weights":[-2.9947793E-2,-2.9131967E-1,1.3638827E-1,-4.1848242E-1,1.5365459E-1,6.299472E-2,5.8686603E-2,-4.3107595E-2,1.0526019E-2,-3.325552E-2,3.9833806E-2,-1.6964907E-2,2.1677677E-2],"categories":[],"categories_nodes":[],"categories_segments":[],"categories_sizes":[],"default_left":[0,0,0,0,0,0,0,0,0,0,0,0,0],"id":23,"left_children":[1,3,5,7,9,-1,11,-1,-1,-1,-1,-1,-1],"loss_changes":[3.5918174E0,1.8802726E0,2.5140004E0,1.7412052E0,1.7484852E0,0E0,2.7182405E0,0E0,0E0,0E0,0E0,0E0,0E0],"parents":[2147483647,0,0,1,1,2,2,3,3,4,4,6,6],"right_children":[2,4,6,8,10,-1,12,-1,-1,-1,-1,-1,-1],"split_conditions":[6.6787606E-1,2.1349184E1,6.82802E-1,3E0,5.371314E-1,6.299472E-2,7.90586E0,-4.3107595E-2,1.0526019E-2,-3.325552E-2,3.9833806E-2,-1.6964907E-2,2.1677677E-2],"split_indices":[1,0,1,3,1,0,0,0,0,0,0,0,0],"split_type":[0,0,0,0,0,0,0,0,0,0,0,0,0],"sum_hessian":[8.070301E1,3.109327E1,4.9609745E1,2.4228804E1,6.8644643E0,4.315662E0,4.5294083E1,1.989566E1,4.3331447E0,2.5084803E0,4.355984E0,1.990643E1,2.5387653E1],"tree_param":{"num_deleted":"0","num_feature":"4","num_nodes":"13","size_leaf_vector":"1"}},{"base_weights":[-6.2112226E-3,5.659012E-1,-9.5320426E-2,-1.9667229E-2,7.261007E-1,-1.9964047E-1,3.9339867E-1,1.2096189E-2,8.2524195E-2,-1.0440508E-2,-9.1562524E-2,4.5181002E-2,-1.8697988E-2],"categories":[],"categories_nodes":[],"categories_segments":[],"categories_sizes":[],"default_left":[0,0,0,0,0,0,0,0,0,0,0,0,0],"id":24,"left_children":[1,3,5,-1,7,9,11,-1,-1,-1,-1,-1,-1],"loss_changes":[4.2970634E0,1.6558497E0,3.7936666E0,0E0,1.5545955E0,3.8167713E0,1.5457141E0,0E0,0E0,0E0,0E0,0E0,0E0],"parents":[2147483647,0,0,1,1,2,2,4,4,5,5,6,6],"right_children":[2,4,6,-1,8,10,12,-1,-1,-1,-1,-1,-1],"split_conditions":[3.6490242E0,4.8560807E-1,2.4372723E1,-1.9667229E-2,5.7450514E0,2.2854576E1,2.973122E2,1.2096189E-2,8.2524195E-2,-1.0440508E-2,-9.1562524E-2,4.5181002E-2,-1.8697988E-2],"split_indices":[2,2,0,0,0,0,2,0,0,0,0,0,0],"split_type":[0,0,0,0,0,0,0,0,0,0,0,0,0],"sum_hessian":[8.22303E1,1.0360648E1,7.186965E1,1.6195729E0,8.7410755E0,5.9714695E1,1.215496E1,3.5515769E0,5.1894984E0,5.6703995E1,3.0106997E0,9.6244755E0,2.5304842E0],"tree_param":{"num_deleted":"0","num_feature":"4","num_nodes":"13","size_leaf_vector":"1"}},{"base_weights":[3.235E-2,-4.2167935E-1,8.6452946E-2,-1.537141E-1,-8.2900923E-1,5.0336856E-1,1.603746E-2,6.1815153E-3,-4.774298E-2,-6.535804E-3,-9.345174E-2,1.6812805E-2,6.558805E-2,-6.230428E-2,6.984567E-3],"categories":[],"categories_nodes":[],"categories_segments":[],"categories_sizes":[],"default_left":[0,0,0,0,0,0,0,0,0,0,0,0,0,0,0],"id":25,"left_children":[1,3,5,7,9,11,13,-1,-1,-1,-1,-1,-1,-1,-1],"loss_changes":[2.0766604E0,8.563858E-1,2.194965E0,7.281644E-1,7.533424E-1,8.3082557E-1,3.7632647E0,0E0,0E0,0E0,0E0,0E0,0E0,0E0,0E0],"parents":[2147483647,0,0,1,1,2,2,3,3,4,4,5,5,6,6],"right_children":[2,4,6,8,10,12,14,-1,-1,-1,-1,-1,-1,-1,-1],"split_conditions":[2.0757601E0,1.6938818E0,4.015908E0,3.3315155E2,5.1848015E1,3.309012E0,4.815585E0,6.1815153E-3,-4.774298E-2,-6.535804E-3,-9.345174E-2,1.6812805E-2,6.558805E-2,-6.230428E-2,6.984567E-3],"split_indices":[0,0,0,2,2,0,0,0,0,0,0,0,0,0,0],"split_type":[0,0,0,0,0,0,0,0,0,0,0,0,0,0,0],"sum_hessian":[8.205561E1,8.013412E0,7.40422E1,5.664407E0,2.349006E0,9.810095E0,6.42321E1,4.2660403E0,1.3983668E0,1.1205964E0,1.2284094E0,5.9560723E0,3.854022E0,4.4685564E0,5.9763546E1],"tree_param":{"num_deleted":"0","num_feature":"4","num_nodes":"15","size_leaf_vector":"1"}},{"base_weights":[1.5373411E-2,-9.3308285E-2,2.0307794E-1,-4.8167415E-2,-9.4313316E-2,7.3603325E-2,1.03951305E-1,-6.649361E-3,6.0188737E-2,-5.374307E-2,1.3116624E-2],"categories":[],"categories_nodes":[],"categories_segments":[],"categories_sizes":[],"default_left":[0,0,0,0,0,0,0,0,0,0,0],"id":26,"left_children":[1,3,5,7,-1,-1,9,-1,-1,-1,-1],"loss_changes":[1.6750332E0,2.496273E0,2.0423527E0,1.491106E0,0E0,0E0,1.3928695E0,0E0,0E0,0E0,0E0],"parents":[2147483647,0,0,1,1,2,2,3,3,6,6],"right_children":[2,4,6,8,-1,-1,10,-1,-1,-1,-1],"split_conditions":[1.2850403E1,1.2634875E1,1.407037E1,1.2043882E1,-9.4313316E-2,7.3603325E-2,1.4760004E1,-6.649361E-3,6.0188737E-2,-5.374307E-2,1.3116624E-2],"split_indices":[0,0,0,0,0,0,0,0,0,0,0],"split_type":[0,0,0,0,0,0,0,0,0,0,0],"sum_hessian":[8.018043E1,5.1097603E1,2.9082825E1,5.0060402E1,1.0372015E0,2.5266411E0,2.6556183E1,4.882496E1,1.2354407E0,1.1747128E0,2.5381472E1],"tree_param":{"num_deleted":"0","num_feature":"4","num_nodes":"11","size_leaf_vector":"1"}},{"base_weights":[-2.706302E-2,-1.8626371E-1,2.280877E-1,-3.5883343E-1,2.6584566E-1,3.8171077E-1,-1.3087094E-1,1.889152E-2,-3.6095474E-2,5.1201984E-2,5.2491706E-3,-2.106211E-2,3.7325323E-2,-4.362854E-2,5.029289E-2],"categories":[],"categories_nodes":[],"categories_segments":[],"categories_sizes":[],"default_left":[0,0,0,0,0,0,0,0,0,0,0,0,0,0,0],"id":27,"left_children":[1,3,5,7,9,11,13,-1,-1,-1,-1,-1,-1,-1,-1],"loss_changes":[3.354598E0,4.0557575E0,1.8023332E0,2.1487546E0,1.0516623E0,1.3547912E0,3.5755897E0,0E0,0E0,0E0,0E0,0E0,0E0,0E0,0E0],"parents":[2147483647,0,0,1,1,2,2,3,3,4,4,5,5,6,6],"right_children":[2,4,6,8,10,12,14,-1,-1,-1,-1,-1,-1,-1,-1],"split_conditions":[7.5182104E-1,1.8109837E1,1.4018504E1,5.968841E0,6.3202675E1,7.704626E-1,2.8817057E1,1.889152E-2,-3.6095474E-2,5.1201984E-2,5.2491706E-3,-2.106211E-2,3.7325323E-2,-4.362854E-2,5.029289E-2],"split_indices":[1,0,0,2,2,1,0,0,0,0,0,0,0,0,0],"split_type":[0,0,0,0,0,0,0,0,0,0,0,0,0,0,0],"sum_hessian":[8.053865E1,4.9760616E1,3.0778034E1,3.6163395E1,1.3597221E1,2.1509329E1,9.268704E0,4.650216E0,3.1513178E1,3.9741492E0,9.623073E0,2.2563353E0,1.9252995E1,6.1788273E0,3.089877E0],"tree_param":{"num_deleted":"0","num_feature":"4","num_nodes":"15","size_leaf_vector":"1"}},{"base_weights":[-1.0967104E-2,-1.2235399E-1,2.5294688E-1,-1.99384E-1,3.9993232E-1,7.418784E-2,7.1085915E-2,-8.533404E-3,-9.318314E-2,5.4565676E-2,-3.7871815E-2,-4.184239E-2,1.9146794E-2],"categories":[],"categories_nodes":[],"categories_segments":[],"categories_sizes":[],"default_left":[0,0,0,0,0,0,0,0,0,0,0,0,0],"id":28,"left_children":[1,3,5,7,9,-1,11,-1,-1,-1,-1,-1,-1],"loss_changes":[2.379517E0,2.3671136E0,2.882228E0,4.3704233E0,2.2054486E0,0E0,2.125898E0,0E0,0E0,0E0,0E0,0E0,0E0],"parents":[2147483647,0,0,1,1,2,2,3,3,4,4,6,6],"right_children":[2,4,6,8,10,-1,12,-1,-1,-1,-1,-1,-1],"split_conditions":[2E0,2.4690168E1,3.2844597E1,2.2683998E1,2.7777322E2,7.418784E-2,3.1493595E0,-8.533404E-3,-9.318314E-2,5.4565676E-2,-3.7871815E-2,-4.184239E-2,1.9146794E-2],"split_indices":[3,0,2,0,2,0,0,0,0,0,0,0,0],"split_type":[0,0,0,0,0,0,0,0,0,0,0,0,0],"sum_hessian":[7.889262E1,5.5854984E1,2.3037632E1,4.921474E1,6.6402454E0,4.0223184E0,1.9015314E1,4.591555E1,3.2991884E0,5.1843767E0,1.4558688E0,3.731189E0,1.5284124E1],"tree_param":{"num_deleted":"0","num_feature":"4","num_nodes":"13","size_leaf_vector":"1"}},{"base_weights":[-4.203057E-2,2.90698E-1,-9.962015E-2,-4.61623E-2,5.352462E-1,-4.8318708E-1,-2.7730655E-2,1.0717263E-2,5.836941E-2,-5.139182E-2,2.6088638E-2,4.5752127E-2,-8.347374E-3],"categories":[],"categories_nodes":[],"categories_segments":[],"categories_sizes":[],"default_left":[0,0,0,0,0,0,0,0,0,0,0,0,0],"id":29,"left_children":[1,3,5,-1,7,9,11,-1,-1,-1,-1,-1,-1],"loss_changes":[1.5945382E0,2.9210894E0,1.9276581E0,0E0,6.917794E-1,1.6332712E0,2.8317697E0,0E0,0E0,0E0,0E0,0E0,0E0],"parents":[2147483647,0,0,1,1,2,2,4,4,5,5,6,6],"right_children":[2,4,6,-1,8,10,12,-1,-1,-1,-1,-1,-1],"split_conditions":[3.6490242E0,4.8560807E-1,3.4436638E1,-4.61623E-2,1E0,2.4690168E1,6.3202675E1,1.0717263E-2,5.836941E-2,-5.139182E-2,2.6088638E-2,4.5752127E-2,-8.347374E-3],"split_indices":[2,2,2,0,3,0,2,0,0,0,0,0,0],"split_type":[0,0,0,0,0,0,0,0,0,0,0,0,0],"sum_hessian":[8.070357E1,1.1310199E1,6.9393364E1,2.187776E0,9.122422E0,1.0050042E1,5.9343323E1,3.5280266E0,5.594396E0,8.570261E0,1.4797815E0,5.990579E0,5.3352745E1],"tree_param":{"num_deleted":"0","num_feature":"4","num_nodes":"13","size_leaf_vector":"1"}},{"base_weights":[7.7751115E-2,-1.4005421E-1,2.5779486E-1,-4.3631338E-2,-7.4087805E-1,7.602322E-2,5.2151483E-1,5.8766273E-3,-7.327443E-2,-7.73579E-2,-1.1914967E-2,2.0143563E-2,-6.995283E-2,5.6997254E-2,1.1164578E-2],"categories":[],"categories_nodes":[],"categories_segments":[],"categories_sizes":[],"default_left":[0,0,0,0,0,0,0,0,0,0,0,0,0,0,0],"id":30,"left_children":[1,3,5,7,9,11,13,-1,-1,-1,-1,-1,-1,-1,-1],"loss_changes":[3.2423546E0,2.1487837E0,2.1229334E0,3.4893565E0,5.444169E-1,4.8771925E0,1.2306609E0,0E0,0E0,0E0,0E0,0E0,0E0,0E0,0E0],"parents":[2147483647,0,0,1,1,2,2,3,3,4,4,5,5,6,6],"right_children":[2,4,6,8,10,12,14,-1,-1,-1,-1,-1,-1,-1,-1],"split_conditions":[8.053007E0,3.3529645E2,1.6067987E2,7.345045E0,4.58574E0,1.3704243E2,2.3274712E1,5.8766273E-3,-7.327443E-2,-7.73579E-2,-1.1914967E-2,2.0143563E-2,-6.995283E-2,5.6997254E-2,1.1164578E-2],"split_indices":[0,2,2,0,0,2,0,0,0,0,0,0,0,0,0],"split_type":[0,0,0,0,0,0,0,0,0,0,0,0,0,0,0],"sum_hessian":[8.0761856E1,3.6648716E1,4.411314E1,3.2504818E1,4.143898E0,2.6876509E1,1.7236631E1,2.9465445E1,3.039374E0,2.5401182E0,1.6037797E0,2.3302134E1,3.574376E0,1.0914754E1,6.3218784E0],"tree_param":{"num_deleted":"0","num_feature":"4","num_nodes":"15","size_leaf_vector":"1"}},{"base_weights":[-5.6014904E-3,-5.984199E-2,2.8838095E-1,-2.657126E-3,-9.5937365E-1,4.5068675E-1,-2.6520975E-2,-3.891985E-3,4.2773798E-2,-1.13021016E-1,-6.518926E-4,-1.4938883E-4,5.7787452E-2],"categories":[],"categories_nodes":[],"categories_segments":[],"categories_sizes":[],"default_left":[0,0,0,0,0,0,0,0,0,0,0,0,0],"id":31,"left_children":[1,3,5,7,9,11,-1,-1,-1,-1,-1,-1,-1],"loss_changes":[1.3388401E0,3.6392918E0,1.465571E0,1.6958703E0,1.8123431E0,1.3279793E0,0E0,0E0,0E0,0E0,0E0,0E0,0E0],"parents":[2147483647,0,0,1,1,2,2,3,3,4,4,5,5],"right_children":[2,4,6,8,10,12,-1,-1,-1,-1,-1,-1,-1],"split_conditions":[2.4372723E1,2.2854576E1,2.973122E2,1.8341314E1,1E0,8.07507E1,-2.6520975E-2,-3.891985E-3,4.2773798E-2,-1.13021016E-1,-6.518926E-4,-1.4938883E-4,5.7787452E-2],"split_indices":[0,0,2,0,3,2,0,0,0,0,0,0,0],"split_type":[0,0,0,0,0,0,0,0,0,0,0,0,0],"sum_hessian":[8.187993E1,6.979839E1,1.2081535E1,6.656941E1,3.2289844E0,9.790945E0,2.2905898E0,6.2158424E1,4.4109855E0,1.8581282E0,1.3708562E0,4.04518E0,5.745765E0],"tree_param":{"num_deleted":"0","num_feature":"4","num_nodes":"13","size_leaf_vector":"1"}},{"base_weights":[-4.7268704E-2,-1.663713E-1,2.5200883E-1,-2.478964E-1,3.1975415E-1,6.2341243E-1,-1.1764143E-2,1.4238473E-2,-2.8249642E-2,-3.7609223E-2,4.322095E-2,1.0377161E-2,5.7472505E-2,2.0005554E-2,-6.231068E-2],"categories":[],"categories_nodes":[],"categories_segments":[],"categories_sizes":[],"default_left":[0,0,0,0,0,0,0,0,0,0,0,0,0,0,0],"id":32,"left_children":[1,3,5,7,9,11,13,-1,-1,-1,-1,-1,-1,-1,-1],"loss_changes":[2.8953342E0,2.372538E0,2.2788088E0,2.308756E0,1.7775033E0,3.5925007E-1,3.1150618E0,0E0,0E0,0E0,0E0,0E0,0E0,0E0,0E0],"parents":[2147483647,0,0,1,1,2,2,3,3,4,4,5,5,6,6],"right_children":[2,4,6,8,10,12,14,-1,-1,-1,-1,-1,-1,-1,-1],"split_conditions":[8.0049616E-1,3.1765384E2,8.48238E1,1.9020258E1,4.569026E0,4.137067E0,9.247315E-1,1.4238473E-2,-2.8249642E-2,-3.7609223E-2,4.322095E-2,1.0377161E-2,5.7472505E-2,2.0005554E-2,-6.231068E-2],"split_indices":[1,2,2,2,0,0,1,0,0,0,0,0,0,0,0],"split_type":[0,0,0,0,0,0,0,0,0,0,0,0,0,0,0],"sum_hessian":[7.90513E1,5.6864998E1,2.2186306E1,4.911781E1,7.7471876E0,8.647215E0,1.3539091E1,9.594441E0,3.952337E1,1.4437251E0,6.3034625E0,1.777061E0,6.8701534E0,1.0596354E1,2.9427376E0],"tree_param":{"num_deleted":"0","num_feature":"4","num_nodes":"15","size_leaf_vector":"1"}},{"base_weights":[-4.6158135E-2,-2.9885653E-1,1.124762E-1,-3.6192957E-1,5.4440998E-2,-4.8167834E-1,1.9315876E-1,4.2236606E-3,-3.9617587E-2,4.6684258E-2,-7.8700356E-2,7.711184E-2,6.7552496E-3],"categories":[],"categories_nodes":[],"categories_segments":[],"categories_sizes":[],"default_left":[0,0,0,0,0,0,0,0,0,0,0,0,0],"id":33,"left_children":[1,3,5,7,-1,9,11,-1,-1,-1,-1,-1,-1],"loss_changes":[3.2147279E0,2.1536756E0,2.464919E0,1.6658466E0,0E0,3.8909469E0,3.628673E0,0E0,0E0,0E0,0E0,0E0,0E0],"parents":[2147483647,0,0,1,1,2,2,3,3,5,5,6,6],"right_children":[2,4,6,8,-1,10,12,-1,-1,-1,-1,-1,-1],"split_conditions":[6.6787606E-1,4.3380947E1,2.0723026E0,3.2844597E1,5.4440998E-2,1.0165523E0,3.6446455E0,4.2236606E-3,-3.9617587E-2,4.6684258E-2,-7.8700356E-2,7.711184E-2,6.7552496E-3],"split_indices":[1,0,0,2,0,0,0,0,0,0,0,0,0],"split_type":[0,0,0,0,0,0,0,0,0,0,0,0,0],"sum_hessian":[7.835595E1,2.9877813E1,4.8478138E1,2.8662355E1,1.2154589E0,5.201766E0,4.327637E1,7.1182413E0,2.1544113E1,1.6143641E0,3.5874016E0,4.377412E0,3.889896E1],"tree_param":{"num_deleted":"0","num_feature":"4","num_nodes":"13","size_leaf_vector":"1"}},{"base_weights":[3.2657646E-2,-6.5068915E-2,6.3976996E-2,-9.417815E-2,2.3031539E-1,-6.4741325E-4,-8.60655E-2,9.609127E-3,4.5005746E-2],"categories":[],"categories_nodes":[],"categories_segments":[],"categories_sizes":[],"default_left":[0,0,0,0,0,0,0,0,0],"id":34,"left_children":[1,-1,3,5,7,-1,-1,-1,-1],"loss_changes":[2.096305E0,0E0,2.0032735E0,3.3141844E0,1.2872847E0,0E0,0E0,0E0,0E0],"parents":[2147483647,0,0,2,2,3,3,4,4],"right_children":[2,-1,4,6,8,-1,-1,-1,-1],"split_conditions":[4.8560807E-1,-6.5068915E-2,9.748503E0,4.3274054E2,2.3273512E2,-6.4741325E-4,-8.60655E-2,9.609127E-3,4.5005746E-2],"split_indices":[2,0,0,2,2,0,0,0,0],"split_type":[0,0,0,0,0,0,0,0,0],"sum_hessian":[7.615162E1,1.8270909E0,7.4324524E1,3.8321815E1,3.600271E1,3.6159073E1,2.1627445E0,2.8058054E1,7.944655E0],"tree_param":{"num_deleted":"0","num_feature":"4","num_nodes":"9","size_leaf_vector":"1"}},{"base_weights":[1.1069595E-2,-3.560607E-1,5.569825E-2,-8.5146004E-1,4.0706366E-1,-1.1927532E-1,1.748513E-1,-1.9060202E-2,-1.08290635E-1,6.7984425E-2,-9.369122E-3,-3.665351E-3,-7.215016E-2,7.630742E-2,4.9170083E-3],"categories":[],"categories_nodes":[],"categories_segments":[],"categories_sizes":[],"default_left":[0,0,0,0,0,0,0,0,0,0,0,0,0,0,0],"id":35,"left_children":[1,3,5,7,9,11,13,-1,-1,-1,-1,-1,-1,-1,-1],"loss_changes":[1.3477467E0,3.7186518E0,1.5454599E0,1.4425697E0,1.0713649E0,1.6959258E0,3.8197494E0,0E0,0E0,0E0,0E0,0E0,0E0,0E0,0E0],"parents":[2147483647,0,0,1,1,2,2,3,3,4,4,5,5,6,6],"right_children":[2,4,6,8,10,12,14,-1,-1,-1,-1,-1,-1,-1,-1],"split_conditions":[2.0723026E0,7.704626E-1,6.6787606E-1,6.82802E-1,8.9333665E-1,6.551971E-1,3.6446455E0,-1.9060202E-2,-1.08290635E-1,6.7984425E-2,-9.369122E-3,-3.665351E-3,-7.215016E-2,7.630742E-2,4.9170083E-3],"split_indices":[0,1,1,1,1,1,0,0,0,0,0,0,0,0,0],"split_type":[0,0,0,0,0,0,0,0,0,0,0,0,0,0,0],"sum_hessian":[8.004687E1,7.919565E0,7.2127304E1,4.731955E0,3.1876101E0,2.9218933E1,4.2908367E1,2.7942798E0,1.9376751E0,1.3912706E0,1.7963395E0,2.767937E1,1.5395626E0,4.510263E0,3.8398106E1],"tree_param":{"num_deleted":"0","num_feature":"4","num_nodes":"15","size_leaf_vector":"1"}},{"base_weights":[-4.1852925E-2,-2.7160624E-1,1.0323194E-1,-3.858761E-1,2.727681E-1,1.3975509E-1,-5.9974544E-2,-4.7647476E-2,4.7120387E-3,4.710104E-2,-4.176297E-2,4.6726186E-3,5.320514E-2],"categories":[],"categories_nodes":[],"categories_segments":[],"categories_sizes":[],"default_left":[0,0,0,0,0,0,0,0,0,0,0,0,0],"id":36,"left_children":[1,3,5,7,9,11,-1,-1,-1,-1,-1,-1,-1],"loss_changes":[2.6545103E0,2.0195131E0,1.6318021E0,2.4461458E0,1.7953881E0,2.0059087E0,0E0,0E0,0E0,0E0,0E0,0E0,0E0],"parents":[2147483647,0,0,1,1,2,2,3,3,4,4,5,5],"right_children":[2,4,6,8,10,12,-1,-1,-1,-1,-1,-1,-1],"split_conditions":[6.6787606E-1,3E0,5.137262E1,1.5502058E1,5.986689E-1,2.4311798E1,-5.9974544E-2,-4.7647476E-2,4.7120387E-3,4.710104E-2,-4.176297E-2,4.6726186E-3,5.320514E-2],"split_indices":[1,3,0,0,1,0,0,0,0,0,0,0,0],"split_type":[0,0,0,0,0,0,0,0,0,0,0,0,0],"sum_hessian":[7.779322E1,2.9773108E1,4.802011E1,2.484834E1,4.924769E0,4.685006E1,1.1700516E0,1.6655834E1,8.192504E0,3.709285E0,1.2154839E0,4.1530064E1,5.319998E0],"tree_param":{"num_deleted":"0","num_feature":"4","num_nodes":"13","size_leaf_vector":"1"}},{"base_weights":[-1.0451736E-2,-3.601364E-2,6.580901E-2,1.3428672E-2,-6.0962284E-1,-2.4728046E-3,5.775283E-2,-8.804812E-2,7.937542E-3],"categories":[],"categories_nodes":[],"categories_segments":[],"categories_sizes":[],"default_left":[0,0,0,0,0,0,0,0,0],"id":37,"left_children":[1,3,-1,5,7,-1,-1,-1,-1],"loss_changes":[1.7201382E0,2.2197766E0,0E0,2.308296E0,2.27036E0,0E0,0E0,0E0,0E0],"parents":[2147483647,0,0,1,1,3,3,4,4],"right_children":[2,4,-1,6,8,-1,-1,-1,-1],"split_conditions":[6.0352765E2,3.6462524E2,6.580901E-2,3.1765384E2,7.2044845E0,-2.4728046E-3,5.775283E-2,-8.804812E-2,7.937542E-3],"split_indices":[2,2,0,2,0,0,0,0,0],"split_type":[0,0,0,0,0,0,0,0,0],"sum_hessian":[7.838651E1,7.698118E1,1.4053354E0,7.177142E1,5.2097573E0,6.844436E1,3.3270648E0,2.7513576E0,2.4583998E0],"tree_param":{"num_deleted":"0","num_feature":"4","num_nodes":"9","size_leaf_vector":"1"}},{"base_weights":[3.1099403E-2,-3.8405505E-1,8.189083E-2,-7.599047E-1,3.08717E-1,5.0161976E-1,1.592176E-2,-3.0317154E-2,-9.184207E-2,6.701605E-2,-2.7268479E-2,4.6905843E-6,6.0974844E-2,-1.3237717E-2,1.1704232E-2],"categories":[],"categories_nodes":[],"categories_segments":[],"categories_sizes":[],"default_left":[0,0,0,0,0,0,0,0,0,0,0,0,0,0,0],"id":38,"left_children":[1,3,5,7,9,11,13,-1,-1,-1,-1,-1,-1,-1,-1],"loss_changes":[1.6932806E0,2.5172534E0,1.9591656E0,4.4793797E-1,1.5893712E0,1.2567554E0,1.5006361E0,0E0,0E0,0E0,0E0,0E0,0E0,0E0,0E0],"parents":[2147483647,0,0,1,1,2,2,3,3,4,4,5,5,6,6],"right_children":[2,4,6,8,10,12,14,-1,-1,-1,-1,-1,-1,-1,-1],"split_conditions":[2.2576165E0,7.704626E-1,4.015908E0,7.015895E-1,8.9333665E-1,6.0141224E-1,8.783658E1,-3.0317154E-2,-9.184207E-2,6.701605E-2,-2.7268479E-2,4.6905843E-6,6.0974844E-2,-1.3237717E-2,1.1704232E-2],"split_indices":[0,1,0,1,1,1,2,0,0,0,0,0,0,0,0],"split_type":[0,0,0,0,0,0,0,0,0,0,0,0,0,0,0],"sum_hessian":[7.781092E1,7.766705E0,7.004421E1,4.9722214E0,2.7944837E0,8.616674E0,6.142754E1,3.5067549E0,1.4654664E0,1.3805814E0,1.4139023E0,3.28795E0,5.328724E0,2.5575876E1,3.5851665E1],"tree_param":{"num_deleted":"0","num_feature":"4","num_nodes":"15","size_leaf_vector":"1"}},{"base_weights":[3.869766E-2,-9.742738E-2,1.9095743E-1,-6.2106264E-1,7.7878E-4,3.866719E-1,-4.073379E-2,-8.626447E-2,1.2263454E-2,8.086301E-2,-5.894259E-3,-3.9799023E-2,4.026886E-2,-8.2678705E-2,9.890926E-3],"categories":[],"categories_nodes":[],"categories_segments":[],"categories_sizes":[],"default_left":[0,0,0,0,0,0,0,0,0,0,0,0,0,0,0],"id":39,"left_children":[1,3,5,7,9,11,13,-1,-1,-1,-1,-1,-1,-1,-1],"loss_changes":[1.6302255E0,2.1456897E0,1.6953943E0,2.498384E0,2.7912688E0,2.3318863E0,3.043178E0,0E0,0E0,0E0,0E0,0E0,0E0,0E0,0E0],"parents":[2147483647,0,0,1,1,2,2,3,3,4,4,5,5,6,6],"right_children":[2,4,6,8,10,12,14,-1,-1,-1,-1,-1,-1,-1,-1],"split_conditions":[7.159553E-1,2.8926542E0,8.376748E-1,6.3087076E-1,3.472219E-1,2.0723026E0,8.539424E-1,-8.626447E-2,1.2263454E-2,8.086301E-2,-5.894259E-3,-3.9799023E-2,4.026886E-2,-8.2678705E-2,9.890926E-3],"split_indices":[1,0,1,1,1,0,1,0,0,0,0,0,0,0,0],"split_type":[0,0,0,0,0,0,0,0,0,0,0,0,0,0,0],"sum_hessian":[7.675704E1,4.071588E1,3.604116E1,5.589358E0,3.5126522E1,1.9174849E1,1.6866314E1,3.2674608E0,2.3218968E0,1.5483068E0,3.3578217E1,1.8551176E0,1.7319733E1,1.6447799E0,1.5221533E1],"tree_param":{"num_deleted":"0","num_feature":"4","num_nodes":"15","size_leaf_vector":"1"}},{"base_weights":[1.6144238E-2,-2.453876E-1,7.911279E-2,1.4214993E-1,-4.733073E-1,3.7322876E-1,3.944532E-3,-5.114246E-2,6.424735E-2,-8.6557865E-2,-2.0976825E-2,-5.01644E-3,7.464068E-2,-4.2079855E-2,1.1468122E-2],"categories":[],"categories_nodes":[],"categories_segments":[],"categories_sizes":[],"default_left":[0,0,0,0,0,0,0,0,0,0,0,0,0,0,0],"id":40,"left_children":[1,3,5,7,9,11,13,-1,-1,-1,-1,-1,-1,-1,-1],"loss_changes":[1.301889E0,1.4235802E0,1.4028429E0,3.8475506E0,9.88302E-1,3.211073E0,3.8875833E0,0E0,0E0,0E0,0E0,0E0,0E0,0E0,0E0],"parents":[2147483647,0,0,1,1,2,2,3,3,4,4,5,5,6,6],"right_children":[2,4,6,8,10,12,14,-1,-1,-1,-1,-1,-1,-1,-1],"split_conditions":[5.655132E-1,6.755135E0,4.015908E0,3.0590677E0,8.868286E0,7.704626E-1,6.5936394E0,-5.114246E-2,6.424735E-2,-8.6557865E-2,-2.0976825E-2,-5.01644E-3,7.464068E-2,-4.2079855E-2,1.1468122E-2],"split_indices":[1,0,0,0,0,1,0,0,0,0,0,0,0,0,0],"split_type":[0,0,0,0,0,0,0,0,0,0,0,0,0,0,0],"sum_hessian":[7.687551E1,1.4355361E1,6.2520145E1,5.4555206E0,8.899841E0,1.1918922E1,5.0601227E1,2.514914E0,2.9406064E0,1.2294446E0,7.6703963E0,7.199904E0,4.719018E0,9.96127E0,4.0639954E1],"tree_param":{"num_deleted":"0","num_feature":"4","num_nodes":"15","size_leaf_vector":"1"}},{"base_weights":[-7.1125165E-2,-6.6085213E-1,-2.9906936E-2,-8.925994E-1,3.168576E-3,5.543736E-2,-5.827716E-2,-8.553799E-2,-1.735745E-2,-1.1563187E-2,1.18599655E-2],"categories":[],"categories_nodes":[],"categories_segments":[],"categories_sizes":[],"default_left":[0,0,0,0,0,0,0,0,0,0,0],"id":41,"left_children":[1,3,5,7,-1,-1,9,-1,-1,-1,-1],"loss_changes":[1.8835182E0,8.580034E-1,1.5627499E0,2.2749615E-1,0E0,0E0,1.3104103E0,0E0,0E0,0E0,0E0],"parents":[2147483647,0,0,1,1,2,2,3,3,6,6],"right_children":[2,4,6,8,-1,-1,10,-1,-1,-1,-1],"split_conditions":[4.3252653E-1,2E0,4.7553396E-1,1.5502058E1,3.168576E-3,5.543736E-2,2E0,-8.553799E-2,-1.735745E-2,-1.1563187E-2,1.18599655E-2],"split_indices":[1,3,1,0,0,0,3,0,0,0,0],"split_type":[0,0,0,0,0,0,0,0,0,0,0],"sum_hessian":[7.730021E1,4.067776E0,7.323244E1,2.850411E0,1.2173653E0,1.8809115E0,7.1351524E1,1.7978535E0,1.0525573E0,5.054139E1,2.0810135E1],"tree_param":{"num_deleted":"0","num_feature":"4","num_nodes":"11","size_leaf_vector":"1"}},{"base_weights":[4.54163E-2,-1.4494143E-2,3.944611E-1,4.0113475E-2,-7.9415447E-1,5.316982E-1,-1.5649164E-1,-7.187426E-3,2.2160036E-2,6.1016637E-3,-9.497581E-2,7.1078776E-3,7.2194256E-2,-3.1193411E-2,1.179668E-2],"categories":[],"categories_nodes":[],"categories_segments":[],"categories_sizes":[],"default_left":[0,0,0,0,0,0,0,0,0,0,0,0,0,0,0],"id":42,"left_children":[1,3,5,7,9,11,13,-1,-1,-1,-1,-1,-1,-1,-1],"loss_changes":[1.6324284E0,2.8996944E0,9.475529E-1,1.992105E0,1.6153936E0,1.459681E0,2.7405268E-1,0E0,0E0,0E0,0E0,0E0,0E0,0E0,0E0],"parents":[2147483647,0,0,1,1,2,2,3,3,4,4,5,5,6,6],"right_children":[2,4,6,8,10,12,14,-1,-1,-1,-1,-1,-1,-1,-1],"split_conditions":[2.4372723E1,2.2854576E1,2.8718594E2,7.672839E-1,7.093308E-1,6.82802E-1,4.254926E2,-7.187426E-3,2.2160036E-2,6.1016637E-3,-9.497581E-2,7.1078776E-3,7.2194256E-2,-3.1193411E-2,1.179668E-2],"split_indices":[0,0,2,1,1,1,2,0,0,0,0,0,0,0,0],"split_type":[0,0,0,0,0,0,0,0,0,0,0,0,0,0,0],"sum_hessian":[7.679052E1,6.635905E1,1.0431467E1,6.290193E1,3.457118E0,8.379229E0,2.0522392E0,4.1019405E1,2.1882526E1,1.326166E0,2.1309521E0,4.38311E0,3.9961183E0,1.0008091E0,1.0514302E0],"tree_param":{"num_deleted":"0","num_feature":"4","num_nodes":"15","size_leaf_vector":"1"}},{"base_weights":[-5.340026E-2,-1.7728642E-1,1.22852035E-1,-9.43852E-2,-1.14469774E-1,7.374336E-2,5.608946E-2,1.823409E-2,-1.5000316E-2,-7.3332684E-3,2.9250672E-2],"categories":[],"categories_nodes":[],"categories_segments":[],"categories_sizes":[],"default_left":[0,0,0,0,0,0,0,0,0,0,0],"id":43,"left_children":[1,3,5,7,-1,-1,9,-1,-1,-1,-1],"loss_changes":[1.7462716E0,4.7273145E0,1.7186129E0,1.392019E0,0E0,0E0,1.4831396E0,0E0,0E0,0E0,0E0],"parents":[2147483647,0,0,1,1,2,2,3,3,6,6],"right_children":[2,4,6,8,-1,-1,10,-1,-1,-1,-1],"split_conditions":[1.4224248E2,1.3704243E2,1.4890945E2,3.6490242E0,-1.14469774E-1,7.374336E-2,2E0,1.823409E-2,-1.5000316E-2,-7.3332684E-3,2.9250672E-2],"split_indices":[2,2,2,2,0,0,3,0,0,0,0],"split_type":[0,0,0,0,0,0,0,0,0,0,0],"sum_hessian":[7.797753E1,4.578782E1,3.2189716E1,4.395623E1,1.8315891E0,1.4947846E0,3.0694931E1,9.528299E0,3.442793E1,2.1253714E1,9.441216E0],"tree_param":{"num_deleted":"0","num_feature":"4","num_nodes":"11","size_leaf_vector":"1"}},{"base_weights":[3.1817373E-2,-1.2533756E-1,1.4147441E-1,1.0338493E-2,-7.682471E-2,7.5054836E-1,7.550098E-2,-5.572831E-3,7.456132E-2,6.8306862E-3,7.900634E-2,-4.901639E-2,1.1456231E-2],"categories":[],"categories_nodes":[],"categories_segments":[],"categories_sizes":[],"default_left":[0,0,0,0,0,0,0,0,0,0,0,0,0],"id":44,"left_children":[1,3,5,7,-1,9,11,-1,-1,-1,-1,-1,-1],"loss_changes":[1.3337088E0,3.6254063E0,1.7695721E0,2.1621225E0,0E0,5.983486E-1,2.050162E0,0E0,0E0,0E0,0E0,0E0,0E0],"parents":[2147483647,0,0,1,1,2,2,3,3,5,5,6,6],"right_children":[2,4,6,8,-1,10,12,-1,-1,-1,-1,-1,-1],"split_conditions":[8.783658E1,7.651523E1,1.05231476E2,7.275983E1,-7.682471E-2,1E0,2.0757601E0,-5.572831E-3,7.456132E-2,6.8306862E-3,7.900634E-2,-4.901639E-2,1.1456231E-2],"split_indices":[2,2,2,2,0,3,0,0,0,0,0,0,0],"split_type":[0,0,0,0,0,0,0,0,0,0,0,0,0],"sum_hessian":[7.536311E1,3.0914713E1,4.44484E1,2.7443058E1,3.4716554E0,3.3298974E0,4.1118504E1,2.6101912E1,1.3411473E0,1.2322193E0,2.097678E0,2.9617343E0,3.815677E1],"tree_param":{"num_deleted":"0","num_feature":"4","num_nodes":"13","size_leaf_vector":"1"}},{"base_weights":[2.0695867E-2,-1.3329011E-1,1.0267287E-1,-4.2897712E-2,-9.074203E-2,3.9577028E-1,3.392831E-2,-4.2371497E-2,5.573084E-3,5.4779765E-3,7.394435E-2,-2.3039822E-2,1.1035287E-2],"categories":[],"categories_nodes":[],"categories_segments":[],"categories_sizes":[],"default_left":[0,0,0,0,0,0,0,0,0,0,0,0,0],"id":45,"left_children":[1,3,5,7,-1,9,11,-1,-1,-1,-1,-1,-1],"loss_changes":[9.9219936E-1,2.4274106E0,1.0172057E0,1.4689794E0,0E0,1.6015607E0,1.463713E0,0E0,0E0,0E0,0E0,0E0,0E0],"parents":[2147483647,0,0,1,1,2,2,3,3,5,5,6,6],"right_children":[2,4,6,8,-1,10,12,-1,-1,-1,-1,-1,-1],"split_conditions":[6.428466E-1,6.314676E-1,6.82802E-1,3.309012E0,-9.074203E-2,1.1956779E1,7.239714E-1,-4.2371497E-2,5.573084E-3,5.4779765E-3,7.394435E-2,-2.3039822E-2,1.1035287E-2],"split_indices":[1,1,1,0,0,0,1,0,0,0,0,0,0],"split_type":[0,0,0,0,0,0,0,0,0,0,0,0,0],"sum_hessian":[7.651645E1,2.6365475E1,5.0150974E1,2.513826E1,1.2272153E0,8.624153E0,4.152682E1,4.025501E0,2.1112759E1,6.023591E0,2.6005623E0,9.708753E0,3.181807E1],"tree_param":{"num_deleted":"0","num_feature":"4","num_nodes":"13","size_leaf_vector":"1"}},{"base_weights":[3.7548896E-2,-5.3027544E-2,6.467594E-2,5.736668E-1,-5.6682685E-3,-1.5530227E-2,5.6407817E-2,-3.347859E-2,6.056535E-3],"categories":[],"categories_nodes":[],"categories_segments":[],"categories_sizes":[],"default_left":[0,0,0,0,0,0,0,0,0],"id":46,"left_children":[1,-1,3,5,7,-1,-1,-1,-1],"loss_changes":[1.527589E0,0E0,2.7294846E0,1.0708313E0,2.3121896E0,0E0,0E0,0E0,0E0],"parents":[2147483647,0,0,2,2,3,3,4,4],"right_children":[2,-1,4,6,8,-1,-1,-1,-1],"split_conditions":[4.8560807E-1,-5.3027544E-2,3.6490242E0,5.120802E-1,3.6513355E1,-1.5530227E-2,5.6407817E-2,-3.347859E-2,6.056535E-3],"split_indices":[2,0,2,1,2,0,0,0,0],"split_type":[0,0,0,0,0,0,0,0,0],"sum_hessian":[7.714474E1,2.002682E0,7.514205E1,8.255129E0,6.6886925E1,1.136847E0,7.118282E0,1.0331699E1,5.6555225E1],"tree_param":{"num_deleted":"0","num_feature":"4","num_nodes":"9","size_leaf_vector":"1"}},{"base_weights":[4.911578E-2,-3.9208613E-2,2.7221903E-1,-6.3816965E-1,3.5628132E-3,-3.9359078E-1,4.2411378E-1,4.6054455E-3,-7.9267964E-2,7.151759E-2,-2.7963233E-3,-2.1136904E-3,-5.246528E-2,4.306361E-2,-1.1050191E-2],"categories":[],"categories_nodes":[],"categories_segments":[],"categories_sizes":[],"default_left":[0,0,0,0,0,0,0,0,0,0,0,0,0,0,0],"id":47,"left_children":[1,3,5,7,9,11,13,-1,-1,-1,-1,-1,-1,-1,-1],"loss_changes":[1.5175209E0,1.4280742E0,2.3729658E0,9.685947E-1,1.8468724E0,4.2273873E-1,1.2454829E0,0E0,0E0,0E0,0E0,0E0,0E0,0E0,0E0],"parents":[2147483647,0,0,1,1,2,2,3,3,4,4,5,5,6,6],"right_children":[2,4,6,8,10,12,14,-1,-1,-1,-1,-1,-1,-1,-1],"split_conditions":[2E0,4.3252653E-1,2.7918222E0,3.472219E-1,4.7553396E-1,3E0,2.7965511E1,4.6054455E-3,-7.9267964E-2,7.151759E-2,-2.7963233E-3,-2.1136904E-3,-5.246528E-2,4.306361E-2,-1.1050191E-2],"split_indices":[3,1,0,1,1,3,0,0,0,0,0,0,0,0,0],"split_type":[0,0,0,0,0,0,0,0,0,0,0,0,0,0,0],"sum_hessian":[7.5468544E1,5.46553E1,2.0813242E1,2.714974E0,5.1940327E1,3.570637E0,1.7242605E1,1.1947803E0,1.5201936E0,1.2327435E0,5.070758E1,1.9462463E0,1.6243907E0,1.4367422E1,2.8751824E0],"tree_param":{"num_deleted":"0","num_feature":"4","num_nodes":"15","size_leaf_vector":"1"}},{"base_weights":[1.088741E-2,-5.271945E-2,4.1683182E-1,-6.031836E-3,-7.7480495E-1,8.006838E-1,-2.4027022E-2,-3.082787E-3,5.375924E-2,-7.855112E-2,-1.2211668E-2,2.1145301E-2,7.2635084E-2,-4.781547E-2,4.4482008E-2],"categories":[],"categories_nodes":[],"categories_segments":[],"categories_sizes":[],"default_left":[0,0,0,0,0,0,0,0,0,0,0,0,0,0,0],"id":48,"left_children":[1,3,5,7,9,11,13,-1,-1,-1,-1,-1,-1,-1,-1],"loss_changes":[2.0061977E0,2.264974E0,1.7998251E0,1.441667E0,3.758762E-1,8.526969E-2,2.285022E0,0E0,0E0,0E0,0E0,0E0,0E0,0E0,0E0],"parents":[2147483647,0,0,1,1,2,2,3,3,4,4,5,5,6,6],"right_children":[2,4,6,8,10,12,14,-1,-1,-1,-1,-1,-1,-1,-1],"split_conditions":[2.4690168E1,2.3274712E1,3.6361813E1,5.197201E2,1E0,6.3945854E1,1.9044545E2,-3.082787E-3,5.375924E-2,-7.855112E-2,-1.2211668E-2,2.1145301E-2,7.2635084E-2,-4.781547E-2,4.4482008E-2],"split_indices":[0,0,0,2,3,2,2,0,0,0,0,0,0,0,0],"split_type":[0,0,0,0,0,0,0,0,0,0,0,0,0,0,0],"sum_hessian":[7.584575E1,6.6323715E1,9.522038E0,6.324299E1,3.0807252E0,4.653813E0,4.868225E0,6.1249954E1,1.9930316E0,1.8775809E0,1.2031443E0,1.3528347E0,3.3009782E0,2.4322946E0,2.4359307E0],"tree_param":{"num_deleted":"0","num_feature":"4","num_nodes":"15","size_leaf_vector":"1"}},{"base_weights":[8.154564E-3,-3.4124315E-1,4.7820956E-2,2.393717E-1,-6.156807E-1,4.5286414E-1,-1.7026044E-2,-8.9733135E-3,3.8638633E-2,2.4676432E-3,-6.547858E-2,8.647805E-3,7.0642754E-2,1.4442402E-2,-9.104376E-3],"categories":[],"categories_nodes":[],"categories_segments":[],"categories_sizes":[],"default_left":[0,0,0,0,0,0,0,0,0,0,0,0,0,0,0],"id":49,"left_children":[1,3,5,7,9,11,13,-1,-1,-1,-1,-1,-1,-1,-1],"loss_changes":[1.1083682E0,1.4470289E0,1.8893641E0,3.4002846E-1,7.881396E-1,1.376168E0,1.2196275E0,0E0,0E0,0E0,0E0,0E0,0E0,0E0,0E0],"parents":[2147483647,0,0,1,1,2,2,3,3,4,4,5,5,6,6],"right_children":[2,4,6,8,10,12,14,-1,-1,-1,-1,-1,-1,-1,-1],"split_conditions":[2.0757601E0,1.0165523E0,4.015908E0,8.5957247E-1,2.7538276E0,3.309012E0,6.3202675E1,-8.9733135E-3,3.8638633E-2,2.4676432E-3,-6.547858E-2,8.647805E-3,7.0642754E-2,1.4442402E-2,-9.104376E-3],"split_indices":[0,0,0,0,2,0,2,0,0,0,0,0,0,0,0],"split_type":[0,0,0,0,0,0,0,0,0,0,0,0,0,0,0],"sum_hessian":[7.7795166E1,7.1563444E0,7.0638824E1,2.3379097E0,4.8184347E0,8.92272E0,6.1716103E1,1.1778318E0,1.160078E0,1.3530021E0,3.465433E0,5.6476297E0,3.27509E0,2.0008003E1,4.17081E1],"tree_param":{"num_deleted":"0","num_feature":"4","num_nodes":"15","size_leaf_vector":"1"}},{"base_weights":[3.3244126E-2,-3.9776203E-1,7.913173E-2,-8.5894424E-1,2.8590572E-1,4.9115583E-1,5.303772E-3,-2.7817994E-2,-9.164616E-2,5.8186673E-2,-1.57618E-2,-3.0350932E-3,5.609811E-2,-4.277642E-2,4.9229274E-3],"categories":[],"categories_nodes":[],"categories_segments":[],"categories_sizes":[],"default_left":[0,0,0,0,0,0,0,0,0,0,0,0,0,0,0],"id":50,"left_children":[1,3,5,7,9,11,13,-1,-1,-1,-1,-1,-1,-1,-1],"loss_changes":[1.5641961E0,2.649018E0,2.1533053E0,3.052783E-1,9.578508E-1,1.2224128E0,1.8887438E0,0E0,0E0,0E0,0E0,0E0,0E0,0E0,0E0],"parents":[2147483647,0,0,1,1,2,2,3,3,4,4,5,5,6,6],"right_children":[2,4,6,8,10,12,14,-1,-1,-1,-1,-1,-1,-1,-1],"split_conditions":[2.0075438E0,7.704626E-1,4.015908E0,6.82802E-1,1.0165523E0,5.655132E-1,5.051232E0,-2.7817994E-2,-9.164616E-2,5.8186673E-2,-1.57618E-2,-3.0350932E-3,5.609811E-2,-4.277642E-2,4.9229274E-3],"split_indices":[0,1,0,1,0,1,0,0,0,0,0,0,0,0,0],"split_type":[0,0,0,0,0,0,0,0,0,0,0,0,0,0,0],"sum_hessian":[7.649686E1,6.622823E0,6.987403E1,3.8018382E0,2.8209853E0,9.758792E0,6.011524E1,2.160913E0,1.6409252E0,1.209413E0,1.6115721E0,3.0063202E0,6.752472E0,4.867114E0,5.5248127E1],"tree_param":{"num_deleted":"0","num_feature":"4","num_nodes":"15","size_leaf_vector":"1"}},{"base_weights":[-2.8587209E-2,3.7734014E-1,-8.8720486E-2,-4.4760186E-2,6.2202317E-1,-5.6576806E-1,-2.5123151E-2,1.9876597E-2,6.2788434E-2,-6.6348105E-3,-8.0383524E-2,3.1229882E-2,-6.665249E-3],"categories":[],"categories_nodes":[],"categories_segments":[],"categories_sizes":[],"default_left":[0,0,0,0,0,0,0,0,0,0,0,0,0],"id":51,"left_children":[1,3,5,-1,7,9,11,-1,-1,-1,-1,-1,-1],"loss_changes":[1.9198805E0,2.6773329E0,2.052453E0,0E0,3.2390523E-1,1.6053882E0,1.5111214E0,0E0,0E0,0E0,0E0,0E0,0E0],"parents":[2147483647,0,0,1,1,2,2,4,4,5,5,6,6],"right_children":[2,4,6,-1,8,10,12,-1,-1,-1,-1,-1,-1],"split_conditions":[3.6490242E0,4.8560807E-1,2.9611835E1,-4.4760186E-2,1E0,1.9020258E1,5.813761E1,1.9876597E-2,6.2788434E-2,-6.6348105E-3,-8.0383524E-2,3.1229882E-2,-6.665249E-3],"split_indices":[2,2,2,0,3,2,2,0,0,0,0,0,0],"split_type":[0,0,0,0,0,0,0,0,0,0,0,0,0],"sum_hessian":[7.628073E1,9.161476E0,6.7119255E1,1.6308053E0,7.5306706E0,6.9665594E0,6.01527E1,3.0528197E0,4.477851E0,3.8839588E0,3.0826008E0,6.688463E0,5.3464233E1],"tree_param":{"num_deleted":"0","num_feature":"4","num_nodes":"13","size_leaf_vector":"1"}},{"base_weights":[3.7512637E-3,-3.6544736E-2,2.8949875E-1,-1.4242233E-1,1.2466835E-1,5.6497596E-2,5.180004E-2,2.9408379E-2,-1.954951E-2,-8.497115E-3,3.5229504E-2,3.423093E-2,-6.2296204E-2],"categories":[],"categories_nodes":[],"categories_segments":[],"categories_sizes":[],"default_left":[0,0,0,0,0,0,0,0,0,0,0,0,0],"id":52,"left_children":[1,3,5,7,9,11,-1,-1,-1,-1,-1,-1,-1],"loss_changes":[9.021337E-1,1.1911938E0,7.710062E-1,2.2716625E0,2.0720427E0,2.4921558E0,0E0,0E0,0E0,0E0,0E0,0E0,0E0],"parents":[2147483647,0,0,1,1,2,2,3,3,4,4,5,5],"right_children":[2,4,6,8,10,12,-1,-1,-1,-1,-1,-1,-1],"split_conditions":[3E0,7.5182104E-1,2.0350543E2,1.3834565E1,1.4173285E2,1.3704243E2,5.180004E-2,2.9408379E-2,-1.954951E-2,-8.497115E-3,3.5229504E-2,3.423093E-2,-6.2296204E-2],"split_indices":[3,1,2,2,2,2,0,0,0,0,0,0,0],"split_type":[0,0,0,0,0,0,0,0,0,0,0,0,0],"sum_hessian":[7.642894E1,6.774734E1,8.681596E0,4.0961926E1,2.6785414E1,5.960251E0,2.7213445E0,6.389603E0,3.4572323E1,1.585424E1,1.0931173E1,4.463256E0,1.4969951E0],"tree_param":{"num_deleted":"0","num_feature":"4","num_nodes":"13","size_leaf_vector":"1"}},{"base_weights":[2.8996473E-2,7.1277946E-2,-1.4735991E-1,2.314963E-2,6.295202E-1,-6.572358E-1,6.793067E-2,4.9344758E-3,-2.88495E-2,-1.0238026E-3,7.0680805E-2,-4.3555154E-3,-1.01185694E-1,2.1990778E-2,-2.1700183E-2],"categories":[],"categories_nodes":[],"categories_segments":[],"categories_sizes":[],"default_left":[0,0,0,0,0,0,0,0,0,0,0,0,0,0,0],"id":53,"left_children":[1,3,5,7,9,11,13,-1,-1,-1,-1,-1,-1,-1,-1],"loss_changes":[5.78049E-1,1.653021E0,1.6961807E0,8.8255197E-1,8.087822E-1,1.6013598E0,8.8074505E-1,0E0,0E0,0E0,0E0,0E0,0E0,0E0,0E0],"parents":[2147483647,0,0,1,1,2,2,3,3,4,4,5,5,6,6],"right_children":[2,4,6,8,10,12,14,-1,-1,-1,-1,-1,-1,-1,-1],"split_conditions":[2.2854576E1,1.8341314E1,2.4372723E1,9.247315E-1,6.421685E-1,7.5971955E-1,2E0,4.9344758E-3,-2.88495E-2,-1.0238026E-3,7.0680805E-2,-4.3555154E-3,-1.01185694E-1,2.1990778E-2,-2.1700183E-2],"split_indices":[0,0,0,1,1,1,3,0,0,0,0,0,0,0,0],"split_type":[0,0,0,0,0,0,0,0,0,0,0,0,0,0,0],"sum_hessian":[7.51131E1,6.1067894E1,1.4045207E1,5.7179672E1,3.8882215E0,3.5603626E0,1.0484844E1,5.2725204E1,4.4544683E0,1.370915E0,2.5173063E0,2.3341928E0,1.2261698E0,6.629433E0,3.855411E0],"tree_param":{"num_deleted":"0","num_feature":"4","num_nodes":"15","size_leaf_vector":"1"}},{"base_weights":[-4.9295288E-2,-1.4966914E-1,2.0100813E-1,-5.8192275E-2,-9.416897E-2,6.5803045E-1,3.7335623E-2,-4.104169E-3,-5.9113674E-2,6.068096E-2,9.849954E-3,-5.830754E-2,1.0502524E-2],"categories":[],"categories_nodes":[],"categories_segments":[],"categories_sizes":[],"default_left":[0,0,0,0,0,0,0,0,0,0,0,0,0],"id":54,"left_children":[1,3,5,-1,7,9,11,-1,-1,-1,-1,-1,-1],"loss_changes":[1.9389498E0,1.6887597E0,1.6340818E0,0E0,1.3757868E0,2.1764588E-1,1.347187E0,0E0,0E0,0E0,0E0,0E0,0E0],"parents":[2147483647,0,0,1,1,2,2,4,4,5,5,6,6],"right_children":[2,4,6,-1,8,10,12,-1,-1,-1,-1,-1,-1],"split_conditions":[8.0049616E-1,2.0075438E0,8.376748E-1,-5.8192275E-2,7.885695E-1,1.5502058E1,8.479573E-1,-4.104169E-3,-5.9113674E-2,6.068096E-2,9.849954E-3,-5.830754E-2,1.0502524E-2],"split_indices":[1,0,1,0,1,0,1,0,0,0,0,0,0],"split_type":[0,0,0,0,0,0,0,0,0,0,0,0,0],"sum_hessian":[7.4978004E1,5.3804127E1,2.1173876E1,3.6546254E0,5.01495E1,4.7869306E0,1.6386944E1,4.8035397E1,2.1141038E0,3.6779943E0,1.1089361E0,1.0516931E0,1.5335252E1],"tree_param":{"num_deleted":"0","num_feature":"4","num_nodes":"13","size_leaf_vector":"1"}},{"base_weights":[2.3690028E-2,-7.481917E-2,1.7051822E-1,-6.0853004E-3,-1.0136427E0,-5.3923182E-2,2.3854738E-1,-1.4558254E-2,9.847491E-3,-1.3795339E-2,-1.0644471E-1,1.346051E-2,5.8617096E-2],"categories":[],"categories_nodes":[],"categories_segments":[],"categories_sizes":[],"default_left":[0,0,0,0,0,0,0,0,0,0,0,0,0],"id":55,"left_children":[1,3,5,7,9,-1,11,-1,-1,-1,-1,-1,-1],"loss_changes":[1.150182E0,3.0756245E0,1.9924648E0,1.0563797E0,6.3749456E-1,0E0,9.272015E-1,0E0,0E0,0E0,0E0,0E0,0E0],"parents":[2147483647,0,0,1,1,2,2,3,3,4,4,6,6],"right_children":[2,4,6,8,10,-1,12,-1,-1,-1,-1,-1,-1],"split_conditions":[1.4224248E2,1.3704243E2,5.166005E-1,6.6787606E-1,1.5502058E1,-5.3923182E-2,5.0555307E2,-1.4558254E-2,9.847491E-3,-1.3795339E-2,-1.0644471E-1,1.346051E-2,5.8617096E-2],"split_indices":[2,2,1,1,0,0,2,0,0,0,0,0,0],"split_type":[0,0,0,0,0,0,0,0,0,0,0,0,0],"sum_hessian":[7.763868E1,4.6758286E1,3.0880394E1,4.4506336E1,2.2519503E0,1.6379331E0,2.924246E1,1.8672594E1,2.5833742E1,1.0387875E0,1.2131627E0,2.6774498E1,2.4679615E0],"tree_param":{"num_deleted":"0","num_feature":"4","num_nodes":"13","size_leaf_vector":"1"}},{"base_weights":[5.375497E-2,-7.131312E-2,8.748672E-2,5.9986766E-2,4.201031E-2,-7.345092E-2,5.5836756E-3],"categories":[],"categories_nodes":[],"categories_segments":[],"categories_sizes":[],"default_left":[0,0,0,0,0,0,0],"id":56,"left_children":[1,-1,3,-1,5,-1,-1],"loss_changes":[2.4554365E0,0E0,2.164662E0,0E0,1.912509E0,0E0,0E0],"parents":[2147483647,0,0,2,2,4,4],"right_children":[2,-1,4,-1,6,-1,-1],"split_conditions":[4.8560807E-1,-7.131312E-2,1.9567728E0,5.9986766E-2,3.232423E-1,-7.345092E-2,5.5836756E-3],"split_indices":[2,0,2,0,1,0,0],"split_type":[0,0,0,0,0,0,0],"sum_hessian":[7.35698E1,1.6589588E0,7.191084E1,3.6250365E0,6.828581E1,1.019314E0,6.7266495E1],"tree_param":{"num_deleted":"0","num_feature":"4","num_nodes":"7","size_leaf_vector":"1"}},{"base_weights":[1.4618649E-3,-8.2195945E-2,2.0533076E-1,-3.5281412E-2,-4.9152452E-1,5.3010505E-1,-6.0823865E-2,-1.1853649E-2,2.9906908E-2,-6.665395E-2,2.6552018E-2,7.824827E-3,6.768599E-2,-1.6397007E-2,5.357022E-2],"categories":[],"categories_nodes":[],"categories_segments":[],"categories_sizes":[],"default_left":[0,0,0,0,0,0,0,0,0,0,0,0,0,0,0],"id":57,"left_children":[1,3,5,7,9,11,13,-1,-1,-1,-1,-1,-1,-1,-1],"loss_changes":[1.3284761E0,1.0434903E0,1.991092E0,2.3941371E0,1.8528008E0,1.325455E0,1.5430031E0,0E0,0E0,0E0,0E0,0E0,0E0,0E0,0E0],"parents":[2147483647,0,0,1,1,2,2,3,3,4,4,5,5,6,6],"right_children":[2,4,6,8,10,12,14,-1,-1,-1,-1,-1,-1,-1,-1],"split_conditions":[2E0,9.166145E-1,8.807599E0,8.0049616E-1,9.656909E-1,3.1493595E0,8.6947376E-1,-1.1853649E-2,2.9906908E-2,-6.665395E-2,2.6552018E-2,7.824827E-3,6.768599E-2,-1.6397007E-2,5.357022E-2],"split_indices":[3,1,0,1,1,0,1,0,0,0,0,0,0,0,0],"split_type":[0,0,0,0,0,0,0,0,0,0,0,0,0,0,0],"sum_hessian":[7.590304E1,5.424172E1,2.1661324E1,4.9638657E1,4.6030607E0,9.309599E0,1.2351725E1,3.9403694E1,1.02349615E1,3.2448773E0,1.3581834E0,4.4841537E0,4.825445E0,1.0916913E1,1.4348123E0],"tree_param":{"num_deleted":"0","num_feature":"4","num_nodes":"15","size_leaf_vector":"1"}},{"base_weights":[-4.177117E-2,-1.9576159E-1,7.834727E-2,1.0017306E-2,-6.345853E-1,5.8770115E-3,7.639675E-1,-6.613498E-3,6.8364985E-2,2.0303787E-4,-7.903286E-2,3.8699587E-3,-6.145113E-2,7.339279E-2,1.6032802E-2],"categories":[],"categories_nodes":[],"categories_segments":[],"categories_sizes":[],"default_left":[0,0,0,0,0,0,0,0,0,0,0,0,0,0,0],"id":58,"left_children":[1,3,5,7,9,11,13,-1,-1,-1,-1,-1,-1,-1,-1],"loss_changes":[1.3792552E0,2.9500132E0,2.0892491E0,1.8848325E0,2.3486333E0,1.3238951E0,1.6381001E-1,0E0,0E0,0E0,0E0,0E0,0E0,0E0,0E0],"parents":[2147483647,0,0,1,1,2,2,3,3,4,4,5,5,6,6],"right_children":[2,4,6,8,10,12,14,-1,-1,-1,-1,-1,-1,-1,-1],"split_conditions":[7.7298007E0,5.258074E0,4.254926E2,5.051232E0,7.5622765E1,3.548423E2,1.4960536E1,-6.613498E-3,6.8364985E-2,2.0303787E-4,-7.903286E-2,3.8699587E-3,-6.145113E-2,7.339279E-2,1.6032802E-2],"split_indices":[0,0,2,0,2,2,0,0,0,0,0,0,0,0,0],"split_type":[0,0,0,0,0,0,0,0,0,0,0,0,0,0,0],"sum_hessian":[7.273689E1,3.1598389E1,4.11385E1,2.2176344E1,9.422045E0,3.811799E1,3.0205107E0,2.079615E1,1.3801944E0,3.7153213E0,5.7067237E0,3.702275E1,1.0952379E0,1.8805845E0,1.1399262E0],"tree_param":{"num_deleted":"0","num_feature":"4","num_nodes":"15","size_leaf_vector":"1"}},{"base_weights":[-4.3110303E-3,-5.861674E-2,3.9866075E-1,-3.6518526E-1,8.222162E-3,-4.014606E-2,6.978012E-1,-3.677261E-2,2.0174632E-2,-1.8109918E-2,1.2362723E-2,6.897588E-2,1.6031379E-2],"categories":[],"categories_nodes":[],"categories_segments":[],"categories_sizes":[],"default_left":[0,0,0,0,0,0,0,0,0,0,0,0,0],"id":59,"left_children":[1,3,5,7,9,-1,11,-1,-1,-1,-1,-1,-1],"loss_changes":[1.6797261E0,1.3876064E0,2.806024E0,8.226484E-1,1.9727557E0,0E0,4.2104316E-1,0E0,0E0,0E0,0E0,0E0,0E0],"parents":[2147483647,0,0,1,1,2,2,3,3,4,4,6,6],"right_children":[2,4,6,8,10,-1,12,-1,-1,-1,-1,-1,-1],"split_conditions":[3E0,5.628917E-1,3.0590677E0,3.0479603E1,6.5936394E0,-4.014606E-2,1.8133127E1,-3.677261E-2,2.0174632E-2,-1.8109918E-2,1.2362723E-2,6.897588E-2,1.6031379E-2],"split_indices":[3,1,0,0,0,0,0,0,0,0,0,0,0],"split_type":[0,0,0,0,0,0,0,0,0,0,0,0,0],"sum_hessian":[7.468923E1,6.657229E1,8.116946E0,1.1117271E1,5.5455013E1,1.8550948E0,6.2618513E0,9.863389E0,1.2538824E0,2.1090828E1,3.4364185E1,4.155161E0,2.1066904E0],"tree_param":{"num_deleted":"0","num_feature":"4","num_nodes":"13","size_leaf_vector":"1"}},{"base_weights":[1.2992701E-2,2.6028207E-1,-5.3149316E-2,4.684616E-3,8.496085E-2,-3.9130315E-1,3.250416E-2,-3.329414E-2,5.7964023E-2,6.7577615E-2,-4.7067404E-2,-2.3493846E-3,4.6452966E-2],"categories":[],"categories_nodes":[],"categories_segments":[],"categories_sizes":[],"default_left":[0,0,0,0,0,0,0,0,0,0,0,0,0],"id":60,"left_children":[1,3,5,7,-1,9,11,-1,-1,-1,-1,-1,-1],"loss_changes":[1.265368E0,3.3386357E0,1.7853378E0,4.3542027E0,0E0,3.5280616E0,1.7045102E0,0E0,0E0,0E0,0E0,0E0,0E0],"parents":[2147483647,0,0,1,1,2,2,3,3,5,5,6,6],"right_children":[2,4,6,8,-1,10,12,-1,-1,-1,-1,-1,-1],"split_conditions":[4.015908E0,3.309012E0,6.5488377E0,7.704626E-1,8.496085E-2,5.432077E-1,9.0245503E-1,-3.329414E-2,5.7964023E-2,6.7577615E-2,-4.7067404E-2,-2.3493846E-3,4.6452966E-2],"split_indices":[0,0,0,1,0,1,1,0,0,0,0,0,0],"split_type":[0,0,0,0,0,0,0,0,0,0,0,0,0],"sum_hessian":[7.5517334E1,1.5316681E1,6.020065E1,1.2376725E1,2.9399555E0,1.1445639E1,4.875501E1,8.076664E0,4.3000617E0,1.1217659E0,1.0323873E1,4.466053E1,4.094481E0],"tree_param":{"num_deleted":"0","num_feature":"4","num_nodes":"13","size_leaf_vector":"1"}},{"base_weights":[2.2156145E-2,5.7100374E-1,-5.9203748E-2,-7.27093E-3,7.347094E-1,-8.850607E-1,-8.400971E-3,5.815349E-3,6.9328696E-2,-1.3383662E-2,-9.210147E-2,-2.135982E-2,9.761378E-3],"categories":[],"categories_nodes":[],"categories_segments":[],"categories_sizes":[],"default_left":[0,0,0,0,0,0,0,0,0,0,0,0,0],"id":61,"left_children":[1,3,5,-1,7,9,11,-1,-1,-1,-1,-1,-1],"loss_changes":[3.3630953E0,1.1199107E0,2.7548478E0,0E0,6.27018E-1,5.345793E-1,2.158383E0,0E0,0E0,0E0,0E0,0E0,0E0],"parents":[2147483647,0,0,1,1,2,2,4,4,5,5,6,6],"right_children":[2,4,6,-1,8,10,12,-1,-1,-1,-1,-1,-1],"split_conditions":[5.968841E0,2.7918222E0,4.5932612E-1,-7.27093E-3,5.371314E-1,7.150253E1,8.783658E1,5.815349E-3,6.9328696E-2,-1.3383662E-2,-9.210147E-2,-2.135982E-2,9.761378E-3],"split_indices":[2,0,1,0,1,2,2,0,0,0,0,0,0],"split_type":[0,0,0,0,0,0,0,0,0,0,0,0,0],"sum_hessian":[7.3557175E1,8.719287E0,6.483789E1,1.8171297E0,6.902157E0,2.8057487E0,6.2032143E1,1.4044056E0,5.497751E0,1.1996424E0,1.6061062E0,2.0445332E1,4.1586807E1],"tree_param":{"num_deleted":"0","num_feature":"4","num_nodes":"13","size_leaf_vector":"1"}},{"base_weights":[-5.7496257E-2,-2.1740504E-1,5.7182968E-2,-1.3021407E-1,-5.2981645E-1,5.548803E-2,-1.26163345E-2,-5.5602126E-2,2.1779095E-4,-7.080126E-2,3.3945877E-2,3.4600268E-3,-7.342515E-2],"categories":[],"categories_nodes":[],"categories_segments":[],"categories_sizes":[],"default_left":[0,0,0,0,0,0,0,0,0,0,0,0,0],"id":62,"left_children":[1,3,5,7,9,-1,11,-1,-1,-1,-1,-1,-1],"loss_changes":[1.407408E0,8.0207205E-1,2.011779E0,1.9785874E0,2.629807E0,0E0,2.1442804E0,0E0,0E0,0E0,0E0,0E0,0E0],"parents":[2147483647,0,0,1,1,2,2,3,3,4,4,6,6],"right_children":[2,4,6,8,10,-1,12,-1,-1,-1,-1,-1,-1],"split_conditions":[6.6787606E-1,6.314676E-1,6.816873E-1,3.309012E0,1.2700114E1,5.548803E-2,4.1925426E1,-5.5602126E-2,2.1779095E-4,-7.080126E-2,3.3945877E-2,3.4600268E-3,-7.342515E-2],"split_indices":[1,1,1,0,0,0,0,0,0,0,0,0,0],"split_type":[0,0,0,0,0,0,0,0,0,0,0,0,0],"sum_hessian":[7.506936E1,3.0977938E1,4.409142E1,2.5326393E1,5.651545E0,3.474499E0,4.061692E1,4.0196557E0,2.1306736E1,4.17118E0,1.4803653E0,3.915273E1,1.4641932E0],"tree_param":{"num_deleted":"0","num_feature":"4","num_nodes":"13","size_leaf_vector":"1"}},{"base_weights":[-1.1069542E-2,2.3696098E-1,-8.244727E-2,-2.2713069E-2,6.4079285E-2,1.2857918E-1,-1.7867362E-1,2.6669633E-2,-1.6659936E-2,-4.8984163E-3,6.806932E-2,-9.121303E-2,-6.7719994E-3],"categories":[],"categories_nodes":[],"categories_segments":[],"categories_sizes":[],"default_left":[0,0,0,0,0,0,0,0,0,0,0,0,0],"id":63,"left_children":[1,3,5,7,-1,9,11,-1,-1,-1,-1,-1,-1],"loss_changes":[1.3414856E0,2.49996E0,1.2154729E0,9.0022063E-1,0E0,2.6532886E0,3.587594E0,0E0,0E0,0E0,0E0,0E0,0E0],"parents":[2147483647,0,0,1,1,2,2,3,3,5,5,6,6],"right_children":[2,4,6,8,-1,10,12,-1,-1,-1,-1,-1,-1],"split_conditions":[4.160233E0,3.1493595E0,5.813761E1,1E0,6.4079285E-2,4.322923E1,6.750884E1,2.6669633E-2,-1.6659936E-2,-4.8984163E-3,6.806932E-2,-9.121303E-2,-6.7719994E-3],"split_indices":[0,0,2,3,0,2,2,0,0,0,0,0,0],"split_type":[0,0,0,0,0,0,0,0,0,0,0,0,0],"sum_hessian":[7.367011E1,1.5944554E1,5.7725563E1,1.1575183E1,4.3693714E0,1.797337E1,3.9752193E1,3.6922228E0,7.88296E0,1.4957837E1,3.0155323E0,2.5499508E0,3.7202244E1],"tree_param":{"num_deleted":"0","num_feature":"4","num_nodes":"13","size_leaf_vector":"1"}},{"base_weights":[-4.7630172E-2,-1.0596154E-2,-3.6922547E-1,-5.7457607E-2,7.4278826E-1,-6.5443605E-1,3.4728423E-2,-2.519139E-3,-6.0740054E-2,7.877787E-2,1.54990805E-2,1.2828156E-2,-7.215438E-2],"categories":[],"categories_nodes":[],"categories_segments":[],"categories_sizes":[],"default_left":[0,0,0,0,0,0,0,0,0,0,0,0,0],"id":64,"left_children":[1,3,5,7,9,11,-1,-1,-1,-1,-1,-1,-1],"loss_changes":[8.943758E-1,2.466846E0,2.06184E0,1.1710942E0,3.5287142E-1,1.3797414E0,0E0,0E0,0E0,0E0,0E0,0E0,0E0],"parents":[2147483647,0,0,1,1,2,2,3,3,4,4,5,5],"right_children":[2,4,6,8,10,12,-1,-1,-1,-1,-1,-1,-1],"split_conditions":[3.6462524E2,3.1765384E2,6.0352765E2,2.973122E2,3.3529645E2,6.181513E-1,3.4728423E-2,-2.519139E-3,-6.0740054E-2,7.877787E-2,1.54990805E-2,1.2828156E-2,-7.215438E-2],"split_indices":[2,2,2,2,2,1,0,0,0,0,0,0,0],"split_type":[0,0,0,0,0,0,0,0,0,0,0,0,0],"sum_hessian":[7.442323E1,6.766417E1,6.759068E0,6.457148E1,3.0926924E0,5.1248965E0,1.6341711E0,6.327499E1,1.2964873E0,1.595945E0,1.4967474E0,1.2760469E0,3.8488498E0],"tree_param":{"num_deleted":"0","num_feature":"4","num_nodes":"13","size_leaf_vector":"1"}},{"base_weights":[-2.0021444E-2,-3.6554765E-2,4.814164E-2,3.7719586E-3,-3.977346E-1,-1.9095057E-3,5.7220504E-2,-8.927326E-3,-7.809437E-2],"categories":[],"categories_nodes":[],"categories_segments":[],"categories_sizes":[],"default_left":[0,0,0,0,0,0,0,0,0],"id":65,"left_children":[1,3,-1,5,7,-1,-1,-1,-1],"loss_changes":[8.069177E-1,1.0985092E0,0E0,1.3689709E0,1.1447223E0,0E0,0E0,0E0,0E0],"parents":[2147483647,0,0,1,1,3,3,4,4],"right_children":[2,4,-1,6,8,-1,-1,-1,-1],"split_conditions":[6.282829E1,2.7965511E1,4.814164E-2,2.4690168E1,2.721224E2,-1.9095057E-3,5.7220504E-2,-8.927326E-3,-7.809437E-2],"split_indices":[0,0,0,0,2,0,0,0,0],"split_type":[0,0,0,0,0,0,0,0,0],"sum_hessian":[7.535199E1,7.431712E1,1.0348665E0,6.774299E1,6.5741343E0,6.613994E1,1.6030483E0,5.196477E0,1.3776574E0],"tree_param":{"num_deleted":"0","num_feature":"4","num_nodes":"9","size_leaf_vector":"1"}},{"base_weights":[-2.0293593E-2,1.5467922E-1,-1.09534435E-1,3.067754E-1,-2.3274393E-1,3.356355E-1,-1.650523E-1,6.649938E-3,7.064593E-2,-5.553677E-2,4.3517027E-2,-1.8834908E-2,4.141444E-2,-4.006865E-2,5.899589E-4],"categories":[],"categories_nodes":[],"categories_segments":[],"categories_sizes":[],"default_left":[0,0,0,0,0,0,0,0,0,0,0,0,0,0,0],"id":66,"left_children":[1,3,5,7,9,11,13,-1,-1,-1,-1,-1,-1,-1,-1],"loss_changes":[1.1968179E0,1.5997119E0,1.3065984E0,2.3827186E0,3.2021186E0,7.3973614E-1,2.6487837E0,0E0,0E0,0E0,0E0,0E0,0E0,0E0,0E0],"parents":[2147483647,0,0,1,1,2,2,3,3,4,4,5,5,6,6],"right_children":[2,4,6,8,10,12,14,-1,-1,-1,-1,-1,-1,-1,-1],"split_conditions":[1E0,1.5836799E1,3.6490242E0,9.748503E0,2.4690168E1,7.4607116E-1,8.783658E1,6.649938E-3,7.064593E-2,-5.553677E-2,4.3517027E-2,-1.8834908E-2,4.141444E-2,-4.006865E-2,5.899589E-4],"split_indices":[3,0,2,0,0,2,2,0,0,0,0,0,0,0,0],"split_type":[0,0,0,0,0,0,0,0,0,0,0,0,0,0,0],"sum_hessian":[7.4561714E1,2.4936304E1,4.9625412E1,1.8055979E1,6.880326E0,4.943158E0,4.4682255E1,1.3832193E1,4.2237864E0,4.382663E0,2.4976628E0,1.1239767E0,3.8191814E0,1.4513013E1,3.016924E1],"tree_param":{"num_deleted":"0","num_feature":"4","num_nodes":"15","size_leaf_vector":"1"}},{"base_weights":[-4.720321E-3,-3.1909266E-1,2.5373593E-2,1.3106983E-2,-5.2686507E-1,-6.045004E-2,1.5098788E-1,-6.0420454E-2,4.8456765E-3,2.1771532E-3,-1.0400101E-1,7.571607E-2,4.9675293E-3],"categories":[],"categories_nodes":[],"categories_segments":[],"categories_sizes":[],"default_left":[0,0,0,0,0,0,0,0,0,0,0,0,0],"id":67,"left_children":[1,3,5,-1,7,9,11,-1,-1,-1,-1,-1,-1],"loss_changes":[7.309297E-1,7.63471E-1,7.708381E-1,0E0,7.1063197E-1,4.674317E0,1.989408E0,0E0,0E0,0E0,0E0,0E0,0E0],"parents":[2147483647,0,0,1,1,2,2,4,4,5,5,6,6],"right_children":[2,4,6,-1,8,10,12,-1,-1,-1,-1,-1,-1],"split_conditions":[2.0075438E0,1.0165523E0,1.4224248E2,1.3106983E-2,2E0,1.3704243E2,1.4965263E2,-6.0420454E-2,4.8456765E-3,2.1771532E-3,-1.0400101E-1,7.571607E-2,4.9675293E-3],"split_indices":[0,0,2,0,3,2,2,0,0,0,0,0,0],"split_type":[0,0,0,0,0,0,0,0,0,0,0,0,0],"sum_hessian":[7.540382E1,5.7485957E0,6.965522E1,1.7928631E0,3.9557328E0,4.169004E1,2.7965183E1,2.6426206E0,1.3131124E0,3.9849823E1,1.8402176E0,1.8413078E0,2.6123875E1],"tree_param":{"num_deleted":"0","num_feature":"4","num_nodes":"13","size_leaf_vector":"1"}},{"base_weights":[2.7785357E-2,3.1240982E-1,-3.502814E-2,-2.3809735E-2,4.400256E-1,-7.63062E-2,5.200316E-3,-3.285696E-2,4.646891E-2,2.8886864E-2,-4.5933067E-3],"categories":[],"categories_nodes":[],"categories_segments":[],"categories_sizes":[],"default_left":[0,0,0,0,0,0,0,0,0,0,0],"id":68,"left_children":[1,3,5,-1,7,-1,9,-1,-1,-1,-1],"loss_changes":[1.3308436E0,1.1778885E0,2.2736459E0,0E0,1.6194236E0,0E0,1.3533137E0,0E0,0E0,0E0,0E0],"parents":[2147483647,0,0,1,1,2,2,4,4,6,6],"right_children":[2,4,6,-1,8,-1,10,-1,-1,-1,-1],"split_conditions":[2.0161156E1,4.8560807E-1,2.5961567E1,-2.3809735E-2,4.8606566E-1,-7.63062E-2,5.813761E1,-3.285696E-2,4.646891E-2,2.8886864E-2,-4.5933067E-3],"split_indices":[2,2,2,0,1,0,2,0,0,0,0],"split_type":[0,0,0,0,0,0,0,0,0,0,0],"sum_hessian":[7.2827126E1,1.2448066E1,6.0379063E1,1.9230922E0,1.0524973E1,1.5800977E0,5.8798965E1,1.2227204E0,9.302253E0,8.084368E0,5.07146E1],"tree_param":{"num_deleted":"0","num_feature":"4","num_nodes":"11","size_leaf_vector":"1"}},{"base_weights":[1.3595613E-2,-5.008167E-2,3.902186E-2,6.286305E-1,6.2974277E-3,1.5683882E-2,5.7418797E-2,-6.4913005E-2,3.0035053E-3],"categories":[],"categories_nodes":[],"categories_segments":[],"categories_sizes":[],"default_left":[0,0,0,0,0,0,0,0,0],"id":69,"left_children":[1,-1,3,5,7,-1,-1,-1,-1],"loss_changes":[1.2176882E0,0E0,1.375771E0,3.8347244E-3,1.787277E0,0E0,0E0,0E0,0E0],"parents":[2147483647,0,0,2,2,3,3,4,4],"right_children":[2,-1,4,6,8,-1,-1,-1,-1],"split_conditions":[4.8560807E-1,-5.008167E-2,1.7788699E0,4.3229737E0,2.2950733E0,1.5683882E-2,5.7418797E-2,-6.4913005E-2,3.0035053E-3],"split_indices":[2,0,2,0,2,0,0,0,0],"split_type":[0,0,0,0,0,0,0,0,0],"sum_hessian":[7.237245E1,1.8638879E0,7.050857E1,2.750049E0,6.7758514E1,1.0163091E0,1.7337401E0,1.5749253E0,6.618359E1],"tree_param":{"num_deleted":"0","num_feature":"4","num_nodes":"9","size_leaf_vector":"1"}},{"base_weights":[5.955524E-2,2.27439E-2,2.7163163E-1,5.1144455E-2,-6.5122E-2,6.4967774E-2,4.4406768E-2,-1.1392259E-2,7.0693265E-3,-1.0270779E-2,4.865166E-2],"categories":[],"categories_nodes":[],"categories_segments":[],"categories_sizes":[],"default_left":[0,0,0,0,0,0,0,0,0,0,0],"id":70,"left_children":[1,3,5,7,-1,-1,9,-1,-1,-1,-1],"loss_changes":[5.743171E-1,1.5732949E0,1.3033148E0,4.6844244E-1,0E0,0E0,9.290512E-1,0E0,0E0,0E0,0E0],"parents":[2147483647,0,0,1,1,2,2,3,3,6,6],"right_children":[2,4,6,8,-1,-1,10,-1,-1,-1,-1],"split_conditions":[2.4372723E1,2.4189407E1,3.0103107E1,2.7918222E0,-6.5122E-2,6.4967774E-2,8.288152E-1,-1.1392259E-2,7.0693265E-3,-1.0270779E-2,4.865166E-2],"split_indices":[0,0,0,0,0,0,1,0,0,0,0],"split_type":[0,0,0,0,0,0,0,0,0,0,0],"sum_hessian":[7.335747E1,6.345113E1,9.90634E0,6.2276306E1,1.1748251E0,2.1702685E0,7.7360706E0,9.589102E0,5.2687202E1,6.512261E0,1.2238096E0],"tree_param":{"num_deleted":"0","num_feature":"4","num_nodes":"11","size_leaf_vector":"1"}},{"base_weights":[-5.564545E-2,-1.1327212E-1,1.0520304E-1,-6.714766E-2,-5.743399E-2,5.169371E-2,-5.2019376E-2,-1.1457142E-3,-6.0850352E-2,4.264593E-2,-2.0678498E-2],"categories":[],"categories_nodes":[],"categories_segments":[],"categories_sizes":[],"default_left":[0,0,0,0,0,0,0,0,0,0,0],"id":71,"left_children":[1,3,5,-1,7,-1,9,-1,-1,-1,-1],"loss_changes":[7.103534E-1,2.220438E0,1.7681296E0,0E0,1.5969301E0,0E0,2.1583643E0,0E0,0E0,0E0,0E0],"parents":[2147483647,0,0,1,1,2,2,4,4,6,6],"right_children":[2,4,6,-1,8,-1,10,-1,-1,-1,-1],"split_conditions":[8.0049616E-1,1.952545E0,3.8101878E0,-6.714766E-2,7.885695E-1,5.169371E-2,8.376748E-1,-1.1457142E-3,-6.0850352E-2,4.264593E-2,-2.0678498E-2],"split_indices":[1,0,0,0,1,0,1,0,0,0,0],"split_type":[0,0,0,0,0,0,0,0,0,0,0],"sum_hessian":[7.4350586E1,5.4957073E1,1.939351E1,2.9225712E0,5.2034504E1,3.6668284E0,1.5726683E1,4.9990005E1,2.044496E0,3.689379E0,1.2037304E1],"tree_param":{"num_deleted":"0","num_feature":"4","num_nodes":"11","size_leaf_vector":"1"}},{"base_weights":[-2.6808882E-2,-6.4010166E-2,6.913018E-2,-3.671038E-2,-7.2863765E-2,-5.01445E-3,4.294071E-2],"categories":[],"categories_nodes":[],"categories_segments":[],"categories_sizes":[],"default_left":[0,0,0,0,0,0,0],"id":72,"left_children":[1,3,-1,5,-1,-1,-1],"loss_changes":[2.5009665E0,1.6254992E0,0E0,1.0845479E0,0E0,0E0,0E0],"parents":[2147483647,0,0,1,1,3,3],"right_children":[2,4,-1,6,-1,-1,-1],"split_conditions":[5.197201E2,4.663547E2,6.913018E-2,4.254926E2,-7.2863765E-2,-5.01445E-3,4.294071E-2],"split_indices":[2,2,0,2,0,0,0],"split_type":[0,0,0,0,0,0,0],"sum_hessian":[7.2788795E1,7.076225E1,2.026543E0,6.956295E1,1.199305E0,6.74013E1,2.1616492E0],"tree_param":{"num_deleted":"0","num_feature":"4","num_nodes":"7","size_leaf_vector":"1"}},{"base_weights":[4.0192768E-2,-1.0630478E-2,3.4790614E-1,1.6692443E-2,-5.9835024E-2,7.513604E-2,9.044616E-3,-5.040135E-4,5.5437293E-2,-6.717301E-2,3.5644326E-2],"categories":[],"categories_nodes":[],"categories_segments":[],"categories_sizes":[],"default_left":[0,0,0,0,0,0,0,0,0,0,0],"id":73,"left_children":[1,3,5,7,-1,-1,9,-1,-1,-1,-1],"loss_changes":[1.150046E0,1.2993814E0,2.0793586E0,9.7737783E-1,0E0,0E0,3.2021806E0,0E0,0E0,0E0,0E0],"parents":[2147483647,0,0,1,1,2,2,3,3,6,6],"right_children":[2,4,6,8,-1,-1,10,-1,-1,-1,-1],"split_conditions":[3.1765384E2,2.973122E2,3.6462524E2,2.8718594E2,-5.9835024E-2,7.513604E-2,4.254926E2,-5.040135E-4,5.5437293E-2,-6.717301E-2,3.5644326E-2],"split_indices":[2,2,2,2,0,0,2,0,0,0,0],"split_type":[0,0,0,0,0,0,0,0,0,0,0],"sum_hessian":[7.23006E1,6.288045E1,9.420149E0,6.1575947E1,1.3045033E0,2.7864003E0,6.6337485E0,6.0509377E1,1.0665725E0,1.9393933E0,4.694355E0],"tree_param":{"num_deleted":"0","num_feature":"4","num_nodes":"11","size_leaf_vector":"1"}},{"base_weights":[-2.2474993E-2,-6.339693E-2,7.4666687E-3,5.6108904E-1,-2.0464264E-2,1.2925522E-2,5.2959543E-2,-5.0688386E-2,4.6384547E-4],"categories":[],"categories_nodes":[],"categories_segments":[],"categories_sizes":[],"default_left":[0,0,0,0,0,0,0,0,0],"id":74,"left_children":[1,-1,3,5,7,-1,-1,-1,-1],"loss_changes":[1.6716135E0,0E0,1.102196E0,3.1032324E-2,1.1004672E0,0E0,0E0,0E0,0E0],"parents":[2147483647,0,0,2,2,3,3,4,4],"right_children":[2,-1,4,6,8,-1,-1,-1,-1],"split_conditions":[4.8560807E-1,-6.339693E-2,1.7788699E0,7.380889E-1,2.2950733E0,1.2925522E-2,5.2959543E-2,-5.0688386E-2,4.6384547E-4],"split_indices":[2,0,2,1,2,0,0,0,0],"split_type":[0,0,0,0,0,0,0,0,0],"sum_hessian":[7.124982E1,1.7136762E0,6.953614E1,2.42291E0,6.7113235E1,1.0130554E0,1.4098544E0,1.8066975E0,6.530653E1],"tree_param":{"num_deleted":"0","num_feature":"4","num_nodes":"9","size_leaf_vector":"1"}},{"base_weights":[1.719436E-2,6.684743E-2,-1.6589999E-1,6.5941815E-3,7.3647344E-1,-7.8289255E-2,-7.6603577E-3,-6.069112E-3,2.5980327E-2,7.0504524E-2,1.0687153E-2,5.5926345E-2,-1.0788822E-2],"categories":[],"categories_nodes":[],"categories_segments":[],"categories_sizes":[],"default_left":[0,0,0,0,0,0,0,0,0,0,0,0,0],"id":75,"left_children":[1,3,5,7,9,-1,11,-1,-1,-1,-1,-1,-1],"loss_changes":[6.9106925E-1,2.3978848E0,2.0814986E0,1.4844656E0,3.1074286E-1,0E0,1.4071603E0,0E0,0E0,0E0,0E0,0E0,0E0],"parents":[2147483647,0,0,1,1,2,2,3,3,4,4,6,6],"right_children":[2,4,6,8,10,-1,12,-1,-1,-1,-1,-1,-1],"split_conditions":[8.376748E-1,8.0049616E-1,8.539424E-1,2.4870215E2,2E0,-7.8289255E-2,8.649557E-1,-6.069112E-3,2.5980327E-2,7.0504524E-2,1.0687153E-2,5.5926345E-2,-1.0788822E-2],"split_indices":[1,1,1,2,3,0,1,0,0,0,0,0,0],"split_type":[0,0,0,0,0,0,0,0,0,0,0,0,0],"sum_hessian":[7.379536E1,5.8551712E1,1.5243646E1,5.464461E1,3.907099E0,1.6393882E0,1.3604258E1,4.4002068E1,1.0642543E1,2.777929E0,1.1291698E0,1.3892864E0,1.2214971E1],"tree_param":{"num_deleted":"0","num_feature":"4","num_nodes":"13","size_leaf_vector":"1"}},{"base_weights":[-3.8403414E-2,3.6402654E-2,-1.4722282E-1,-7.420736E-2,3.5699046E-1,-8.2467325E-2,-7.6376416E-2,4.764342E-4,-4.6182856E-2,-1.1199787E-2,5.3488586E-2,5.6057423E-2,-1.05412025E-2],"categories":[],"categories_nodes":[],"categories_segments":[],"categories_sizes":[],"default_left":[0,0,0,0,0,0,0,0,0,0,0,0,0],"id":76,"left_children":[1,3,5,7,9,-1,11,-1,-1,-1,-1,-1,-1],"loss_changes":[6.0709304E-1,1.6082958E0,1.8188369E0,1.3743149E0,1.8923867E0,0E0,1.3466687E0,0E0,0E0,0E0,0E0,0E0,0E0],"parents":[2147483647,0,0,1,1,2,2,3,3,4,4,6,6],"right_children":[2,4,6,8,10,-1,12,-1,-1,-1,-1,-1,-1],"split_conditions":[1.1688945E1,8.053007E0,1.1956779E1,9.0352464E-1,6.6787606E-1,-8.2467325E-2,1.2634875E1,4.764342E-4,-4.6182856E-2,-1.1199787E-2,5.3488586E-2,5.6057423E-2,-1.05412025E-2],"split_indices":[0,0,0,1,1,0,0,0,0,0,0,0,0],"split_type":[0,0,0,0,0,0,0,0,0,0,0,0,0],"sum_hessian":[7.291986E1,4.3607853E1,2.9312006E1,3.299304E1,1.0614814E1,1.1699276E0,2.8142078E1,2.9310701E1,3.682338E0,4.3029366E0,6.3118777E0,1.0972263E0,2.7044853E1],"tree_param":{"num_deleted":"0","num_feature":"4","num_nodes":"13","size_leaf_vector":"1"}},{"base_weights":[-5.35997E-2,-1.7377961E-2,-4.1236377E-1,2.2511083E-1,-1.1068688E-1,-9.3192846E-2,2.8552103E-1,-2.1526042E-2,3.528417E-2,-1.8461188E-2,1.1615981E-2,6.8157054E-2,-4.6111856E-2],"categories":[],"categories_nodes":[],"categories_segments":[],"categories_sizes":[],"default_left":[0,0,0,0,0,0,0,0,0,0,0,0,0],"id":77,"left_children":[1,3,5,7,9,-1,11,-1,-1,-1,-1,-1,-1],"loss_changes":[9.514554E-1,1.5645803E0,3.8623257E0,2.1716745E0,1.5639632E0,0E0,2.5856662E0,0E0,0E0,0E0,0E0,0E0,0E0],"parents":[2147483647,0,0,1,1,2,2,3,3,4,4,6,6],"right_children":[2,4,6,8,10,-1,12,-1,-1,-1,-1,-1,-1],"split_conditions":[3.548423E2,5.258074E0,7.2044845E0,2.0757601E0,1.5531956E2,-9.3192846E-2,2.3274712E1,-2.1526042E-2,3.528417E-2,-1.8461188E-2,1.1615981E-2,6.8157054E-2,-4.6111856E-2],"split_indices":[2,0,0,0,2,0,0,0,0,0,0,0,0],"split_type":[0,0,0,0,0,0,0,0,0,0,0,0,0],"sum_hessian":[7.276815E1,6.704732E1,5.7208304E0,1.8238096E1,4.8809223E1,2.4306247E0,3.2902057E0,5.4711623E0,1.2766934E1,3.328704E1,1.5522182E1,1.9923862E0,1.2978195E0],"tree_param":{"num_deleted":"0","num_feature":"4","num_nodes":"13","size_leaf_vector":"1"}},{"base_weights":[-2.4255589E-2,-3.1889996E-1,9.141724E-3,1.3826436E-1,-6.646016E-2,3.817228E-1,-4.9626213E-2,-1.4251659E-2,4.505018E-2,-1.3342519E-2,6.1568685E-2,-4.2789616E-2,1.11101814E-4],"categories":[],"categories_nodes":[],"categories_segments":[],"categories_sizes":[],"default_left":[0,0,0,0,0,0,0,0,0,0,0,0,0],"id":78,"left_children":[1,3,5,7,-1,9,11,-1,-1,-1,-1,-1,-1],"loss_changes":[7.276929E-1,1.87605E0,1.4887524E0,7.5001097E-1,0E0,2.09862E0,1.4579722E0,0E0,0E0,0E0,0E0,0E0,0E0],"parents":[2147483647,0,0,1,1,2,2,3,3,5,5,6,6],"right_children":[2,4,6,8,-1,10,12,-1,-1,-1,-1,-1,-1],"split_conditions":[2.0757601E0,1.4224248E2,4.015908E0,6.99038E1,-6.646016E-2,6.0141224E-1,4.815585E0,-1.4251659E-2,4.505018E-2,-1.3342519E-2,6.1568685E-2,-4.2789616E-2,1.11101814E-4],"split_indices":[0,2,0,2,0,1,0,0,0,0,0,0,0],"split_type":[0,0,0,0,0,0,0,0,0,0,0,0,0],"sum_hessian":[7.2653786E1,6.5264225E0,6.6127365E1,3.832908E0,2.6935146E0,8.260628E0,5.7866737E1,2.529672E0,1.3032359E0,3.657967E0,4.602661E0,4.602656E0,5.326408E1],"tree_param":{"num_deleted":"0","num_feature":"4","num_nodes":"13","size_leaf_vector":"1"}},{"base_weights":[8.492643E-3,-1.3309684E-1,8.487946E-2,-2.511538E-1,3.334454E-1,1.7051557E-1,-1.936077E-1,7.846703E-3,-4.579279E-2,-5.258504E-2,6.9460675E-2,4.5673028E-3,3.679357E-2,-5.1015183E-2,3.8136952E-4],"categories":[],"categories_nodes":[],"categories_segments":[],"categories_sizes":[],"default_left":[0,0,0,0,0,0,0,0,0,0,0,0,0,0,0],"id":79,"left_children":[1,3,5,7,9,11,13,-1,-1,-1,-1,-1,-1,-1,-1],"loss_changes":[8.300611E-1,1.566364E0,1.2202917E0,2.5303311E0,3.6787395E0,1.2410462E0,1.0757456E0,0E0,0E0,0E0,0E0,0E0,0E0,0E0,0E0],"parents":[2147483647,0,0,1,1,2,2,3,3,4,4,5,5,6,6],"right_children":[2,4,6,8,10,12,14,-1,-1,-1,-1,-1,-1,-1,-1],"split_conditions":[6.421685E-1,2.4870215E2,2.2918217E2,5.432077E-1,5.166005E-1,1.4173285E2,2.8718594E2,7.846703E-3,-4.579279E-2,-5.258504E-2,6.9460675E-2,4.5673028E-3,3.679357E-2,-5.1015183E-2,3.8136952E-4],"split_indices":[1,2,2,1,1,2,2,0,0,0,0,0,0,0,0],"split_type":[0,0,0,0,0,0,0,0,0,0,0,0,0,0,0],"sum_hessian":[7.470233E1,2.5918247E1,4.878409E1,2.1052622E1,4.8656254E0,3.7607357E1,1.117673E1,1.0419867E1,1.0632754E1,1.6254238E0,3.2402015E0,2.787842E1,9.728938E0,2.7672932E0,8.409437E0],"tree_param":{"num_deleted":"0","num_feature":"4","num_nodes":"15","size_leaf_vector":"1"}},{"base_weights":[5.9386487E-3,4.6503457E-1,-3.0095149E-2,-6.848109E-2,6.6362344E-2,-5.5813726E-2,-5.7165814E-3,2.7019994E-2,-3.3979416E-2,-4.041932E-3,1.7468365E-2],"categories":[],"categories_nodes":[],"categories_segments":[],"categories_sizes":[],"default_left":[0,0,0,0,0,0,0,0,0,0,0],"id":80,"left_children":[1,3,5,7,-1,-1,9,-1,-1,-1,-1],"loss_changes":[1.2432675E0,1.12026E0,1.1326137E0,5.9838647E-1,0E0,0E0,6.976426E-1,0E0,0E0,0E0,0E0],"parents":[2147483647,0,0,1,1,2,2,3,3,6,6],"right_children":[2,4,6,8,-1,-1,10,-1,-1,-1,-1],"split_conditions":[1.7788699E0,4.8560807E-1,3.232423E-1,1.5516448E-1,6.6362344E-2,-5.5813726E-2,8.759637E-1,2.7019994E-2,-3.3979416E-2,-4.041932E-3,1.7468365E-2],"split_indices":[2,2,1,2,0,0,1,0,0,0,0],"split_type":[0,0,0,0,0,0,0,0,0,0,0],"sum_hessian":[7.330784E1,4.468645E0,6.8839195E1,2.1434178E0,2.3252275E0,1.4522736E0,6.738692E1,1.0257531E0,1.1176647E0,5.6802605E1,1.0584315E1],"tree_param":{"num_deleted":"0","num_feature":"4","num_nodes":"11","size_leaf_vector":"1"}},{"base_weights":[-1.3372088E-3,-7.4318394E-2,1.7968518E-1,-1.9542785E-1,1.1797195E-1,9.9207476E-2,6.0072858E-2,1.2990693E-2,-2.2695081E-2,2.8259972E-2,-3.5994656E-2,2.1766786E-2,-3.639114E-2],"categories":[],"categories_nodes":[],"categories_segments":[],"categories_sizes":[],"default_left":[0,0,0,0,0,0,0,0,0,0,0,0,0],"id":81,"left_children":[1,3,5,7,9,11,-1,-1,-1,-1,-1,-1,-1],"loss_changes":[1.0005801E0,1.2797573E0,9.259787E-1,1.1035819E0,3.0285897E0,2.061418E0,0E0,0E0,0E0,0E0,0E0,0E0,0E0],"parents":[2147483647,0,0,1,1,2,2,3,3,4,4,5,5],"right_children":[2,4,6,8,10,12,-1,-1,-1,-1,-1,-1,-1],"split_conditions":[2E0,7.5182104E-1,8.937407E-1,1.4325348E1,9.0990037E-1,7.5971955E-1,6.0072858E-2,1.2990693E-2,-2.2695081E-2,2.8259972E-2,-3.5994656E-2,2.1766786E-2,-3.639114E-2],"split_indices":[3,1,1,2,1,1,0,0,0,0,0,0,0],"split_type":[0,0,0,0,0,0,0,0,0,0,0,0,0],"sum_hessian":[7.37263E1,5.2963093E1,2.0763206E1,3.2486153E1,2.047694E1,1.9227936E1,1.5352721E0,6.2616014E0,2.622455E1,1.47458515E1,5.731088E0,1.5043381E1,4.1845546E0],"tree_param":{"num_deleted":"0","num_feature":"4","num_nodes":"13","size_leaf_vector":"1"}},{"base_weights":[-3.8406182E-2,-5.792273E-2,3.7530832E-2,-1.0029774E-2,-6.2242895E-1,-4.5844745E-3,7.8710675E-2,7.4093975E-4,-6.5978214E-2],"categories":[],"categories_nodes":[],"categories_segments":[],"categories_sizes":[],"default_left":[0,0,0,0,0,0,0,0,0],"id":82,"left_children":[1,3,-1,5,7,-1,-1,-1,-1],"loss_changes":[7.6375926E-1,1.9538075E0,0E0,3.2442992E0,7.300842E-1,0E0,0E0,0E0,0E0],"parents":[2147483647,0,0,1,1,3,3,4,4],"right_children":[2,4,-1,6,8,-1,-1,-1,-1],"split_conditions":[5.197201E2,3.548423E2,3.7530832E-2,3.1765384E2,6.736808E-1,-4.5844745E-3,7.8710675E-2,7.4093975E-4,-6.5978214E-2],"split_indices":[2,2,0,2,1,0,0,0,0],"split_type":[0,0,0,0,0,0,0,0,0],"sum_hessian":[7.336158E1,7.149813E1,1.8634489E0,6.6844765E1,4.6533713E0,6.470917E1,2.1355927E0,1.360219E0,3.2931526E0],"tree_param":{"num_deleted":"0","num_feature":"4","num_nodes":"9","size_leaf_vector":"1"}},{"base_weights":[-5.5383485E-2,1.361914E-1,-1.0840857E-1,-4.6735514E-2,5.8402973E-1,-1.9204451E-1,1.648152E-2,3.357135E-2,-2.302755E-2,2.113729E-2,6.745773E-2,-8.939385E-3,-8.1563555E-2,-5.3130444E-2,7.254274E-3],"categories":[],"categories_nodes":[],"categories_segments":[],"categories_sizes":[],"default_left":[0,0,0,0,0,0,0,0,0,0,0,0,0,0,0],"id":83,"left_children":[1,3,5,7,9,11,13,-1,-1,-1,-1,-1,-1,-1,-1],"loss_changes":[7.8705627E-1,1.4137638E0,6.3094425E-1,1.5760949E0,1.902039E-1,2.2832587E0,1.3240482E0,0E0,0E0,0E0,0E0,0E0,0E0,0E0,0E0],"parents":[2147483647,0,0,1,1,2,2,3,3,4,4,5,5,6,6],"right_children":[2,4,6,8,10,12,14,-1,-1,-1,-1,-1,-1,-1,-1],"split_conditions":[4.015908E0,3.1493595E0,1.4224248E2,1E0,3.7595572E0,1.3704243E2,4.58574E0,3.357135E-2,-2.302755E-2,2.113729E-2,6.745773E-2,-8.939385E-3,-8.1563555E-2,-5.3130444E-2,7.254274E-3],"split_indices":[0,0,2,3,0,2,0,0,0,0,0,0,0,0,0],"split_type":[0,0,0,0,0,0,0,0,0,0,0,0,0,0,0],"sum_hessian":[7.5025894E1,1.5924321E1,5.9101574E1,1.194204E1,3.9822805E0,3.507498E1,2.4026594E1,3.8174577E0,8.124582E0,2.6866462E0,1.2956343E0,3.3006958E1,2.0680232E0,1.5802213E0,2.2446373E1],"tree_param":{"num_deleted":"0","num_feature":"4","num_nodes":"15","size_leaf_vector":"1"}},{"base_weights":[7.1540914E-2,1.177851E-1,-7.595383E-2,3.613573E-2,3.7724364E-1,-2.6875553E-1,3.409497E-1,8.125637E-3,-6.36451E-2,-1.433243E-2,5.1636677E-2,-6.4482704E-2,-8.347118E-3,5.7992246E-2,-5.725838E-3],"categories":[],"categories_nodes":[],"categories_segments":[],"categories_sizes":[],"default_left":[0,0,0,0,0,0,0,0,0,0,0,0,0,0,0],"id":84,"left_children":[1,3,5,7,9,11,13,-1,-1,-1,-1,-1,-1,-1,-1],"loss_changes":[5.092272E-1,1.1776078E0,1.5477358E0,2.4687054E0,2.1084979E0,1.059522E0,1.0290262E0,0E0,0E0,0E0,0E0,0E0,0E0,0E0,0E0],"parents":[2147483647,0,0,1,1,2,2,3,3,4,4,5,5,6,6],"right_children":[2,4,6,8,10,12,14,-1,-1,-1,-1,-1,-1,-1,-1],"split_conditions":[2.2918217E2,1.4224248E2,2E0,1.3704243E2,6.39977E-1,5.527885E-1,6.7540205E-1,8.125637E-3,-6.36451E-2,-1.433243E-2,5.1636677E-2,-6.4482704E-2,-8.347118E-3,5.7992246E-2,-5.725838E-3],"split_indices":[2,2,3,2,1,1,1,0,0,0,0,0,0,0,0],"split_type":[0,0,0,0,0,0,0,0,0,0,0,0,0,0,0],"sum_hessian":[7.234665E1,5.5231335E1,1.7115313E1,4.2877445E1,1.235389E1,1.1946072E1,5.1692414E0,4.056392E1,2.3135276E0,4.126241E0,8.227649E0,1.8847431E0,1.0061329E1,2.2851272E0,2.8841143E0],"tree_param":{"num_deleted":"0","num_feature":"4","num_nodes":"15","size_leaf_vector":"1"}},{"base_weights":[6.4090356E-2,-4.3052178E-2,8.889386E-2,5.2465543E-2,5.369014E-2,1.9675285E-2,-1.4655245E-3],"categories":[],"categories_nodes":[],"categories_segments":[],"categories_sizes":[],"default_left":[0,0,0,0,0,0,0],"id":85,"left_children":[1,-1,3,-1,5,-1,-1],"loss_changes":[1.1173606E0,0E0,1.3543528E0,0E0,9.271045E-1,0E0,0E0],"parents":[2147483647,0,0,2,2,4,4],"right_children":[2,-1,4,-1,6,-1,-1],"split_conditions":[4.8560807E-1,-4.3052178E-2,1.9567728E0,5.2465543E-2,5.986689E-1,1.9675285E-2,-1.4655245E-3],"split_indices":[2,0,2,0,1,0,0],"split_type":[0,0,0,0,0,0,0],"sum_hessian":[7.059873E1,1.9739331E0,6.86248E1,2.9814746E0,6.5643326E1,1.7229204E1,4.8414124E1],"tree_param":{"num_deleted":"0","num_feature":"4","num_nodes":"7","size_leaf_vector":"1"}},{"base_weights":[4.4009765E-3,-6.7159906E-2,2.087149E-1,-3.223872E-2,-4.923041E-2,7.194631E-1,4.00146E-2,-1.0441738E-2,7.740845E-3,6.7378215E-2,1.7734658E-2,-5.6416765E-2,1.38052665E-2],"categories":[],"categories_nodes":[],"categories_segments":[],"categories_sizes":[],"default_left":[0,0,0,0,0,0,0,0,0,0,0,0,0],"id":86,"left_children":[1,3,5,7,-1,9,11,-1,-1,-1,-1,-1,-1],"loss_changes":[1.096133E0,1.0440183E0,1.6463811E0,6.8835676E-1,0E0,1.04682684E-1,1.669927E0,0E0,0E0,0E0,0E0,0E0,0E0],"parents":[2147483647,0,0,1,1,2,2,3,3,5,5,6,6],"right_children":[2,4,6,8,-1,10,12,-1,-1,-1,-1,-1,-1],"split_conditions":[8.0049616E-1,7.885695E-1,8.376748E-1,6.6787606E-1,-4.923041E-2,2E0,8.539424E-1,-1.0441738E-2,7.740845E-3,6.7378215E-2,1.7734658E-2,-5.6416765E-2,1.38052665E-2],"split_indices":[1,1,1,1,0,3,1,0,0,0,0,0,0],"split_type":[0,0,0,0,0,0,0,0,0,0,0,0,0],"sum_hessian":[7.301165E1,5.4569862E1,1.8441786E1,5.229737E1,2.2724938E0,3.7683089E0,1.4673476E1,2.9675877E1,2.2621494E1,2.467737E0,1.300572E0,1.5634172E0,1.3110059E1],"tree_param":{"num_deleted":"0","num_feature":"4","num_nodes":"13","size_leaf_vector":"1"}},{"base_weights":[-3.9578732E-2,1.1396037E-1,-1.10832274E-1,-4.3784503E-2,6.1261594E-1,-1.0925424E0,-2.0050561E-2,1.2450137E-2,-3.205966E-2,4.9892236E-3,5.8400225E-2,-3.246611E-2,-1.0641037E-1,7.0615225E-2,-4.6923547E-3],"categories":[],"categories_nodes":[],"categories_segments":[],"categories_sizes":[],"default_left":[0,0,0,0,0,0,0,0,0,0,0,0,0,0,0],"id":87,"left_children":[1,3,5,7,9,11,13,-1,-1,-1,-1,-1,-1,-1,-1],"loss_changes":[8.374744E-1,1.9454709E0,4.612769E0,1.4477912E0,3.3740354E-1,1.7534304E-1,1.7461771E0,0E0,0E0,0E0,0E0,0E0,0E0,0E0,0E0],"parents":[2147483647,0,0,1,1,2,2,3,3,4,4,5,5,6,6],"right_children":[2,4,6,8,10,12,14,-1,-1,-1,-1,-1,-1,-1,-1],"split_conditions":[6.3202675E1,3.6513355E1,7.275983E1,1.9020258E1,4.58574E0,8.227015E0,7.651523E1,1.2450137E-2,-3.205966E-2,4.9892236E-3,5.8400225E-2,-3.246611E-2,-1.0641037E-1,7.0615225E-2,-4.6923547E-3],"split_indices":[2,2,2,2,0,0,2,0,0,0,0,0,0,0,0],"split_type":[0,0,0,0,0,0,0,0,0,0,0,0,0,0,0],"sum_hessian":[7.439565E1,2.3391542E1,5.1004105E1,1.846311E1,4.928432E0,3.3832235E0,4.7620884E1,